<?xml version="1.0"?>
<opencv_storage>
<cascade>
  <stageType>BOOST</stageType>
  <featureType>HAAR</featureType>
  <height>24</height>
  <width>24</width>
  <stageParams>
    <boostType>GAB</boostType>
    <minHitRate>9.9900001287460327e-01</minHitRate>
    <maxFalseAlarm>5.0000000000000000e-01</maxFalseAlarm>
    <weightTrimRate>9.4999999999999996e-01</weightTrimRate>
    <maxDepth>1</maxDepth>
    <maxWeakCount>100</maxWeakCount></stageParams>
  <featureParams>
    <maxCatCount>0</maxCatCount>
    <featSize>1</featSize>
    <mode>ALL</mode></featureParams>
  <stageNum>100</stageNum>
  <stages>
    <!-- stage 0 -->
    <_>
      <maxWeakCount>35</maxWeakCount>
      <stageThreshold>-1.5217428207397461e+00</stageThreshold>
      <weakClassifiers>
        <_>
          <internalNodes>
            0 -1 2255 -3.1716167926788330e-02</internalNodes>
          <leafValues>
            7.1975064277648926e-01 -3.7368240952491760e-01</leafValues></_>
        <_>
          <internalNodes>
            0 -1 1409 -1.5330168604850769e-01</internalNodes>
          <leafValues>
            5.0399720668792725e-01 -1.4294993877410889e-01</leafValues></_>
        <_>
          <internalNodes>
            0 -1 249 -2.1834131330251694e-02</internalNodes>
          <leafValues>
            3.7871775031089783e-01 -2.2686815261840820e-01</leafValues></_>
        <_>
          <internalNodes>
            0 -1 3977 -3.1213393434882164e-02</internalNodes>
          <leafValues>
            4.8913860321044922e-01 -1.3442440330982208e-01</leafValues></_>
        <_>
          <internalNodes>
            0 -1 1607 4.0076307952404022e-02</internalNodes>
          <leafValues>
            -1.4521929621696472e-01 5.6795048713684082e-01</leafValues></_>
        <_>
          <internalNodes>
            0 -1 2148 1.4020037837326527e-02</internalNodes>
          <leafValues>
            -1.1760748177766800e-01 5.6462633609771729e-01</leafValues></_>
        <_>
          <internalNodes>
            0 -1 2618 -4.3324418365955353e-02</internalNodes>
          <leafValues>
            -6.5246021747589111e-01 1.0259073227643967e-01</leafValues></_>
        <_>
          <internalNodes>
            0 -1 768 1.8991839885711670e-01</internalNodes>
          <leafValues>
            8.5393175482749939e-02 -7.6103854179382324e-01</leafValues></_>
        <_>
          <internalNodes>
            0 -1 3795 2.3476976901292801e-02</internalNodes>
          <leafValues>
            5.2362196147441864e-02 -7.6248592138290405e-01</leafValues></_>
        <_>
          <internalNodes>
            0 -1 4759 -7.4240542016923428e-03</internalNodes>
          <leafValues>
            2.9385319352149963e-01 -1.6559655964374542e-01</leafValues></_>
        <_>
          <internalNodes>
            0 -1 3142 -3.8257658481597900e-02</internalNodes>
          <leafValues>
            4.6691894531250000e-01 -1.4135511219501495e-01</leafValues></_>
        <_>
          <internalNodes>
            0 -1 1587 -2.1397849544882774e-02</internalNodes>
          <leafValues>
            5.1248580217361450e-01 -8.6333572864532471e-02</leafValues></_>
        <_>
          <internalNodes>
            0 -1 1852 1.0191917419433594e-02</internalNodes>
          <leafValues>
            -1.2842668592929840e-01 4.2497289180755615e-01</leafValues></_>
        <_>
          <internalNodes>
            0 -1 1285 -5.7406995445489883e-02</internalNodes>
          <leafValues>
            4.9640676379203796e-01 -8.7878033518791199e-02</leafValues></_>
        <_>
          <internalNodes>
            0 -1 1873 -3.1889468431472778e-02</internalNodes>
          <leafValues>
            3.9098650217056274e-01 -1.4591754972934723e-01</leafValues></_>
        <_>
          <internalNodes>
            0 -1 4788 -5.8300297707319260e-02</internalNodes>
          <leafValues>
            -5.9036737680435181e-01 9.0315863490104675e-02</leafValues></_>
        <_>
          <internalNodes>
            0 -1 1951 -4.4397108256816864e-02</internalNodes>
          <leafValues>
            2.1276442706584930e-01 -1.9915331900119781e-01</leafValues></_>
        <_>
          <internalNodes>
            0 -1 3514 3.0640074983239174e-03</internalNodes>
          <leafValues>
            -9.3517646193504333e-02 4.7771105170249939e-01</leafValues></_>
        <_>
          <internalNodes>
            0 -1 3148 -3.1574538350105286e-01</internalNodes>
          <leafValues>
            -5.5053400993347168e-01 8.9868038892745972e-02</leafValues></_>
        <_>
          <internalNodes>
            0 -1 3514 -1.4466464053839445e-03</internalNodes>
          <leafValues>
            3.2729208469390869e-01 -1.3172897696495056e-01</leafValues></_>
        <_>
          <internalNodes>
            0 -1 2814 -5.6668564677238464e-02</internalNodes>
          <leafValues>
            -6.4802062511444092e-01 7.3814019560813904e-02</leafValues></_>
        <_>
          <internalNodes>
            0 -1 2018 3.2183140516281128e-02</internalNodes>
          <leafValues>
            4.9822241067886353e-02 -6.1625421047210693e-01</leafValues></_>
        <_>
          <internalNodes>
            0 -1 1405 5.0309924408793449e-03</internalNodes>
          <leafValues>
            -1.6987714171409607e-01 2.3876446485519409e-01</leafValues></_>
        <_>
          <internalNodes>
            0 -1 3355 9.7446162253618240e-03</internalNodes>
          <leafValues>
            -1.3874189555644989e-01 2.8420561552047729e-01</leafValues></_>
        <_>
          <internalNodes>
            0 -1 2568 -2.4627346545457840e-02</internalNodes>
          <leafValues>
            -7.8626763820648193e-01 5.0781030207872391e-02</leafValues></_>
        <_>
          <internalNodes>
            0 -1 1878 3.0889099463820457e-02</internalNodes>
          <leafValues>
            -1.0344570875167847e-01 3.9279016852378845e-01</leafValues></_>
        <_>
          <internalNodes>
            0 -1 2963 -1.6271209344267845e-02</internalNodes>
          <leafValues>
            -7.4634408950805664e-01 5.4529331624507904e-02</leafValues></_>
        <_>
          <internalNodes>
            0 -1 3793 -1.9268457544967532e-03</internalNodes>
          <leafValues>
            3.4373882412910461e-01 -1.1652918905019760e-01</leafValues></_>
        <_>
          <internalNodes>
            0 -1 4917 -2.7841327711939812e-02</internalNodes>
          <leafValues>
            -7.9948568344116211e-01 5.4682936519384384e-02</leafValues></_>
        <_>
          <internalNodes>
            0 -1 3798 -5.2642226219177246e-03</internalNodes>
          <leafValues>
            4.8566347360610962e-01 -9.4631247222423553e-02</leafValues></_>
        <_>
          <internalNodes>
            0 -1 4295 5.0603304989635944e-03</internalNodes>
          <leafValues>
            1.0071517527103424e-01 -3.8776001334190369e-01</leafValues></_>
        <_>
          <internalNodes>
            0 -1 62 -8.6530502885580063e-03</internalNodes>
          <leafValues>
            3.4323763847351074e-01 -1.1250338703393936e-01</leafValues></_>
        <_>
          <internalNodes>
            0 -1 2385 -3.4377884585410357e-03</internalNodes>
          <leafValues>
            3.8796123862266541e-01 -9.4473965466022491e-02</leafValues></_>
        <_>
          <internalNodes>
            0 -1 4121 1.6009232029318810e-02</internalNodes>
          <leafValues>
            5.6112367659807205e-02 -6.7081552743911743e-01</leafValues></_>
        <_>
          <internalNodes>
            0 -1 1341 -2.6250399649143219e-02</internalNodes>
          <leafValues>
            4.3960174918174744e-01 -8.4455497562885284e-02</leafValues></_></weakClassifiers></_>
    <!-- stage 1 -->
    <_>
      <maxWeakCount>46</maxWeakCount>
      <stageThreshold>-1.4621392488479614e+00</stageThreshold>
      <weakClassifiers>
        <_>
          <internalNodes>
            0 -1 1701 -4.1977368295192719e-02</internalNodes>
          <leafValues>
            5.8443993330001831e-01 -2.8757667541503906e-01</leafValues></_>
        <_>
          <internalNodes>
            0 -1 1454 -6.7293792963027954e-03</internalNodes>
          <leafValues>
            1.8980398774147034e-01 -4.5632568001747131e-01</leafValues></_>
        <_>
          <internalNodes>
            0 -1 1947 -3.6957584321498871e-02</internalNodes>
          <leafValues>
            -5.7740163803100586e-01 1.1241666227579117e-01</leafValues></_>
        <_>
          <internalNodes>
            0 -1 2851 -2.4346369318664074e-03</internalNodes>
          <leafValues>
            4.7768196463584900e-01 -1.1960590630769730e-01</leafValues></_>
        <_>
          <internalNodes>
            0 -1 2833 -2.3479624651372433e-03</internalNodes>
          <leafValues>
            5.1330941915512085e-01 -1.1284768581390381e-01</leafValues></_>
        <_>
          <internalNodes>
            0 -1 2569 -4.8209521919488907e-03</internalNodes>
          <leafValues>
            4.8406228423118591e-01 -1.4286692440509796e-01</leafValues></_>
        <_>
          <internalNodes>
            0 -1 2278 6.1903018504381180e-03</internalNodes>
          <leafValues>
            -7.4502669274806976e-02 5.8579319715499878e-01</leafValues></_>
        <_>
          <internalNodes>
            0 -1 3932 -2.3905029520392418e-03</internalNodes>
          <leafValues>
            4.7439867258071899e-01 -7.8528232872486115e-02</leafValues></_>
        <_>
          <internalNodes>
            0 -1 3950 -8.8640762260183692e-04</internalNodes>
          <leafValues>
            3.1919121742248535e-01 -1.8508496880531311e-01</leafValues></_>
        <_>
          <internalNodes>
            0 -1 2197 -2.1953138709068298e-01</internalNodes>
          <leafValues>
            4.3092513084411621e-01 -1.1642080545425415e-01</leafValues></_>
        <_>
          <internalNodes>
            0 -1 3967 -2.0535518415272236e-03</internalNodes>
          <leafValues>
            4.5767614245414734e-01 -1.0834907740354538e-01</leafValues></_>
        <_>
          <internalNodes>
            0 -1 3793 2.7368427254259586e-03</internalNodes>
          <leafValues>
            -1.0818106681108475e-01 4.2751303315162659e-01</leafValues></_>
        <_>
          <internalNodes>
            0 -1 2586 3.4122742712497711e-02</internalNodes>
          <leafValues>
            8.0071218311786652e-02 -7.3731994628906250e-01</leafValues></_>
        <_>
          <internalNodes>
            0 -1 2735 -2.0508687943220139e-02</internalNodes>
          <leafValues>
            2.7668824791908264e-01 -1.6358850896358490e-01</leafValues></_>
        <_>
          <internalNodes>
            0 -1 3066 -1.3187973760068417e-02</internalNodes>
          <leafValues>
            3.9132571220397949e-01 -1.1767966300249100e-01</leafValues></_>
        <_>
          <internalNodes>
            0 -1 678 -3.6643609404563904e-02</internalNodes>
          <leafValues>
            2.3977714776992798e-01 -1.7529785633087158e-01</leafValues></_>
        <_>
          <internalNodes>
            0 -1 1318 1.7836311832070351e-02</internalNodes>
          <leafValues>
            -8.2956314086914062e-02 4.5882546901702881e-01</leafValues></_>
        <_>
          <internalNodes>
            0 -1 845 -2.4425523355603218e-02</internalNodes>
          <leafValues>
            3.3933395147323608e-01 -1.0554151237010956e-01</leafValues></_>
        <_>
          <internalNodes>
            0 -1 2844 -8.1621361896395683e-03</internalNodes>
          <leafValues>
            4.9227142333984375e-01 -8.1368587911128998e-02</leafValues></_>
        <_>
          <internalNodes>
            0 -1 2926 -1.9631147384643555e-02</internalNodes>
          <leafValues>
            -6.5288251638412476e-01 6.8584904074668884e-02</leafValues></_>
        <_>
          <internalNodes>
            0 -1 67 -7.7741980552673340e-02</internalNodes>
          <leafValues>
            3.9712038636207581e-01 -1.0637212544679642e-01</leafValues></_>
        <_>
          <internalNodes>
            0 -1 2575 -7.2287470102310181e-03</internalNodes>
          <leafValues>
            4.9738305807113647e-01 -6.9200456142425537e-02</leafValues></_>
        <_>
          <internalNodes>
            0 -1 3608 -1.9174924818798900e-03</internalNodes>
          <leafValues>
            5.2934926748275757e-01 -6.2370210886001587e-02</leafValues></_>
        <_>
          <internalNodes>
            0 -1 2483 -6.1183381825685501e-02</internalNodes>
          <leafValues>
            -7.8724449872970581e-01 4.8632979393005371e-02</leafValues></_>
        <_>
          <internalNodes>
            0 -1 3920 1.3034853618592024e-03</internalNodes>
          <leafValues>
            -9.4474531710147858e-02 4.1314932703971863e-01</leafValues></_>
        <_>
          <internalNodes>
            0 -1 3585 -2.4546185159124434e-04</internalNodes>
          <leafValues>
            1.7642864584922791e-01 -2.0460228621959686e-01</leafValues></_>
        <_>
          <internalNodes>
            0 -1 3327 -2.1255437284708023e-02</internalNodes>
          <leafValues>
            -6.6696804761886597e-01 5.7516168802976608e-02</leafValues></_>
        <_>
          <internalNodes>
            0 -1 3215 6.1777778901159763e-03</internalNodes>
          <leafValues>
            -8.1736132502555847e-02 4.7690922021865845e-01</leafValues></_>
        <_>
          <internalNodes>
            0 -1 2163 4.1695602238178253e-02</internalNodes>
          <leafValues>
            -7.1329116821289062e-02 4.6622458100318909e-01</leafValues></_>
        <_>
          <internalNodes>
            0 -1 2462 2.0668566226959229e-02</internalNodes>
          <leafValues>
            -1.0380068421363831e-01 3.9772817492485046e-01</leafValues></_>
        <_>
          <internalNodes>
            0 -1 2398 1.4503154903650284e-02</internalNodes>
          <leafValues>
            -1.1026109755039215e-01 3.2630968093872070e-01</leafValues></_>
        <_>
          <internalNodes>
            0 -1 2232 -5.4690670222043991e-03</internalNodes>
          <leafValues>
            4.5765683054924011e-01 -7.0901140570640564e-02</leafValues></_>
        <_>
          <internalNodes>
            0 -1 3800 2.3265451192855835e-02</internalNodes>
          <leafValues>
            6.8025663495063782e-02 -5.2278155088424683e-01</leafValues></_>
        <_>
          <internalNodes>
            0 -1 5021 -1.2852885760366917e-02</internalNodes>
          <leafValues>
            2.7514398097991943e-01 -1.2353114038705826e-01</leafValues></_>
        <_>
          <internalNodes>
            0 -1 4030 -7.3462180793285370e-02</internalNodes>
          <leafValues>
            3.4445542097091675e-01 -1.0893151909112930e-01</leafValues></_>
        <_>
          <internalNodes>
            0 -1 3992 2.0881498232483864e-02</internalNodes>
          <leafValues>
            -8.1294178962707520e-02 3.9828211069107056e-01</leafValues></_>
        <_>
          <internalNodes>
            0 -1 600 -4.8322558403015137e-02</internalNodes>
          <leafValues>
            3.4497624635696411e-01 -9.4368442893028259e-02</leafValues></_>
        <_>
          <internalNodes>
            0 -1 3268 -9.7092481155414134e-05</internalNodes>
          <leafValues>
            1.5285757184028625e-01 -2.0998744666576385e-01</leafValues></_>
        <_>
          <internalNodes>
            0 -1 3753 -2.4912353605031967e-02</internalNodes>
          <leafValues>
            -7.3545610904693604e-01 4.5310948044061661e-02</leafValues></_>
        <_>
          <internalNodes>
            0 -1 2960 -9.9173304624855518e-04</internalNodes>
          <leafValues>
            1.6948968172073364e-01 -2.0530857145786285e-01</leafValues></_>
        <_>
          <internalNodes>
            0 -1 1782 -2.8473529964685440e-02</internalNodes>
          <leafValues>
            -5.7635205984115601e-01 6.2348008155822754e-02</leafValues></_>
        <_>
          <internalNodes>
            0 -1 4515 -3.1629204750061035e-02</internalNodes>
          <leafValues>
            -8.3399492502212524e-01 3.2245971262454987e-02</leafValues></_>
        <_>
          <internalNodes>
            0 -1 3045 3.1286878511309624e-03</internalNodes>
          <leafValues>
            -1.0462743788957596e-01 3.2746505737304688e-01</leafValues></_>
        <_>
          <internalNodes>
            0 -1 2719 -2.5732023641467094e-03</internalNodes>
          <leafValues>
            3.0527472496032715e-01 -1.0490324348211288e-01</leafValues></_>
        <_>
          <internalNodes>
            0 -1 1999 3.2208286225795746e-02</internalNodes>
          <leafValues>
            6.5222896635532379e-02 -5.2139216661453247e-01</leafValues></_>
        <_>
          <internalNodes>
            0 -1 969 -1.7494280636310577e-01</internalNodes>
          <leafValues>
            -7.5100767612457275e-01 3.8724251091480255e-02</leafValues></_></weakClassifiers></_>
    <!-- stage 2 -->
    <_>
      <maxWeakCount>60</maxWeakCount>
      <stageThreshold>-1.2530475854873657e+00</stageThreshold>
      <weakClassifiers>
        <_>
          <internalNodes>
            0 -1 2527 -3.0467472970485687e-02</internalNodes>
          <leafValues>
            5.2748250961303711e-01 -1.9933965802192688e-01</leafValues></_>
        <_>
          <internalNodes>
            0 -1 1771 1.0744209401309490e-02</internalNodes>
          <leafValues>
            -3.0099365115165710e-01 2.3661096394062042e-01</leafValues></_>
        <_>
          <internalNodes>
            0 -1 299 2.3494568467140198e-01</internalNodes>
          <leafValues>
            7.8418120741844177e-02 -7.3031127452850342e-01</leafValues></_>
        <_>
          <internalNodes>
            0 -1 4621 -1.5215279161930084e-01</internalNodes>
          <leafValues>
            -7.0776647329330444e-01 6.7772127687931061e-02</leafValues></_>
        <_>
          <internalNodes>
            0 -1 4071 4.3762354180216789e-03</internalNodes>
          <leafValues>
            -1.1505344510078430e-01 4.1895675659179688e-01</leafValues></_>
        <_>
          <internalNodes>
            0 -1 4069 -1.6558760544285178e-03</internalNodes>
          <leafValues>
            3.6205458641052246e-01 -2.1228586137294769e-01</leafValues></_>
        <_>
          <internalNodes>
            0 -1 1855 -2.2954639047384262e-02</internalNodes>
          <leafValues>
            5.7019484043121338e-01 -1.8880322575569153e-02</leafValues></_>
        <_>
          <internalNodes>
            0 -1 1084 2.2022364661097527e-02</internalNodes>
          <leafValues>
            -1.5004730224609375e-01 3.7565109133720398e-01</leafValues></_>
        <_>
          <internalNodes>
            0 -1 3218 -6.7500732839107513e-03</internalNodes>
          <leafValues>
            4.3845275044441223e-01 -7.8168570995330811e-02</leafValues></_>
        <_>
          <internalNodes>
            0 -1 2461 -1.3142675161361694e-02</internalNodes>
          <leafValues>
            2.9606375098228455e-01 -1.1051960289478302e-01</leafValues></_>
        <_>
          <internalNodes>
            0 -1 3055 -4.5373804867267609e-02</internalNodes>
          <leafValues>
            4.7695910930633545e-01 -9.0660654008388519e-02</leafValues></_>
        <_>
          <internalNodes>
            0 -1 3567 8.3263143897056580e-03</internalNodes>
          <leafValues>
            7.9175010323524475e-02 -5.3379225730895996e-01</leafValues></_>
        <_>
          <internalNodes>
            0 -1 3934 -4.5907413586974144e-03</internalNodes>
          <leafValues>
            2.5025480985641479e-01 -1.4216096699237823e-01</leafValues></_>
        <_>
          <internalNodes>
            0 -1 3628 -1.8366865115240216e-03</internalNodes>
          <leafValues>
            2.0715153217315674e-01 -1.6482999920845032e-01</leafValues></_>
        <_>
          <internalNodes>
            0 -1 4179 -1.8776438664644957e-03</internalNodes>
          <leafValues>
            3.4145665168762207e-01 -9.0798139572143555e-02</leafValues></_>
        <_>
          <internalNodes>
            0 -1 3971 -2.2238087840378284e-03</internalNodes>
          <leafValues>
            2.7858847379684448e-01 -1.2902472913265228e-01</leafValues></_>
        <_>
          <internalNodes>
            0 -1 2801 -6.1313971877098083e-02</internalNodes>
          <leafValues>
            4.2550882697105408e-01 -7.5255960226058960e-02</leafValues></_>
        <_>
          <internalNodes>
            0 -1 132 -4.1981972754001617e-02</internalNodes>
          <leafValues>
            2.4691104888916016e-01 -1.2800574302673340e-01</leafValues></_>
        <_>
          <internalNodes>
            0 -1 3290 -7.5858953641727567e-04</internalNodes>
          <leafValues>
            1.7061485350131989e-01 -1.9081279635429382e-01</leafValues></_>
        <_>
          <internalNodes>
            0 -1 2243 -2.6479579508304596e-02</internalNodes>
          <leafValues>
            -8.3385241031646729e-01 3.8148324936628342e-02</leafValues></_>
        <_>
          <internalNodes>
            0 -1 3861 -5.4939882829785347e-04</internalNodes>
          <leafValues>
            1.5425951778888702e-01 -1.9135573506355286e-01</leafValues></_>
        <_>
          <internalNodes>
            0 -1 3481 2.8421839233487844e-03</internalNodes>
          <leafValues>
            -8.7106890976428986e-02 3.4842854738235474e-01</leafValues></_>
        <_>
          <internalNodes>
            0 -1 3607 -1.5907430497463793e-04</internalNodes>
          <leafValues>
            1.9538272917270660e-01 -1.5210489928722382e-01</leafValues></_>
        <_>
          <internalNodes>
            0 -1 2840 -3.9733771234750748e-02</internalNodes>
          <leafValues>
            -6.1628419160842896e-01 5.0367936491966248e-02</leafValues></_>
        <_>
          <internalNodes>
            0 -1 1962 -8.4163192659616470e-03</internalNodes>
          <leafValues>
            4.9838492274284363e-01 -6.2860861420631409e-02</leafValues></_>
        <_>
          <internalNodes>
            0 -1 4053 -1.4176611788570881e-02</internalNodes>
          <leafValues>
            -6.6541153192520142e-01 4.9856320023536682e-02</leafValues></_>
        <_>
          <internalNodes>
            0 -1 3341 -1.7228055745363235e-02</internalNodes>
          <leafValues>
            -6.0829579830169678e-01 3.7567142397165298e-02</leafValues></_>
        <_>
          <internalNodes>
            0 -1 906 -4.4438409805297852e-01</internalNodes>
          <leafValues>
            -5.0549739599227905e-01 5.0795149058103561e-02</leafValues></_>
        <_>
          <internalNodes>
            0 -1 3058 3.4303800202906132e-03</internalNodes>
          <leafValues>
            -7.3760092258453369e-02 3.9070209860801697e-01</leafValues></_>
        <_>
          <internalNodes>
            0 -1 1384 2.6628952473402023e-02</internalNodes>
          <leafValues>
            -8.0897890031337738e-02 3.3655357360839844e-01</leafValues></_>
        <_>
          <internalNodes>
            0 -1 3484 -2.5421116501092911e-02</internalNodes>
          <leafValues>
            -7.9625636339187622e-01 3.9533920586109161e-02</leafValues></_>
        <_>
          <internalNodes>
            0 -1 2569 8.9611671864986420e-03</internalNodes>
          <leafValues>
            -5.4332531988620758e-02 5.7337272167205811e-01</leafValues></_>
        <_>
          <internalNodes>
            0 -1 4445 -1.3131711632013321e-02</internalNodes>
          <leafValues>
            2.5341388583183289e-01 -9.6638321876525879e-02</leafValues></_>
        <_>
          <internalNodes>
            0 -1 3545 -1.7119625117629766e-03</internalNodes>
          <leafValues>
            1.7819426953792572e-01 -1.4153403043746948e-01</leafValues></_>
        <_>
          <internalNodes>
            0 -1 4969 4.1664816439151764e-02</internalNodes>
          <leafValues>
            -5.9560645371675491e-02 4.4331681728363037e-01</leafValues></_>
        <_>
          <internalNodes>
            0 -1 4995 -7.3566520586609840e-03</internalNodes>
          <leafValues>
            2.4255730211734772e-01 -1.2360092997550964e-01</leafValues></_>
        <_>
          <internalNodes>
            0 -1 1328 -1.6261637210845947e-02</internalNodes>
          <leafValues>
            3.7412473559379578e-01 -6.4173899590969086e-02</leafValues></_>
        <_>
          <internalNodes>
            0 -1 1556 2.2798417136073112e-02</internalNodes>
          <leafValues>
            -9.4243310391902924e-02 3.0794113874435425e-01</leafValues></_>
        <_>
          <internalNodes>
            0 -1 3784 9.9037149921059608e-03</internalNodes>
          <leafValues>
            7.6107494533061981e-02 -3.6147424578666687e-01</leafValues></_>
        <_>
          <internalNodes>
            0 -1 869 -4.2529735947027802e-04</internalNodes>
          <leafValues>
            -2.8184112906455994e-01 9.6941374242305756e-02</leafValues></_>
        <_>
          <internalNodes>
            0 -1 2806 -3.6640837788581848e-03</internalNodes>
          <leafValues>
            4.6414259076118469e-01 -5.8500099927186966e-02</leafValues></_>
        <_>
          <internalNodes>
            0 -1 2597 -7.0941462181508541e-03</internalNodes>
          <leafValues>
            -5.9371066093444824e-01 4.8914056271314621e-02</leafValues></_>
        <_>
          <internalNodes>
            0 -1 2734 -3.9288094267249107e-03</internalNodes>
          <leafValues>
            2.4915222823619843e-01 -1.0931686311960220e-01</leafValues></_>
        <_>
          <internalNodes>
            0 -1 3063 3.6924732849001884e-03</internalNodes>
          <leafValues>
            -1.0963818430900574e-01 2.6384958624839783e-01</leafValues></_>
        <_>
          <internalNodes>
            0 -1 4038 2.1266939118504524e-02</internalNodes>
          <leafValues>
            -7.1661636233329773e-02 3.7723964452743530e-01</leafValues></_>
        <_>
          <internalNodes>
            0 -1 3008 -1.3833530247211456e-02</internalNodes>
          <leafValues>
            -6.5025961399078369e-01 4.2076207697391510e-02</leafValues></_>
        <_>
          <internalNodes>
            0 -1 767 -1.5925386548042297e-01</internalNodes>
          <leafValues>
            -6.7862075567245483e-01 3.1615059822797775e-02</leafValues></_>
        <_>
          <internalNodes>
            0 -1 2230 1.8431045114994049e-02</internalNodes>
          <leafValues>
            4.2500730603933334e-02 -5.0700092315673828e-01</leafValues></_>
        <_>
          <internalNodes>
            0 -1 3153 -3.1268574297428131e-02</internalNodes>
          <leafValues>
            -6.3460856676101685e-01 3.7009522318840027e-02</leafValues></_>
        <_>
          <internalNodes>
            0 -1 296 -1.8728831410408020e-01</internalNodes>
          <leafValues>
            -8.3868813514709473e-01 2.2752955555915833e-02</leafValues></_>
        <_>
          <internalNodes>
            0 -1 3270 -3.8255139952525496e-04</internalNodes>
          <leafValues>
            1.7238354682922363e-01 -1.4050599932670593e-01</leafValues></_>
        <_>
          <internalNodes>
            0 -1 1366 -4.7044252278283238e-04</internalNodes>
          <leafValues>
            -2.5675797462463379e-01 9.5610395073890686e-02</leafValues></_>
        <_>
          <internalNodes>
            0 -1 3560 -3.7782508297823370e-04</internalNodes>
          <leafValues>
            1.3846939802169800e-01 -1.7875763773918152e-01</leafValues></_>
        <_>
          <internalNodes>
            0 -1 3880 -1.8352882761973888e-05</internalNodes>
          <leafValues>
            1.4388476312160492e-01 -1.8237999081611633e-01</leafValues></_>
        <_>
          <internalNodes>
            0 -1 1571 -3.4874789416790009e-02</internalNodes>
          <leafValues>
            3.7527480721473694e-01 -6.6698573529720306e-02</leafValues></_>
        <_>
          <internalNodes>
            0 -1 4329 1.8377136439085007e-02</internalNodes>
          <leafValues>
            5.1677249372005463e-02 -5.0327157974243164e-01</leafValues></_>
        <_>
          <internalNodes>
            0 -1 1757 -3.3480050042271614e-03</internalNodes>
          <leafValues>
            1.6147273778915405e-01 -1.6798780858516693e-01</leafValues></_>
        <_>
          <internalNodes>
            0 -1 2336 -8.0302800051867962e-04</internalNodes>
          <leafValues>
            -3.2124477624893188e-01 8.3244033157825470e-02</leafValues></_>
        <_>
          <internalNodes>
            0 -1 500 -7.6948506757616997e-03</internalNodes>
          <leafValues>
            2.2576266527175903e-01 -1.1708461493253708e-01</leafValues></_>
        <_>
          <internalNodes>
            0 -1 4083 3.2810620963573456e-02</internalNodes>
          <leafValues>
            3.9014317095279694e-02 -7.1444839239120483e-01</leafValues></_></weakClassifiers></_>
    <!-- stage 3 -->
    <_>
      <maxWeakCount>81</maxWeakCount>
      <stageThreshold>-1.2167376279830933e+00</stageThreshold>
      <weakClassifiers>
        <_>
          <internalNodes>
            0 -1 2256 -7.7478826045989990e-02</internalNodes>
          <leafValues>
            5.4476261138916016e-01 -4.2967633344233036e-03</leafValues></_>
        <_>
          <internalNodes>
            0 -1 3172 4.2526084929704666e-02</internalNodes>
          <leafValues>
            1.0307496041059494e-01 -5.2909481525421143e-01</leafValues></_>
        <_>
          <internalNodes>
            0 -1 3642 -3.5989719908684492e-03</internalNodes>
          <leafValues>
            2.3717418313026428e-01 -1.4354003965854645e-01</leafValues></_>
        <_>
          <internalNodes>
            0 -1 1919 -1.7110916972160339e-01</internalNodes>
          <leafValues>
            1.8679790198802948e-01 -1.9120179116725922e-01</leafValues></_>
        <_>
          <internalNodes>
            0 -1 3514 3.7052042316645384e-03</internalNodes>
          <leafValues>
            -8.1083118915557861e-02 4.6569064259529114e-01</leafValues></_>
        <_>
          <internalNodes>
            0 -1 3524 4.4182753190398216e-03</internalNodes>
          <leafValues>
            -1.3075348734855652e-01 3.6925393342971802e-01</leafValues></_>
        <_>
          <internalNodes>
            0 -1 3932 2.7997861616313457e-03</internalNodes>
          <leafValues>
            -7.6690316200256348e-02 4.0699779987335205e-01</leafValues></_>
        <_>
          <internalNodes>
            0 -1 4482 5.7085854932665825e-03</internalNodes>
          <leafValues>
            -8.1162646412849426e-02 4.1392907500267029e-01</leafValues></_>
        <_>
          <internalNodes>
            0 -1 1720 -3.2109427452087402e-01</internalNodes>
          <leafValues>
            -6.6394126415252686e-01 4.7359395772218704e-02</leafValues></_>
        <_>
          <internalNodes>
            0 -1 1250 9.5692453905940056e-03</internalNodes>
          <leafValues>
            7.1049153804779053e-02 -3.8014703989028931e-01</leafValues></_>
        <_>
          <internalNodes>
            0 -1 1171 1.7545884847640991e-01</internalNodes>
          <leafValues>
            6.3037194311618805e-02 -5.0113618373870850e-01</leafValues></_>
        <_>
          <internalNodes>
            0 -1 145 -3.1473192572593689e-01</internalNodes>
          <leafValues>
            -3.8291135430335999e-01 6.3511542975902557e-02</leafValues></_>
        <_>
          <internalNodes>
            0 -1 2432 -1.2793986126780510e-02</internalNodes>
          <leafValues>
            2.2442798316478729e-01 -1.1581600457429886e-01</leafValues></_>
        <_>
          <internalNodes>
            0 -1 2134 -3.0047377571463585e-02</internalNodes>
          <leafValues>
            3.5454130172729492e-01 -8.9025892317295074e-02</leafValues></_>
        <_>
          <internalNodes>
            0 -1 2863 -3.5781316459178925e-02</internalNodes>
          <leafValues>
            -5.1590675115585327e-01 5.4303176701068878e-02</leafValues></_>
        <_>
          <internalNodes>
            0 -1 621 -5.1546934992074966e-04</internalNodes>
          <leafValues>
            -2.5330334901809692e-01 9.4991497695446014e-02</leafValues></_>
        <_>
          <internalNodes>
            0 -1 2957 -7.3261681245639920e-04</internalNodes>
          <leafValues>
            1.5091960132122040e-01 -1.6841824352741241e-01</leafValues></_>
        <_>
          <internalNodes>
            0 -1 397 -9.3145966529846191e-02</internalNodes>
          <leafValues>
            -6.6111016273498535e-01 4.3044660240411758e-02</leafValues></_>
        <_>
          <internalNodes>
            0 -1 831 2.7905749157071114e-02</internalNodes>
          <leafValues>
            -8.1070519983768463e-02 3.3826643228530884e-01</leafValues></_>
        <_>
          <internalNodes>
            0 -1 3950 3.7343790754675865e-03</internalNodes>
          <leafValues>
            -6.2092293053865433e-02 4.3156686425209045e-01</leafValues></_>
        <_>
          <internalNodes>
            0 -1 2606 -3.1578458845615387e-02</internalNodes>
          <leafValues>
            -6.7456835508346558e-01 4.0559515357017517e-02</leafValues></_>
        <_>
          <internalNodes>
            0 -1 2625 -5.0249633204657584e-05</internalNodes>
          <leafValues>
            1.3750736415386200e-01 -1.8979343771934509e-01</leafValues></_>
        <_>
          <internalNodes>
            0 -1 4193 2.7028420008718967e-03</internalNodes>
          <leafValues>
            -7.6370209455490112e-02 3.5757431387901306e-01</leafValues></_>
        <_>
          <internalNodes>
            0 -1 2534 -2.2397844120860100e-02</internalNodes>
          <leafValues>
            -6.2170916795730591e-01 4.5041110366582870e-02</leafValues></_>
        <_>
          <internalNodes>
            0 -1 3241 -2.2298159077763557e-02</internalNodes>
          <leafValues>
            -7.2913563251495361e-01 3.0686503276228905e-02</leafValues></_>
        <_>
          <internalNodes>
            0 -1 3462 -4.3562017381191254e-03</internalNodes>
          <leafValues>
            5.0400155782699585e-01 -5.6516353040933609e-02</leafValues></_>
        <_>
          <internalNodes>
            0 -1 2861 -5.2717728540301323e-03</internalNodes>
          <leafValues>
            3.8027322292327881e-01 -6.2319643795490265e-02</leafValues></_>
        <_>
          <internalNodes>
            0 -1 2556 5.7250712998211384e-03</internalNodes>
          <leafValues>
            -7.2006978094577789e-02 4.1599038243293762e-01</leafValues></_>
        <_>
          <internalNodes>
            0 -1 332 -1.3112966716289520e-01</internalNodes>
          <leafValues>
            -4.5945149660110474e-01 5.9195190668106079e-02</leafValues></_>
        <_>
          <internalNodes>
            0 -1 4439 -1.6590740531682968e-02</internalNodes>
          <leafValues>
            -6.5579557418823242e-01 3.3351276069879532e-02</leafValues></_>
        <_>
          <internalNodes>
            0 -1 2850 -2.6084382086992264e-02</internalNodes>
          <leafValues>
            1.5273667871952057e-01 -1.5735636651515961e-01</leafValues></_>
        <_>
          <internalNodes>
            0 -1 3290 -1.4821512158960104e-03</internalNodes>
          <leafValues>
            1.5286265313625336e-01 -1.5511159598827362e-01</leafValues></_>
        <_>
          <internalNodes>
            0 -1 3607 -3.0189764220267534e-04</internalNodes>
          <leafValues>
            1.9440995156764984e-01 -1.3987594842910767e-01</leafValues></_>
        <_>
          <internalNodes>
            0 -1 2408 2.8895404189825058e-02</internalNodes>
          <leafValues>
            -7.3114268481731415e-02 3.1835994124412537e-01</leafValues></_>
        <_>
          <internalNodes>
            0 -1 1878 3.0265338718891144e-02</internalNodes>
          <leafValues>
            -8.0505736172199249e-02 2.9992625117301941e-01</leafValues></_>
        <_>
          <internalNodes>
            0 -1 3186 -2.2613708861172199e-03</internalNodes>
          <leafValues>
            2.1162189543247223e-01 -1.1644645780324936e-01</leafValues></_>
        <_>
          <internalNodes>
            0 -1 3508 -4.2795892804861069e-03</internalNodes>
          <leafValues>
            2.7653759717941284e-01 -8.9830018579959869e-02</leafValues></_>
        <_>
          <internalNodes>
            0 -1 607 -2.3936843499541283e-03</internalNodes>
          <leafValues>
            -3.2168212532997131e-01 7.2594836354255676e-02</leafValues></_>
        <_>
          <internalNodes>
            0 -1 2999 1.8062409013509750e-02</internalNodes>
          <leafValues>
            3.5862877964973450e-02 -5.9947401285171509e-01</leafValues></_>
        <_>
          <internalNodes>
            0 -1 3529 4.5019746758043766e-03</internalNodes>
          <leafValues>
            -5.3748153150081635e-02 4.6738445758819580e-01</leafValues></_>
        <_>
          <internalNodes>
            0 -1 3066 9.7235627472400665e-03</internalNodes>
          <leafValues>
            -1.0542367398738861e-01 2.0774334669113159e-01</leafValues></_>
        <_>
          <internalNodes>
            0 -1 504 -7.9184591770172119e-02</internalNodes>
          <leafValues>
            2.6331889629364014e-01 -9.6971526741981506e-02</leafValues></_>
        <_>
          <internalNodes>
            0 -1 1587 -2.2949721664190292e-02</internalNodes>
          <leafValues>
            3.7631165981292725e-01 -6.5647803246974945e-02</leafValues></_>
        <_>
          <internalNodes>
            0 -1 93 6.2659658491611481e-02</internalNodes>
          <leafValues>
            -1.0434456914663315e-01 2.4639280140399933e-01</leafValues></_>
        <_>
          <internalNodes>
            0 -1 1651 2.6620741933584213e-02</internalNodes>
          <leafValues>
            -7.1213327348232269e-02 3.7841412425041199e-01</leafValues></_>
        <_>
          <internalNodes>
            0 -1 1997 2.6348147541284561e-02</internalNodes>
          <leafValues>
            4.6404410153627396e-02 -5.3067123889923096e-01</leafValues></_>
        <_>
          <internalNodes>
            0 -1 4041 -2.0511511713266373e-02</internalNodes>
          <leafValues>
            -5.1862466335296631e-01 3.8022235035896301e-02</leafValues></_>
        <_>
          <internalNodes>
            0 -1 3627 1.3404646888375282e-03</internalNodes>
          <leafValues>
            -7.1889825165271759e-02 3.2355159521102905e-01</leafValues></_>
        <_>
          <internalNodes>
            0 -1 3328 -2.2959318011999130e-02</internalNodes>
          <leafValues>
            -5.3586977720260620e-01 4.5480541884899139e-02</leafValues></_>
        <_>
          <internalNodes>
            0 -1 3627 -6.7221128847450018e-04</internalNodes>
          <leafValues>
            2.4064032733440399e-01 -9.7815208137035370e-02</leafValues></_>
        <_>
          <internalNodes>
            0 -1 3259 1.9773550331592560e-02</internalNodes>
          <leafValues>
            4.8814862966537476e-02 -4.6268582344055176e-01</leafValues></_>
        <_>
          <internalNodes>
            0 -1 5039 1.0163437575101852e-02</internalNodes>
          <leafValues>
            -6.2192320823669434e-02 3.3379375934600830e-01</leafValues></_>
        <_>
          <internalNodes>
            0 -1 1673 1.2894161045551300e-01</internalNodes>
          <leafValues>
            -5.7619206607341766e-02 3.8002222776412964e-01</leafValues></_>
        <_>
          <internalNodes>
            0 -1 3650 2.6645369362086058e-03</internalNodes>
          <leafValues>
            -7.6021604239940643e-02 2.4640169739723206e-01</leafValues></_>
        <_>
          <internalNodes>
            0 -1 3335 -9.0530712623149157e-04</internalNodes>
          <leafValues>
            1.4447253942489624e-01 -1.4372165501117706e-01</leafValues></_>
        <_>
          <internalNodes>
            0 -1 4708 -1.9507738761603832e-03</internalNodes>
          <leafValues>
            2.7954798936843872e-01 -7.2127602994441986e-02</leafValues></_>
        <_>
          <internalNodes>
            0 -1 5663 -7.9851620830595493e-04</internalNodes>
          <leafValues>
            -2.7099874615669250e-01 7.9708352684974670e-02</leafValues></_>
        <_>
          <internalNodes>
            0 -1 5663 7.0220546331256628e-04</internalNodes>
          <leafValues>
            7.9140141606330872e-02 -2.6856479048728943e-01</leafValues></_>
        <_>
          <internalNodes>
            0 -1 462 -2.2477932274341583e-02</internalNodes>
          <leafValues>
            -4.9637946486473083e-01 3.9891809225082397e-02</leafValues></_>
        <_>
          <internalNodes>
            0 -1 564 -2.2206421941518784e-02</internalNodes>
          <leafValues>
            2.6202178001403809e-01 -7.5746655464172363e-02</leafValues></_>
        <_>
          <internalNodes>
            0 -1 2742 -2.5869417004287243e-03</internalNodes>
          <leafValues>
            1.8488292396068573e-01 -1.0814585536718369e-01</leafValues></_>
        <_>
          <internalNodes>
            0 -1 4195 -3.4082597121596336e-03</internalNodes>
          <leafValues>
            -3.8646712899208069e-01 5.2526369690895081e-02</leafValues></_>
        <_>
          <internalNodes>
            0 -1 381 3.3770263195037842e-02</internalNodes>
          <leafValues>
            -6.7120864987373352e-02 3.1310868263244629e-01</leafValues></_>
        <_>
          <internalNodes>
            0 -1 4543 -4.6741742640733719e-02</internalNodes>
          <leafValues>
            4.1596049070358276e-01 -5.3928557783365250e-02</leafValues></_>
        <_>
          <internalNodes>
            0 -1 75 1.5439216440427117e-05</internalNodes>
          <leafValues>
            -1.4448665082454681e-01 1.4434193074703217e-01</leafValues></_>
        <_>
          <internalNodes>
            0 -1 3056 -2.6685073971748352e-03</internalNodes>
          <leafValues>
            3.2234796881675720e-01 -6.4201973378658295e-02</leafValues></_>
        <_>
          <internalNodes>
            0 -1 5287 2.3306537419557571e-02</internalNodes>
          <leafValues>
            -5.8905825018882751e-02 3.3890312910079956e-01</leafValues></_>
        <_>
          <internalNodes>
            0 -1 2224 -5.4591380059719086e-02</internalNodes>
          <leafValues>
            1.2729015946388245e-01 -1.7778789997100830e-01</leafValues></_>
        <_>
          <internalNodes>
            0 -1 1456 -2.7277344465255737e-01</internalNodes>
          <leafValues>
            -5.0657057762145996e-01 4.2094588279724121e-02</leafValues></_>
        <_>
          <internalNodes>
            0 -1 1848 3.8730984088033438e-03</internalNodes>
          <leafValues>
            -8.9023277163505554e-02 2.4531246721744537e-01</leafValues></_>
        <_>
          <internalNodes>
            0 -1 3191 -2.3611076176166534e-03</internalNodes>
          <leafValues>
            2.8982797265052795e-01 -7.6124720275402069e-02</leafValues></_>
        <_>
          <internalNodes>
            0 -1 3208 -2.5087243411689997e-03</internalNodes>
          <leafValues>
            2.9564580321311951e-01 -7.3126651346683502e-02</leafValues></_>
        <_>
          <internalNodes>
            0 -1 41 -2.2088843584060669e-01</internalNodes>
          <leafValues>
            4.3023854494094849e-01 -5.0274860113859177e-02</leafValues></_>
        <_>
          <internalNodes>
            0 -1 1384 -4.0569923818111420e-02</internalNodes>
          <leafValues>
            5.3042995929718018e-01 -3.9591901004314423e-02</leafValues></_>
        <_>
          <internalNodes>
            0 -1 2463 4.7331482172012329e-02</internalNodes>
          <leafValues>
            -5.5157329887151718e-02 3.7850013375282288e-01</leafValues></_>
        <_>
          <internalNodes>
            0 -1 2143 7.2516403160989285e-03</internalNodes>
          <leafValues>
            -5.3039938211441040e-02 3.6482027173042297e-01</leafValues></_>
        <_>
          <internalNodes>
            0 -1 1852 -9.3683581799268723e-03</internalNodes>
          <leafValues>
            2.8392562270164490e-01 -8.6689218878746033e-02</leafValues></_>
        <_>
          <internalNodes>
            0 -1 479 2.0137432962656021e-02</internalNodes>
          <leafValues>
            -5.6380793452262878e-02 3.4450528025627136e-01</leafValues></_>
        <_>
          <internalNodes>
            0 -1 903 -1.0530969128012657e-02</internalNodes>
          <leafValues>
            3.2304799556732178e-01 -6.3786618411540985e-02</leafValues></_>
        <_>
          <internalNodes>
            0 -1 2384 -1.6422066837549210e-02</internalNodes>
          <leafValues>
            -5.4660171270370483e-01 4.1539780795574188e-02</leafValues></_>
        <_>
          <internalNodes>
            0 -1 2860 -1.6822423785924911e-02</internalNodes>
          <leafValues>
            -5.1887303590774536e-01 3.8075346499681473e-02</leafValues></_></weakClassifiers></_>
    <!-- stage 4 -->
    <_>
      <maxWeakCount>38</maxWeakCount>
      <stageThreshold>-1.4293787479400635e+00</stageThreshold>
      <weakClassifiers>
        <_>
          <internalNodes>
            0 -1 218 2.3656398057937622e-01</internalNodes>
          <leafValues>
            4.1495439410209656e-01 -5.3826528787612915e-01</leafValues></_>
        <_>
          <internalNodes>
            0 -1 3826 -5.5515179410576820e-03</internalNodes>
          <leafValues>
            5.0879675149917603e-01 -7.8702785074710846e-02</leafValues></_>
        <_>
          <internalNodes>
            0 -1 3515 -7.7299587428569794e-03</internalNodes>
          <leafValues>
            5.1485437154769897e-01 -1.5905252099037170e-01</leafValues></_>
        <_>
          <internalNodes>
            0 -1 3825 1.3925423845648766e-03</internalNodes>
          <leafValues>
            -1.1299172043800354e-01 5.5627751350402832e-01</leafValues></_>
        <_>
          <internalNodes>
            0 -1 1502 -1.0434983298182487e-02</internalNodes>
          <leafValues>
            -4.5331975817680359e-01 1.2001463025808334e-01</leafValues></_>
        <_>
          <internalNodes>
            0 -1 4118 -1.4926751609891653e-03</internalNodes>
          <leafValues>
            3.6507874727249146e-01 -1.5730875730514526e-01</leafValues></_>
        <_>
          <internalNodes>
            0 -1 3884 -1.1387432459741831e-03</internalNodes>
          <leafValues>
            3.5982906818389893e-01 -1.7738521099090576e-01</leafValues></_>
        <_>
          <internalNodes>
            0 -1 3625 -1.2643488589674234e-03</internalNodes>
          <leafValues>
            4.9854731559753418e-01 -1.1288487911224365e-01</leafValues></_>
        <_>
          <internalNodes>
            0 -1 3319 -9.6339709125459194e-04</internalNodes>
          <leafValues>
            3.3914747834205627e-01 -1.6540615260601044e-01</leafValues></_>
        <_>
          <internalNodes>
            0 -1 3318 3.0970757507020608e-05</internalNodes>
          <leafValues>
            -1.9395306706428528e-01 2.9182410240173340e-01</leafValues></_>
        <_>
          <internalNodes>
            0 -1 4069 -2.3819948546588421e-03</internalNodes>
          <leafValues>
            4.1746801137924194e-01 -1.2418833374977112e-01</leafValues></_>
        <_>
          <internalNodes>
            0 -1 2271 2.6557074859738350e-02</internalNodes>
          <leafValues>
            9.9810250103473663e-02 -5.4230624437332153e-01</leafValues></_>
        <_>
          <internalNodes>
            0 -1 4059 -1.7965314909815788e-03</internalNodes>
          <leafValues>
            3.8313525915145874e-01 -1.4053662121295929e-01</leafValues></_>
        <_>
          <internalNodes>
            0 -1 3767 -8.2118799909949303e-03</internalNodes>
          <leafValues>
            4.3512788414955139e-01 -1.0461934655904770e-01</leafValues></_>
        <_>
          <internalNodes>
            0 -1 4149 -1.3472683349391446e-05</internalNodes>
          <leafValues>
            2.8382885456085205e-01 -1.5531636774539948e-01</leafValues></_>
        <_>
          <internalNodes>
            0 -1 4150 2.8268317691981792e-05</internalNodes>
          <leafValues>
            -1.9757929444313049e-01 2.5637075304985046e-01</leafValues></_>
        <_>
          <internalNodes>
            0 -1 819 1.4821638166904449e-01</internalNodes>
          <leafValues>
            7.7175371348857880e-02 -6.5651649236679077e-01</leafValues></_>
        <_>
          <internalNodes>
            0 -1 5464 -1.5268362403730862e-05</internalNodes>
          <leafValues>
            2.5084504485130310e-01 -1.7502284049987793e-01</leafValues></_>
        <_>
          <internalNodes>
            0 -1 5464 3.2603486033622175e-05</internalNodes>
          <leafValues>
            -2.6233607530593872e-01 3.1694823503494263e-01</leafValues></_>
        <_>
          <internalNodes>
            0 -1 5464 -1.5268362403730862e-05</internalNodes>
          <leafValues>
            2.6574346423149109e-01 -1.7311024665832520e-01</leafValues></_>
        <_>
          <internalNodes>
            0 -1 2037 -1.0359744727611542e-01</internalNodes>
          <leafValues>
            -6.5752297639846802e-01 6.8796522915363312e-02</leafValues></_>
        <_>
          <internalNodes>
            0 -1 79 7.0200106129050255e-03</internalNodes>
          <leafValues>
            -1.1011092364788055e-01 3.8154584169387817e-01</leafValues></_>
        <_>
          <internalNodes>
            0 -1 342 -2.9142010025680065e-03</internalNodes>
          <leafValues>
            5.0010186433792114e-01 -8.2657210528850555e-02</leafValues></_>
        <_>
          <internalNodes>
            0 -1 2352 3.2515075872652233e-05</internalNodes>
          <leafValues>
            -1.5004797279834747e-01 2.5065052509307861e-01</leafValues></_>
        <_>
          <internalNodes>
            0 -1 2352 -2.7309528377372772e-05</internalNodes>
          <leafValues>
            2.7567672729492188e-01 -2.4259729683399200e-01</leafValues></_>
        <_>
          <internalNodes>
            0 -1 2352 3.2515075872652233e-05</internalNodes>
          <leafValues>
            -1.6181354224681854e-01 2.4412710964679718e-01</leafValues></_>
        <_>
          <internalNodes>
            0 -1 1472 -2.6281186938285828e-01</internalNodes>
          <leafValues>
            -5.7336062192916870e-01 6.8918868899345398e-02</leafValues></_>
        <_>
          <internalNodes>
            0 -1 396 3.3436007797718048e-02</internalNodes>
          <leafValues>
            5.8863624930381775e-02 -5.5435401201248169e-01</leafValues></_>
        <_>
          <internalNodes>
            0 -1 101 -3.3918586373329163e-01</internalNodes>
          <leafValues>
            -5.0149250030517578e-01 6.6139109432697296e-02</leafValues></_>
        <_>
          <internalNodes>
            0 -1 2493 -4.6535298228263855e-02</internalNodes>
          <leafValues>
            1.2111430615186691e-01 -2.7604925632476807e-01</leafValues></_>
        <_>
          <internalNodes>
            0 -1 1787 -3.2736919820308685e-05</internalNodes>
          <leafValues>
            2.1517311036586761e-01 -1.5863548219203949e-01</leafValues></_>
        <_>
          <internalNodes>
            0 -1 1787 1.3795826816931367e-05</internalNodes>
          <leafValues>
            -2.2166311740875244e-01 2.7439460158348083e-01</leafValues></_>
        <_>
          <internalNodes>
            0 -1 1787 -3.2029485737439245e-05</internalNodes>
          <leafValues>
            2.2525359690189362e-01 -1.6440342366695404e-01</leafValues></_>
        <_>
          <internalNodes>
            0 -1 3644 4.8157321289181709e-03</internalNodes>
          <leafValues>
            -7.8080400824546814e-02 4.1646063327789307e-01</leafValues></_>
        <_>
          <internalNodes>
            0 -1 5353 -2.5923256762325764e-03</internalNodes>
          <leafValues>
            3.3279582858085632e-01 -9.7808361053466797e-02</leafValues></_>
        <_>
          <internalNodes>
            0 -1 5326 3.6494242958724499e-03</internalNodes>
          <leafValues>
            -1.1594552546739578e-01 3.6258888244628906e-01</leafValues></_>
        <_>
          <internalNodes>
            0 -1 5635 2.6442157832207158e-05</internalNodes>
          <leafValues>
            -1.5509155392646790e-01 2.2307166457176208e-01</leafValues></_>
        <_>
          <internalNodes>
            0 -1 4150 -1.3791439414490014e-05</internalNodes>
          <leafValues>
            1.8963389098644257e-01 -1.7078296840190887e-01</leafValues></_></weakClassifiers></_>
    <!-- stage 5 -->
    <_>
      <maxWeakCount>60</maxWeakCount>
      <stageThreshold>-1.4004695415496826e+00</stageThreshold>
      <weakClassifiers>
        <_>
          <internalNodes>
            0 -1 4047 1.0843439958989620e-03</internalNodes>
          <leafValues>
            -1.3383838534355164e-01 4.3138048052787781e-01</leafValues></_>
        <_>
          <internalNodes>
            0 -1 3625 -1.6334815882146358e-03</internalNodes>
          <leafValues>
            5.3708368539810181e-01 -8.2611247897148132e-02</leafValues></_>
        <_>
          <internalNodes>
            0 -1 3612 2.7767904102802277e-03</internalNodes>
          <leafValues>
            -1.1980144679546356e-01 5.3648388385772705e-01</leafValues></_>
        <_>
          <internalNodes>
            0 -1 3920 1.1805936228483915e-03</internalNodes>
          <leafValues>
            -9.3538910150527954e-02 4.8044997453689575e-01</leafValues></_>
        <_>
          <internalNodes>
            0 -1 3586 -1.3356232084333897e-03</internalNodes>
          <leafValues>
            3.4148705005645752e-01 -1.5846183896064758e-01</leafValues></_>
        <_>
          <internalNodes>
            0 -1 2833 3.6168755032122135e-03</internalNodes>
          <leafValues>
            -7.4996992945671082e-02 5.3826272487640381e-01</leafValues></_>
        <_>
          <internalNodes>
            0 -1 2532 -9.3186274170875549e-03</internalNodes>
          <leafValues>
            4.3633374571800232e-01 -1.0493031889200211e-01</leafValues></_>
        <_>
          <internalNodes>
            0 -1 1454 -1.7342835664749146e-02</internalNodes>
          <leafValues>
            1.1546111106872559e-01 -4.2683231830596924e-01</leafValues></_>
        <_>
          <internalNodes>
            0 -1 5492 7.6551912352442741e-03</internalNodes>
          <leafValues>
            -8.8089093565940857e-02 4.3916222453117371e-01</leafValues></_>
        <_>
          <internalNodes>
            0 -1 5377 -1.6491238493472338e-03</internalNodes>
          <leafValues>
            4.5438590645790100e-01 -1.0326899588108063e-01</leafValues></_>
        <_>
          <internalNodes>
            0 -1 5177 -3.5879476927220821e-03</internalNodes>
          <leafValues>
            3.4892812371253967e-01 -1.0731092840433121e-01</leafValues></_>
        <_>
          <internalNodes>
            0 -1 3045 5.0913719460368156e-03</internalNodes>
          <leafValues>
            -7.8829824924468994e-02 4.8083168268203735e-01</leafValues></_>
        <_>
          <internalNodes>
            0 -1 3346 -1.7814869061112404e-03</internalNodes>
          <leafValues>
            3.5000824928283691e-01 -1.0843507200479507e-01</leafValues></_>
        <_>
          <internalNodes>
            0 -1 2499 -1.2871661456301808e-03</internalNodes>
          <leafValues>
            4.9716171622276306e-01 -7.1469426155090332e-02</leafValues></_>
        <_>
          <internalNodes>
            0 -1 5070 -2.4308473803102970e-03</internalNodes>
          <leafValues>
            2.9307651519775391e-01 -1.2370526790618896e-01</leafValues></_>
        <_>
          <internalNodes>
            0 -1 1261 -2.3371320217847824e-02</internalNodes>
          <leafValues>
            -4.9753630161285400e-01 7.5965985655784607e-02</leafValues></_>
        <_>
          <internalNodes>
            0 -1 1286 6.6435709595680237e-02</internalNodes>
          <leafValues>
            6.9737732410430908e-02 -4.7705224156379700e-01</leafValues></_>
        <_>
          <internalNodes>
            0 -1 3547 2.6177940890192986e-03</internalNodes>
          <leafValues>
            -9.5878861844539642e-02 3.8269010186195374e-01</leafValues></_>
        <_>
          <internalNodes>
            0 -1 4076 1.6924464143812656e-03</internalNodes>
          <leafValues>
            -6.4096875488758087e-02 4.9975690245628357e-01</leafValues></_>
        <_>
          <internalNodes>
            0 -1 4070 1.2532647233456373e-03</internalNodes>
          <leafValues>
            -8.2750722765922546e-02 4.1269484162330627e-01</leafValues></_>
        <_>
          <internalNodes>
            0 -1 2331 -3.5643521696329117e-02</internalNodes>
          <leafValues>
            -4.9162715673446655e-01 7.8411929309368134e-02</leafValues></_>
        <_>
          <internalNodes>
            0 -1 4263 2.9519107192754745e-03</internalNodes>
          <leafValues>
            -8.4271304309368134e-02 3.9507851004600525e-01</leafValues></_>
        <_>
          <internalNodes>
            0 -1 3781 -6.3928677700459957e-03</internalNodes>
          <leafValues>
            3.0916449427604675e-01 -1.1070079356431961e-01</leafValues></_>
        <_>
          <internalNodes>
            0 -1 706 -1.9350617658346891e-03</internalNodes>
          <leafValues>
            5.5790436267852783e-01 -4.6449709683656693e-02</leafValues></_>
        <_>
          <internalNodes>
            0 -1 4245 -3.0507529154419899e-03</internalNodes>
          <leafValues>
            4.5178455114364624e-01 -5.6023262441158295e-02</leafValues></_>
        <_>
          <internalNodes>
            0 -1 5236 -2.6043662801384926e-02</internalNodes>
          <leafValues>
            -6.3938140869140625e-01 5.2132803946733475e-02</leafValues></_>
        <_>
          <internalNodes>
            0 -1 2587 8.4160016849637032e-03</internalNodes>
          <leafValues>
            -5.8663249015808105e-02 5.8883321285247803e-01</leafValues></_>
        <_>
          <internalNodes>
            0 -1 4 3.2357503660023212e-03</internalNodes>
          <leafValues>
            -3.1663060188293457e-02 7.4192839860916138e-01</leafValues></_>
        <_>
          <internalNodes>
            0 -1 2 3.0543520115315914e-03</internalNodes>
          <leafValues>
            -5.3597267717123032e-02 5.3905951976776123e-01</leafValues></_>
        <_>
          <internalNodes>
            0 -1 609 4.0379742858931422e-04</internalNodes>
          <leafValues>
            1.1341086030006409e-01 -2.6259940862655640e-01</leafValues></_>
        <_>
          <internalNodes>
            0 -1 4663 2.7404494583606720e-02</internalNodes>
          <leafValues>
            8.4868028759956360e-02 -3.4058657288551331e-01</leafValues></_>
        <_>
          <internalNodes>
            0 -1 1559 2.5576052721589804e-03</internalNodes>
          <leafValues>
            -7.5331807136535645e-02 3.7102535367012024e-01</leafValues></_>
        <_>
          <internalNodes>
            0 -1 2936 4.1039556264877319e-02</internalNodes>
          <leafValues>
            4.8810534179210663e-02 -6.3738101720809937e-01</leafValues></_>
        <_>
          <internalNodes>
            0 -1 399 -2.3967928718775511e-03</internalNodes>
          <leafValues>
            5.0499635934829712e-01 -6.2507830560207367e-02</leafValues></_>
        <_>
          <internalNodes>
            0 -1 2249 -2.5883257389068604e-01</internalNodes>
          <leafValues>
            -6.3812208175659180e-01 4.7519482672214508e-02</leafValues></_>
        <_>
          <internalNodes>
            0 -1 1861 4.7824019566178322e-03</internalNodes>
          <leafValues>
            -5.2308820188045502e-02 5.6847798824310303e-01</leafValues></_>
        <_>
          <internalNodes>
            0 -1 1207 -7.3816969990730286e-02</internalNodes>
          <leafValues>
            -4.3865057826042175e-01 6.8082563579082489e-02</leafValues></_>
        <_>
          <internalNodes>
            0 -1 607 -1.9369993824511766e-03</internalNodes>
          <leafValues>
            -3.2650038599967957e-01 7.9057440161705017e-02</leafValues></_>
        <_>
          <internalNodes>
            0 -1 741 -4.4795572757720947e-03</internalNodes>
          <leafValues>
            3.2233232259750366e-01 -8.6119525134563446e-02</leafValues></_>
        <_>
          <internalNodes>
            0 -1 222 7.9201802145689726e-04</internalNodes>
          <leafValues>
            8.8719956576824188e-02 -3.0225402116775513e-01</leafValues></_>
        <_>
          <internalNodes>
            0 -1 4393 -1.9505410455167294e-03</internalNodes>
          <leafValues>
            3.0907243490219116e-01 -8.5291408002376556e-02</leafValues></_>
        <_>
          <internalNodes>
            0 -1 913 -5.5591999553143978e-03</internalNodes>
          <leafValues>
            3.3235314488410950e-01 -7.5547277927398682e-02</leafValues></_>
        <_>
          <internalNodes>
            0 -1 5337 -2.3703929036855698e-03</internalNodes>
          <leafValues>
            5.6512600183486938e-01 -4.1333407163619995e-02</leafValues></_>
        <_>
          <internalNodes>
            0 -1 4529 1.4836984686553478e-02</internalNodes>
          <leafValues>
            4.9571111798286438e-02 -5.8151680231094360e-01</leafValues></_>
        <_>
          <internalNodes>
            0 -1 3543 -2.4618781171739101e-03</internalNodes>
          <leafValues>
            5.0051862001419067e-01 -6.1193525791168213e-02</leafValues></_>
        <_>
          <internalNodes>
            0 -1 3395 3.4879967570304871e-03</internalNodes>
          <leafValues>
            -4.9519099295139313e-02 4.5117586851119995e-01</leafValues></_>
        <_>
          <internalNodes>
            0 -1 3077 -1.7878660000860691e-03</internalNodes>
          <leafValues>
            3.1323254108428955e-01 -9.2331029474735260e-02</leafValues></_>
        <_>
          <internalNodes>
            0 -1 3535 1.5433160588145256e-02</internalNodes>
          <leafValues>
            5.9523470699787140e-02 -4.4788923859596252e-01</leafValues></_>
        <_>
          <internalNodes>
            0 -1 4065 1.5130701661109924e-01</internalNodes>
          <leafValues>
            3.9322480559349060e-02 -6.2817972898483276e-01</leafValues></_>
        <_>
          <internalNodes>
            0 -1 5278 -1.9191988976672292e-03</internalNodes>
          <leafValues>
            3.8696002960205078e-01 -7.3343507945537567e-02</leafValues></_>
        <_>
          <internalNodes>
            0 -1 4762 2.2767726331949234e-03</internalNodes>
          <leafValues>
            -4.0561717003583908e-02 5.5017650127410889e-01</leafValues></_>
        <_>
          <internalNodes>
            0 -1 4418 -3.0994692351669073e-03</internalNodes>
          <leafValues>
            3.7556275725364685e-01 -5.8520771563053131e-02</leafValues></_>
        <_>
          <internalNodes>
            0 -1 1766 -9.5418944954872131e-02</internalNodes>
          <leafValues>
            -4.8528242111206055e-01 5.4234646260738373e-02</leafValues></_>
        <_>
          <internalNodes>
            0 -1 4160 3.1486060470342636e-03</internalNodes>
          <leafValues>
            -6.3056692481040955e-02 4.1537070274353027e-01</leafValues></_>
        <_>
          <internalNodes>
            0 -1 4301 1.2812467291951180e-02</internalNodes>
          <leafValues>
            6.3273288309574127e-02 -4.1787055134773254e-01</leafValues></_>
        <_>
          <internalNodes>
            0 -1 811 5.9207589365541935e-03</internalNodes>
          <leafValues>
            -4.6084582805633545e-02 5.7592946290969849e-01</leafValues></_>
        <_>
          <internalNodes>
            0 -1 587 -4.0834192186594009e-03</internalNodes>
          <leafValues>
            -3.2027071714401245e-01 7.9911023378372192e-02</leafValues></_>
        <_>
          <internalNodes>
            0 -1 4050 -4.0647899731993675e-03</internalNodes>
          <leafValues>
            4.2729714512825012e-01 -5.6134529411792755e-02</leafValues></_>
        <_>
          <internalNodes>
            0 -1 2267 3.5807363688945770e-02</internalNodes>
          <leafValues>
            4.3010931462049484e-02 -5.7996475696563721e-01</leafValues></_>
        <_>
          <internalNodes>
            0 -1 4665 1.9644568674266338e-03</internalNodes>
          <leafValues>
            1.0343447327613831e-01 -2.3247079551219940e-01</leafValues></_></weakClassifiers></_>
    <!-- stage 6 -->
    <_>
      <maxWeakCount>100</maxWeakCount>
      <stageThreshold>-1.2604225873947144e+00</stageThreshold>
      <weakClassifiers>
        <_>
          <internalNodes>
            0 -1 2818 -4.2205482721328735e-02</internalNodes>
          <leafValues>
            4.5370075106620789e-01 5.7462956756353378e-02</leafValues></_>
        <_>
          <internalNodes>
            0 -1 3628 -4.0087830275297165e-03</internalNodes>
          <leafValues>
            2.9008719325065613e-01 -1.1429214477539062e-01</leafValues></_>
        <_>
          <internalNodes>
            0 -1 3932 -2.0658939611166716e-03</internalNodes>
          <leafValues>
            3.3124887943267822e-01 -1.0496804863214493e-01</leafValues></_>
        <_>
          <internalNodes>
            0 -1 3950 -1.6289143823087215e-03</internalNodes>
          <leafValues>
            3.0209332704544067e-01 -1.3476759195327759e-01</leafValues></_>
        <_>
          <internalNodes>
            0 -1 3967 -1.7444449476897717e-03</internalNodes>
          <leafValues>
            2.8082895278930664e-01 -1.1725547909736633e-01</leafValues></_>
        <_>
          <internalNodes>
            0 -1 981 -1.7552744597196579e-02</internalNodes>
          <leafValues>
            1.2677572667598724e-01 -2.7925291657447815e-01</leafValues></_>
        <_>
          <internalNodes>
            0 -1 4725 -5.3740246221423149e-03</internalNodes>
          <leafValues>
            1.8816332519054413e-01 -1.4541500806808472e-01</leafValues></_>
        <_>
          <internalNodes>
            0 -1 4904 -8.4756329655647278e-02</internalNodes>
          <leafValues>
            -3.7674486637115479e-01 7.4551083147525787e-02</leafValues></_>
        <_>
          <internalNodes>
            0 -1 3627 1.1583328014239669e-03</internalNodes>
          <leafValues>
            -9.0930648148059845e-02 3.0011585354804993e-01</leafValues></_>
        <_>
          <internalNodes>
            0 -1 3319 -1.0123783722519875e-03</internalNodes>
          <leafValues>
            2.1600973606109619e-01 -1.1878902465105057e-01</leafValues></_>
        <_>
          <internalNodes>
            0 -1 2991 -1.2371556367725134e-03</internalNodes>
          <leafValues>
            2.1682907640933990e-01 -1.1272069066762924e-01</leafValues></_>
        <_>
          <internalNodes>
            0 -1 2637 4.9015931785106659e-02</internalNodes>
          <leafValues>
            4.2334463447332382e-02 -6.1771172285079956e-01</leafValues></_>
        <_>
          <internalNodes>
            0 -1 2650 -3.0698847025632858e-02</internalNodes>
          <leafValues>
            -7.2280955314636230e-01 2.8119681403040886e-02</leafValues></_>
        <_>
          <internalNodes>
            0 -1 4274 2.1651186980307102e-03</internalNodes>
          <leafValues>
            -8.9073419570922852e-02 2.5578045845031738e-01</leafValues></_>
        <_>
          <internalNodes>
            0 -1 4263 2.3157270625233650e-03</internalNodes>
          <leafValues>
            -1.0097660869359970e-01 2.9364192485809326e-01</leafValues></_>
        <_>
          <internalNodes>
            0 -1 4080 6.4864251762628555e-03</internalNodes>
          <leafValues>
            -5.5883836001157761e-02 3.6427360773086548e-01</leafValues></_>
        <_>
          <internalNodes>
            0 -1 998 -1.1478462256491184e-03</internalNodes>
          <leafValues>
            2.2615446150302887e-01 -9.5647968351840973e-02</leafValues></_>
        <_>
          <internalNodes>
            0 -1 2663 -9.7895059734582901e-03</internalNodes>
          <leafValues>
            -4.3401965498924255e-01 4.7776989638805389e-02</leafValues></_>
        <_>
          <internalNodes>
            0 -1 2691 3.5282511264085770e-02</internalNodes>
          <leafValues>
            -6.9763273000717163e-02 3.2683783769607544e-01</leafValues></_>
        <_>
          <internalNodes>
            0 -1 5553 4.1641434654593468e-03</internalNodes>
          <leafValues>
            -9.5923878252506256e-02 2.1208661794662476e-01</leafValues></_>
        <_>
          <internalNodes>
            0 -1 4252 3.6050593480467796e-03</internalNodes>
          <leafValues>
            -5.6805904954671860e-02 3.5038018226623535e-01</leafValues></_>
        <_>
          <internalNodes>
            0 -1 1779 2.0087162032723427e-02</internalNodes>
          <leafValues>
            3.8549747318029404e-02 -5.7168537378311157e-01</leafValues></_>
        <_>
          <internalNodes>
            0 -1 2431 1.5037139877676964e-02</internalNodes>
          <leafValues>
            -7.9005457460880280e-02 2.7492299675941467e-01</leafValues></_>
        <_>
          <internalNodes>
            0 -1 3976 -7.0523461326956749e-03</internalNodes>
          <leafValues>
            2.1677380800247192e-01 -1.0766713321208954e-01</leafValues></_>
        <_>
          <internalNodes>
            0 -1 4801 -3.5957753658294678e-02</internalNodes>
          <leafValues>
            -3.8385340571403503e-01 5.7364363223314285e-02</leafValues></_>
        <_>
          <internalNodes>
            0 -1 4237 -3.5795010626316071e-02</internalNodes>
          <leafValues>
            1.8186447024345398e-01 -1.2225060164928436e-01</leafValues></_>
        <_>
          <internalNodes>
            0 -1 3080 -2.0217776298522949e-02</internalNodes>
          <leafValues>
            2.3392385244369507e-01 -8.2219392061233521e-02</leafValues></_>
        <_>
          <internalNodes>
            0 -1 4099 -3.8730080705136061e-03</internalNodes>
          <leafValues>
            3.9243307709693909e-01 -5.5484637618064880e-02</leafValues></_>
        <_>
          <internalNodes>
            0 -1 87 -3.3986821770668030e-02</internalNodes>
          <leafValues>
            2.4200277030467987e-01 -7.9346515238285065e-02</leafValues></_>
        <_>
          <internalNodes>
            0 -1 1669 4.1425369679927826e-02</internalNodes>
          <leafValues>
            -3.7694755941629410e-02 5.5383408069610596e-01</leafValues></_>
        <_>
          <internalNodes>
            0 -1 160 1.3077139854431152e-02</internalNodes>
          <leafValues>
            -8.3467811346054077e-02 2.1340690553188324e-01</leafValues></_>
        <_>
          <internalNodes>
            0 -1 3913 -3.3619813621044159e-02</internalNodes>
          <leafValues>
            3.0738434195518494e-01 -6.4606800675392151e-02</leafValues></_>
        <_>
          <internalNodes>
            0 -1 5220 -9.1669121757149696e-03</internalNodes>
          <leafValues>
            2.4088288843631744e-01 -9.5703631639480591e-02</leafValues></_>
        <_>
          <internalNodes>
            0 -1 1272 -8.4921017289161682e-02</internalNodes>
          <leafValues>
            -5.8826416730880737e-01 3.7155363708734512e-02</leafValues></_>
        <_>
          <internalNodes>
            0 -1 3817 2.2661421447992325e-02</internalNodes>
          <leafValues>
            5.9674326330423355e-02 -3.1890133023262024e-01</leafValues></_>
        <_>
          <internalNodes>
            0 -1 1797 -6.4225243404507637e-03</internalNodes>
          <leafValues>
            2.6104998588562012e-01 -7.6711684465408325e-02</leafValues></_>
        <_>
          <internalNodes>
            0 -1 3548 -2.6281727477908134e-03</internalNodes>
          <leafValues>
            2.3407751321792603e-01 -7.0934869349002838e-02</leafValues></_>
        <_>
          <internalNodes>
            0 -1 2250 -3.8790430873632431e-02</internalNodes>
          <leafValues>
            -4.5912322402000427e-01 4.4763457030057907e-02</leafValues></_>
        <_>
          <internalNodes>
            0 -1 773 -3.2672593370079994e-03</internalNodes>
          <leafValues>
            2.0876829326152802e-01 -8.7917968630790710e-02</leafValues></_>
        <_>
          <internalNodes>
            0 -1 2911 1.9075594842433929e-02</internalNodes>
          <leafValues>
            5.4105158895254135e-02 -3.6307492852210999e-01</leafValues></_>
        <_>
          <internalNodes>
            0 -1 1719 2.8493450954556465e-02</internalNodes>
          <leafValues>
            4.2373314499855042e-02 -4.0032652020454407e-01</leafValues></_>
        <_>
          <internalNodes>
            0 -1 2870 3.4866123460233212e-03</internalNodes>
          <leafValues>
            -6.0181234031915665e-02 3.0642086267471313e-01</leafValues></_>
        <_>
          <internalNodes>
            0 -1 2885 3.4912694245576859e-03</internalNodes>
          <leafValues>
            -5.4964840412139893e-02 3.4657901525497437e-01</leafValues></_>
        <_>
          <internalNodes>
            0 -1 283 -4.8058032989501953e-02</internalNodes>
          <leafValues>
            -5.3321897983551025e-01 3.4491930156946182e-02</leafValues></_>
        <_>
          <internalNodes>
            0 -1 2155 3.7879305891692638e-03</internalNodes>
          <leafValues>
            -8.4846757352352142e-02 2.0358683168888092e-01</leafValues></_>
        <_>
          <internalNodes>
            0 -1 3010 -9.8698129877448082e-03</internalNodes>
          <leafValues>
            -2.8923833370208740e-01 6.3088126480579376e-02</leafValues></_>
        <_>
          <internalNodes>
            0 -1 3608 -1.4589995844289660e-03</internalNodes>
          <leafValues>
            3.5057365894317627e-01 -6.0969084501266479e-02</leafValues></_>
        <_>
          <internalNodes>
            0 -1 2016 -4.0728285908699036e-02</internalNodes>
          <leafValues>
            -7.8735101222991943e-01 2.5413397699594498e-02</leafValues></_>
        <_>
          <internalNodes>
            0 -1 4921 -1.8050912767648697e-02</internalNodes>
          <leafValues>
            2.6832273602485657e-01 -6.7308403551578522e-02</leafValues></_>
        <_>
          <internalNodes>
            0 -1 4116 -4.4859534682473168e-05</internalNodes>
          <leafValues>
            1.1553984135389328e-01 -1.5737105906009674e-01</leafValues></_>
        <_>
          <internalNodes>
            0 -1 1260 1.6656523570418358e-02</internalNodes>
          <leafValues>
            3.2371688634157181e-02 -6.4180648326873779e-01</leafValues></_>
        <_>
          <internalNodes>
            0 -1 2390 -2.3447621613740921e-02</internalNodes>
          <leafValues>
            2.9556381702423096e-01 -6.3557490706443787e-02</leafValues></_>
        <_>
          <internalNodes>
            0 -1 3403 2.5055564939975739e-02</internalNodes>
          <leafValues>
            -8.6275026202201843e-02 2.0147927105426788e-01</leafValues></_>
        <_>
          <internalNodes>
            0 -1 4042 3.0222297646105289e-03</internalNodes>
          <leafValues>
            -7.9601779580116272e-02 2.2618949413299561e-01</leafValues></_>
        <_>
          <internalNodes>
            0 -1 2455 -1.5534421429038048e-02</internalNodes>
          <leafValues>
            2.1298943459987640e-01 -8.7361298501491547e-02</leafValues></_>
        <_>
          <internalNodes>
            0 -1 1489 -1.0551192099228501e-03</internalNodes>
          <leafValues>
            1.4020511507987976e-01 -1.2805171310901642e-01</leafValues></_>
        <_>
          <internalNodes>
            0 -1 1148 -1.0679255425930023e-01</internalNodes>
          <leafValues>
            1.7306239902973175e-01 -1.0598997026681900e-01</leafValues></_>
        <_>
          <internalNodes>
            0 -1 1504 1.3261493222671561e-05</internalNodes>
          <leafValues>
            -1.2014175206422806e-01 1.5192838013172150e-01</leafValues></_>
        <_>
          <internalNodes>
            0 -1 5556 -1.1285496875643730e-03</internalNodes>
          <leafValues>
            2.7800980210304260e-01 -6.4201466739177704e-02</leafValues></_>
        <_>
          <internalNodes>
            0 -1 5316 -6.5901328343898058e-04</internalNodes>
          <leafValues>
            -2.6928460597991943e-01 6.8826377391815186e-02</leafValues></_>
        <_>
          <internalNodes>
            0 -1 5556 1.2309090234339237e-03</internalNodes>
          <leafValues>
            -6.3025534152984619e-02 2.8373599052429199e-01</leafValues></_>
        <_>
          <internalNodes>
            0 -1 3625 3.5309733357280493e-03</internalNodes>
          <leafValues>
            -3.4046072512865067e-02 4.4311401247978210e-01</leafValues></_>
        <_>
          <internalNodes>
            0 -1 5274 1.4170508831739426e-02</internalNodes>
          <leafValues>
            -7.6781980693340302e-02 2.0613054931163788e-01</leafValues></_>
        <_>
          <internalNodes>
            0 -1 2891 -2.0492570474743843e-02</internalNodes>
          <leafValues>
            -3.4912222623825073e-01 4.8688713461160660e-02</leafValues></_>
        <_>
          <internalNodes>
            0 -1 774 -5.6731395423412323e-02</internalNodes>
          <leafValues>
            -4.8957061767578125e-01 3.2302785664796829e-02</leafValues></_>
        <_>
          <internalNodes>
            0 -1 3612 -1.4329287223517895e-03</internalNodes>
          <leafValues>
            1.9094677269458771e-01 -9.1969780623912811e-02</leafValues></_>
        <_>
          <internalNodes>
            0 -1 5666 -7.4473407585173845e-04</internalNodes>
          <leafValues>
            -2.5068300962448120e-01 6.7517302930355072e-02</leafValues></_>
        <_>
          <internalNodes>
            0 -1 4821 -1.4596770517528057e-02</internalNodes>
          <leafValues>
            3.1360808014869690e-01 -6.1815090477466583e-02</leafValues></_>
        <_>
          <internalNodes>
            0 -1 1479 -1.6404193956987001e-05</internalNodes>
          <leafValues>
            1.3058660924434662e-01 -1.3146857917308807e-01</leafValues></_>
        <_>
          <internalNodes>
            0 -1 3578 2.6405595242977142e-02</internalNodes>
          <leafValues>
            3.5256121307611465e-02 -5.1665025949478149e-01</leafValues></_>
        <_>
          <internalNodes>
            0 -1 2823 -3.4498695749789476e-03</internalNodes>
          <leafValues>
            3.3520725369453430e-01 -5.2681107074022293e-02</leafValues></_>
        <_>
          <internalNodes>
            0 -1 1852 9.8548717796802521e-03</internalNodes>
          <leafValues>
            -7.8476488590240479e-02 2.0864634215831757e-01</leafValues></_>
        <_>
          <internalNodes>
            0 -1 3073 -3.3305652439594269e-02</internalNodes>
          <leafValues>
            3.0328354239463806e-01 -6.0645803809165955e-02</leafValues></_>
        <_>
          <internalNodes>
            0 -1 889 5.0312407314777374e-02</internalNodes>
          <leafValues>
            -8.2966014742851257e-02 2.0545522868633270e-01</leafValues></_>
        <_>
          <internalNodes>
            0 -1 236 -3.0454669147729874e-02</internalNodes>
          <leafValues>
            2.3346020281314850e-01 -7.6858930289745331e-02</leafValues></_>
        <_>
          <internalNodes>
            0 -1 2216 6.3814722001552582e-02</internalNodes>
          <leafValues>
            2.2731928154826164e-02 -7.9344373941421509e-01</leafValues></_>
        <_>
          <internalNodes>
            0 -1 4431 -1.5409041225211695e-05</internalNodes>
          <leafValues>
            1.2835508584976196e-01 -1.2491496652364731e-01</leafValues></_>
        <_>
          <internalNodes>
            0 -1 3829 -1.2555089779198170e-03</internalNodes>
          <leafValues>
            1.6235667467117310e-01 -1.0083526372909546e-01</leafValues></_>
        <_>
          <internalNodes>
            0 -1 549 -2.5508524850010872e-03</internalNodes>
          <leafValues>
            -2.7426153421401978e-01 6.1036914587020874e-02</leafValues></_>
        <_>
          <internalNodes>
            0 -1 592 3.3684796653687954e-03</internalNodes>
          <leafValues>
            5.7470791041851044e-02 -2.7946907281875610e-01</leafValues></_>
        <_>
          <internalNodes>
            0 -1 4152 -1.5741800889372826e-03</internalNodes>
          <leafValues>
            1.4581184089183807e-01 -1.1859613656997681e-01</leafValues></_>
        <_>
          <internalNodes>
            0 -1 1305 -7.6129119843244553e-03</internalNodes>
          <leafValues>
            2.0637114346027374e-01 -7.4445627629756927e-02</leafValues></_>
        <_>
          <internalNodes>
            0 -1 5316 6.5400009043514729e-04</internalNodes>
          <leafValues>
            6.8170048296451569e-02 -2.3577024042606354e-01</leafValues></_>
        <_>
          <internalNodes>
            0 -1 1641 1.5658442862331867e-05</internalNodes>
          <leafValues>
            -1.1327147483825684e-01 1.3788445293903351e-01</leafValues></_>
        <_>
          <internalNodes>
            0 -1 3791 1.1287345550954342e-03</internalNodes>
          <leafValues>
            7.2389937937259674e-02 -2.1737417578697205e-01</leafValues></_>
        <_>
          <internalNodes>
            0 -1 3204 2.9218260198831558e-02</internalNodes>
          <leafValues>
            -6.0101006180047989e-02 3.0002325773239136e-01</leafValues></_>
        <_>
          <internalNodes>
            0 -1 2 4.4803735800087452e-03</internalNodes>
          <leafValues>
            -3.1150596216320992e-02 5.1372683048248291e-01</leafValues></_>
        <_>
          <internalNodes>
            0 -1 483 2.2136688232421875e-01</internalNodes>
          <leafValues>
            3.2881561666727066e-02 -5.3430557250976562e-01</leafValues></_>
        <_>
          <internalNodes>
            0 -1 3038 -1.2828531907871366e-03</internalNodes>
          <leafValues>
            2.0131550729274750e-01 -8.1808626651763916e-02</leafValues></_>
        <_>
          <internalNodes>
            0 -1 3056 -1.2328941375017166e-03</internalNodes>
          <leafValues>
            2.1354624629020691e-01 -9.0584471821784973e-02</leafValues></_>
        <_>
          <internalNodes>
            0 -1 4657 2.3973079398274422e-02</internalNodes>
          <leafValues>
            4.3482795357704163e-02 -3.9636439085006714e-01</leafValues></_>
        <_>
          <internalNodes>
            0 -1 797 -3.1482718884944916e-02</internalNodes>
          <leafValues>
            -5.8793973922729492e-01 2.5740753859281540e-02</leafValues></_>
        <_>
          <internalNodes>
            0 -1 2718 -2.2305008023977280e-02</internalNodes>
          <leafValues>
            -5.0647819042205811e-01 2.7799258008599281e-02</leafValues></_>
        <_>
          <internalNodes>
            0 -1 1613 -2.7581717818975449e-02</internalNodes>
          <leafValues>
            2.2652557492256165e-01 -7.4297480285167694e-02</leafValues></_>
        <_>
          <internalNodes>
            0 -1 1199 1.0155324125662446e-03</internalNodes>
          <leafValues>
            -6.2423076480627060e-02 2.4654346704483032e-01</leafValues></_>
        <_>
          <internalNodes>
            0 -1 950 4.0834889659890905e-05</internalNodes>
          <leafValues>
            -1.2050737440586090e-01 1.4631307125091553e-01</leafValues></_>
        <_>
          <internalNodes>
            0 -1 3076 -1.5358358723460697e-05</internalNodes>
          <leafValues>
            1.3956364989280701e-01 -1.1738559603691101e-01</leafValues></_>
        <_>
          <internalNodes>
            0 -1 3640 -1.7558627296239138e-03</internalNodes>
          <leafValues>
            2.2366747260093689e-01 -7.2307333350181580e-02</leafValues></_>
        <_>
          <internalNodes>
            0 -1 5503 7.1244593709707260e-03</internalNodes>
          <leafValues>
            -6.2221702188253403e-02 2.6501774787902832e-01</leafValues></_>
        <_>
          <internalNodes>
            0 -1 5547 -2.9486296698451042e-03</internalNodes>
          <leafValues>
            2.0800508558750153e-01 -8.1924691796302795e-02</leafValues></_></weakClassifiers></_>
    <!-- stage 7 -->
    <_>
      <maxWeakCount>100</maxWeakCount>
      <stageThreshold>-1.2152855396270752e+00</stageThreshold>
      <weakClassifiers>
        <_>
          <internalNodes>
            0 -1 1709 -9.5733903348445892e-02</internalNodes>
          <leafValues>
            5.5598658323287964e-01 -4.8532053828239441e-02</leafValues></_>
        <_>
          <internalNodes>
            0 -1 2797 -6.0175221413373947e-02</internalNodes>
          <leafValues>
            2.5038895010948181e-01 -1.8262259662151337e-01</leafValues></_>
        <_>
          <internalNodes>
            0 -1 65 1.4414957165718079e-01</internalNodes>
          <leafValues>
            -7.3421865701675415e-02 4.9879452586174011e-01</leafValues></_>
        <_>
          <internalNodes>
            0 -1 2795 -3.8603171706199646e-02</internalNodes>
          <leafValues>
            9.9102385342121124e-02 -2.2745700180530548e-01</leafValues></_>
        <_>
          <internalNodes>
            0 -1 2131 -3.0731655657291412e-02</internalNodes>
          <leafValues>
            3.4870660305023193e-01 -6.0707774013280869e-02</leafValues></_>
        <_>
          <internalNodes>
            0 -1 2113 5.0917476415634155e-02</internalNodes>
          <leafValues>
            -1.0181114822626114e-01 3.4213134646415710e-01</leafValues></_>
        <_>
          <internalNodes>
            0 -1 1572 -5.5425010621547699e-02</internalNodes>
          <leafValues>
            4.6730318665504456e-01 -4.3622042983770370e-02</leafValues></_>
        <_>
          <internalNodes>
            0 -1 1477 6.1246279627084732e-02</internalNodes>
          <leafValues>
            -6.5240532159805298e-02 3.8985607028007507e-01</leafValues></_>
        <_>
          <internalNodes>
            0 -1 3871 1.9575538113713264e-02</internalNodes>
          <leafValues>
            4.5600257813930511e-02 -5.7455903291702271e-01</leafValues></_>
        <_>
          <internalNodes>
            0 -1 3553 4.8508290201425552e-03</internalNodes>
          <leafValues>
            7.3939993977546692e-02 -2.6823499798774719e-01</leafValues></_>
        <_>
          <internalNodes>
            0 -1 3655 -1.8349681049585342e-03</internalNodes>
          <leafValues>
            2.5413665175437927e-01 -7.3931373655796051e-02</leafValues></_>
        <_>
          <internalNodes>
            0 -1 3655 2.5539011694490910e-03</internalNodes>
          <leafValues>
            -7.7511802315711975e-02 2.6015269756317139e-01</leafValues></_>
        <_>
          <internalNodes>
            0 -1 2345 -2.7508493512868881e-02</internalNodes>
          <leafValues>
            -3.7784561514854431e-01 4.6070665121078491e-02</leafValues></_>
        <_>
          <internalNodes>
            0 -1 3290 -2.6238097343593836e-03</internalNodes>
          <leafValues>
            1.6391865909099579e-01 -1.2412583827972412e-01</leafValues></_>
        <_>
          <internalNodes>
            0 -1 2358 7.9304594546556473e-03</internalNodes>
          <leafValues>
            3.6297239363193512e-02 -4.3390870094299316e-01</leafValues></_>
        <_>
          <internalNodes>
            0 -1 5025 -2.6407565921545029e-02</internalNodes>
          <leafValues>
            2.6775246858596802e-01 -6.7384354770183563e-02</leafValues></_>
        <_>
          <internalNodes>
            0 -1 2811 4.1698612272739410e-02</internalNodes>
          <leafValues>
            2.6253443211317062e-02 -7.0353698730468750e-01</leafValues></_>
        <_>
          <internalNodes>
            0 -1 3319 4.1448166593909264e-03</internalNodes>
          <leafValues>
            -5.0501186400651932e-02 3.7810656428337097e-01</leafValues></_>
        <_>
          <internalNodes>
            0 -1 3317 -1.8500298028811812e-03</internalNodes>
          <leafValues>
            1.6000832617282867e-01 -1.2199354916810989e-01</leafValues></_>
        <_>
          <internalNodes>
            0 -1 3490 -1.9960269331932068e-02</internalNodes>
          <leafValues>
            -4.2124852538108826e-01 3.9900708943605423e-02</leafValues></_>
        <_>
          <internalNodes>
            0 -1 2220 6.8966902792453766e-02</internalNodes>
          <leafValues>
            -6.4079143106937408e-02 2.8601130843162537e-01</leafValues></_>
        <_>
          <internalNodes>
            0 -1 578 -5.4959740489721298e-02</internalNodes>
          <leafValues>
            2.4907319247722626e-01 -7.6562695205211639e-02</leafValues></_>
        <_>
          <internalNodes>
            0 -1 3012 2.0981561392545700e-02</internalNodes>
          <leafValues>
            4.9268186092376709e-02 -3.8099080324172974e-01</leafValues></_>
        <_>
          <internalNodes>
            0 -1 3625 -7.5475114863365889e-04</internalNodes>
          <leafValues>
            1.7836269736289978e-01 -9.7816243767738342e-02</leafValues></_>
        <_>
          <internalNodes>
            0 -1 1958 -2.5534134358167648e-02</internalNodes>
          <leafValues>
            -4.6903270483016968e-01 3.7493381649255753e-02</leafValues></_>
        <_>
          <internalNodes>
            0 -1 5640 -9.4975193496793509e-04</internalNodes>
          <leafValues>
            -2.8630298376083374e-01 5.8508381247520447e-02</leafValues></_>
        <_>
          <internalNodes>
            0 -1 5640 3.2061606179922819e-04</internalNodes>
          <leafValues>
            1.0107602924108505e-01 -2.1420706808567047e-01</leafValues></_>
        <_>
          <internalNodes>
            0 -1 843 8.7726378114894032e-04</internalNodes>
          <leafValues>
            6.3473634421825409e-02 -2.3711238801479340e-01</leafValues></_>
        <_>
          <internalNodes>
            0 -1 66 -4.3574559688568115e-01</internalNodes>
          <leafValues>
            -4.0997034311294556e-01 3.8722228258848190e-02</leafValues></_>
        <_>
          <internalNodes>
            0 -1 604 6.4049108186736703e-04</internalNodes>
          <leafValues>
            6.9046415388584137e-02 -2.2139498591423035e-01</leafValues></_>
        <_>
          <internalNodes>
            0 -1 604 -7.2969158645719290e-04</internalNodes>
          <leafValues>
            -2.4068868160247803e-01 6.5885752439498901e-02</leafValues></_>
        <_>
          <internalNodes>
            0 -1 1783 -4.4178273528814316e-02</internalNodes>
          <leafValues>
            -3.6847779154777527e-01 4.3562840670347214e-02</leafValues></_>
        <_>
          <internalNodes>
            0 -1 3904 -1.8287377897650003e-03</internalNodes>
          <leafValues>
            1.6194373369216919e-01 -1.1867296695709229e-01</leafValues></_>
        <_>
          <internalNodes>
            0 -1 3628 -3.5885008983314037e-03</internalNodes>
          <leafValues>
            1.6598594188690186e-01 -1.0146744549274445e-01</leafValues></_>
        <_>
          <internalNodes>
            0 -1 1139 1.4040241017937660e-02</internalNodes>
          <leafValues>
            -5.1521923393011093e-02 3.1834706664085388e-01</leafValues></_>
        <_>
          <internalNodes>
            0 -1 164 1.6439858824014664e-02</internalNodes>
          <leafValues>
            -7.4507966637611389e-02 2.2524285316467285e-01</leafValues></_>
        <_>
          <internalNodes>
            0 -1 2895 -1.1682100594043732e-02</internalNodes>
          <leafValues>
            4.5912113785743713e-01 -3.5368453711271286e-02</leafValues></_>
        <_>
          <internalNodes>
            0 -1 4293 6.8522403016686440e-03</internalNodes>
          <leafValues>
            -5.2633035928010941e-02 3.5407838225364685e-01</leafValues></_>
        <_>
          <internalNodes>
            0 -1 3756 2.6189887896180153e-02</internalNodes>
          <leafValues>
            3.4796122461557388e-02 -4.9763843417167664e-01</leafValues></_>
        <_>
          <internalNodes>
            0 -1 1533 -2.8730481863021851e-03</internalNodes>
          <leafValues>
            1.0644547641277313e-01 -1.5247143805027008e-01</leafValues></_>
        <_>
          <internalNodes>
            0 -1 3665 1.7558597028255463e-02</internalNodes>
          <leafValues>
            -8.1270873546600342e-02 1.9216400384902954e-01</leafValues></_>
        <_>
          <internalNodes>
            0 -1 3404 4.3625593185424805e-02</internalNodes>
          <leafValues>
            -5.8929253369569778e-02 3.2060089707374573e-01</leafValues></_>
        <_>
          <internalNodes>
            0 -1 4970 1.4443704858422279e-02</internalNodes>
          <leafValues>
            -7.1264401078224182e-02 2.3915472626686096e-01</leafValues></_>
        <_>
          <internalNodes>
            0 -1 109 2.1217807661741972e-03</internalNodes>
          <leafValues>
            -8.6786821484565735e-02 1.7617630958557129e-01</leafValues></_>
        <_>
          <internalNodes>
            0 -1 684 -4.1408855468034744e-03</internalNodes>
          <leafValues>
            2.3682577908039093e-01 -6.4776979386806488e-02</leafValues></_>
        <_>
          <internalNodes>
            0 -1 3116 4.8176347627304494e-04</internalNodes>
          <leafValues>
            7.2669222950935364e-02 -2.1601732075214386e-01</leafValues></_>
        <_>
          <internalNodes>
            0 -1 4050 -3.3623287454247475e-03</internalNodes>
          <leafValues>
            2.7365547418594360e-01 -5.5163934826850891e-02</leafValues></_>
        <_>
          <internalNodes>
            0 -1 4050 2.7804607525467873e-03</internalNodes>
          <leafValues>
            -7.2944067418575287e-02 2.7887842059135437e-01</leafValues></_>
        <_>
          <internalNodes>
            0 -1 5579 -5.2460213191807270e-03</internalNodes>
          <leafValues>
            -3.5754829645156860e-01 4.3370358645915985e-02</leafValues></_>
        <_>
          <internalNodes>
            0 -1 382 -7.4113242328166962e-02</internalNodes>
          <leafValues>
            -7.0246034860610962e-01 2.0036201924085617e-02</leafValues></_>
        <_>
          <internalNodes>
            0 -1 2517 -3.2391011714935303e-02</internalNodes>
          <leafValues>
            -5.7328289747238159e-01 2.2591605782508850e-02</leafValues></_>
        <_>
          <internalNodes>
            0 -1 3346 4.6284068375825882e-03</internalNodes>
          <leafValues>
            -3.9444401860237122e-02 3.9019253849983215e-01</leafValues></_>
        <_>
          <internalNodes>
            0 -1 3019 -1.8540935125201941e-03</internalNodes>
          <leafValues>
            1.4423447847366333e-01 -1.1885098367929459e-01</leafValues></_>
        <_>
          <internalNodes>
            0 -1 4228 4.6894155093468726e-04</internalNodes>
          <leafValues>
            7.3449067771434784e-02 -2.0411258935928345e-01</leafValues></_>
        <_>
          <internalNodes>
            0 -1 5230 1.3571187853813171e-02</internalNodes>
          <leafValues>
            -7.0809125900268555e-02 2.1333138644695282e-01</leafValues></_>
        <_>
          <internalNodes>
            0 -1 5001 -4.8623355105519295e-03</internalNodes>
          <leafValues>
            2.1615402400493622e-01 -7.5541116297245026e-02</leafValues></_>
        <_>
          <internalNodes>
            0 -1 628 1.0606975993141532e-03</internalNodes>
          <leafValues>
            5.3551387041807175e-02 -2.9954788088798523e-01</leafValues></_>
        <_>
          <internalNodes>
            0 -1 1191 -4.7069555521011353e-01</internalNodes>
          <leafValues>
            -7.6026093959808350e-01 1.9405029714107513e-02</leafValues></_>
        <_>
          <internalNodes>
            0 -1 4667 4.3261633254587650e-03</internalNodes>
          <leafValues>
            -4.2946405708789825e-02 3.8075765967369080e-01</leafValues></_>
        <_>
          <internalNodes>
            0 -1 2383 -1.0706328786909580e-02</internalNodes>
          <leafValues>
            -3.3566495776176453e-01 4.4882211834192276e-02</leafValues></_>
        <_>
          <internalNodes>
            0 -1 1551 1.5015954151749611e-02</internalNodes>
          <leafValues>
            -7.9387471079826355e-02 1.9243276119232178e-01</leafValues></_>
        <_>
          <internalNodes>
            0 -1 1801 -1.6251862049102783e-02</internalNodes>
          <leafValues>
            2.9894191026687622e-01 -5.4103761911392212e-02</leafValues></_>
        <_>
          <internalNodes>
            0 -1 3921 -3.9942902512848377e-03</internalNodes>
          <leafValues>
            1.6957233846187592e-01 -8.4481500089168549e-02</leafValues></_>
        <_>
          <internalNodes>
            0 -1 2983 1.9566386938095093e-02</internalNodes>
          <leafValues>
            3.4140538424253464e-02 -4.7317364811897278e-01</leafValues></_>
        <_>
          <internalNodes>
            0 -1 4156 -1.4485763131233398e-05</internalNodes>
          <leafValues>
            1.2065099179744720e-01 -1.2921062111854553e-01</leafValues></_>
        <_>
          <internalNodes>
            0 -1 1902 -2.2054545581340790e-02</internalNodes>
          <leafValues>
            -7.3520731925964355e-01 2.0770275965332985e-02</leafValues></_>
        <_>
          <internalNodes>
            0 -1 985 -1.5028023719787598e-01</internalNodes>
          <leafValues>
            -5.9328943490982056e-01 2.2184684872627258e-02</leafValues></_>
        <_>
          <internalNodes>
            0 -1 5659 -4.0190024301409721e-03</internalNodes>
          <leafValues>
            -2.7475041151046753e-01 5.4753366857767105e-02</leafValues></_>
        <_>
          <internalNodes>
            0 -1 3560 -9.7731058485805988e-04</internalNodes>
          <leafValues>
            1.1866468936204910e-01 -1.2809363007545471e-01</leafValues></_>
        <_>
          <internalNodes>
            0 -1 5663 1.0270867496728897e-03</internalNodes>
          <leafValues>
            5.6965842843055725e-02 -2.6923054456710815e-01</leafValues></_>
        <_>
          <internalNodes>
            0 -1 43 -1.0582240298390388e-02</internalNodes>
          <leafValues>
            2.6400846242904663e-01 -5.7340454310178757e-02</leafValues></_>
        <_>
          <internalNodes>
            0 -1 679 -6.2292769551277161e-02</internalNodes>
          <leafValues>
            1.7285941541194916e-01 -8.2988061010837555e-02</leafValues></_>
        <_>
          <internalNodes>
            0 -1 3737 -3.7356868386268616e-02</internalNodes>
          <leafValues>
            1.7080585658550262e-01 -1.0086825489997864e-01</leafValues></_>
        <_>
          <internalNodes>
            0 -1 3224 -3.7184508983045816e-03</internalNodes>
          <leafValues>
