<?xml version="1.0"?>
<opencv_storage>
<cascade>
  <stageType>BOOST</stageType>
  <featureType>HAAR</featureType>
  <height>24</height>
  <width>24</width>
  <stageParams>
    <boostType>GAB</boostType>
    <minHitRate>9.9900001287460327e-01</minHitRate>
    <maxFalseAlarm>5.0000000000000000e-01</maxFalseAlarm>
    <weightTrimRate>9.4999999999999996e-01</weightTrimRate>
    <maxDepth>1</maxDepth>
    <maxWeakCount>100</maxWeakCount></stageParams>
  <featureParams>
    <maxCatCount>0</maxCatCount>
    <featSize>1</featSize>
    <mode>ALL</mode></featureParams>
  <stageNum>26</stageNum>
  <stages>
    <!-- stage 0 -->
    <_>
      <maxWeakCount>11</maxWeakCount>
      <stageThreshold>-1.0784006118774414e+00</stageThreshold>
      <weakClassifiers>
        <_>
          <internalNodes>
            0 -1 268 -4.3201066553592682e-02</internalNodes>
          <leafValues>
            6.7511886358261108e-01 -5.5172413587570190e-01</leafValues></_>
        <_>
          <internalNodes>
            0 -1 438 -1.6768790781497955e-02</internalNodes>
          <leafValues>
            3.4344211220741272e-01 -5.1901465654373169e-01</leafValues></_>
        <_>
          <internalNodes>
            0 -1 69 -2.0849829912185669e-01</internalNodes>
          <leafValues>
            -8.2307142019271851e-01 1.5206545591354370e-01</leafValues></_>
        <_>
          <internalNodes>
            0 -1 946 1.7651867866516113e-01</internalNodes>
          <leafValues>
            1.6331142187118530e-01 -7.5177294015884399e-01</leafValues></_>
        <_>
          <internalNodes>
            0 -1 292 -3.8926947861909866e-02</internalNodes>
          <leafValues>
            5.8669030666351318e-01 -2.3995818197727203e-01</leafValues></_>
        <_>
          <internalNodes>
            0 -1 298 1.4946185052394867e-02</internalNodes>
          <leafValues>
            -3.2549145817756653e-01 3.9731740951538086e-01</leafValues></_>
        <_>
          <internalNodes>
            0 -1 1032 -3.9362981915473938e-03</internalNodes>
          <leafValues>
            6.1539435386657715e-01 -2.2413572669029236e-01</leafValues></_>
        <_>
          <internalNodes>
            0 -1 1035 -4.1962480172514915e-03</internalNodes>
          <leafValues>
            5.9086531400680542e-01 -2.5305095314979553e-01</leafValues></_>
        <_>
          <internalNodes>
            0 -1 178 -9.2115821316838264e-03</internalNodes>
          <leafValues>
            5.8891350030899048e-01 -1.7658503353595734e-01</leafValues></_>
        <_>
          <internalNodes>
            0 -1 232 -7.3078526183962822e-03</internalNodes>
          <leafValues>
            2.7797791361808777e-01 -4.1978240013122559e-01</leafValues></_>
        <_>
          <internalNodes>
            0 -1 852 -2.1542846225202084e-03</internalNodes>
          <leafValues>
            7.0812666416168213e-01 -1.7234230041503906e-01</leafValues></_></weakClassifiers></_>
    <!-- stage 1 -->
    <_>
      <maxWeakCount>14</maxWeakCount>
      <stageThreshold>-1.2045061588287354e+00</stageThreshold>
      <weakClassifiers>
        <_>
          <internalNodes>
            0 -1 640 -1.3283142820000648e-02</internalNodes>
          <leafValues>
            5.2145457267761230e-01 -4.1333332657814026e-01</leafValues></_>
        <_>
          <internalNodes>
            0 -1 217 -4.0390583872795105e-01</internalNodes>
          <leafValues>
            -8.4049189090728760e-01 2.0732326805591583e-01</leafValues></_>
        <_>
          <internalNodes>
            0 -1 877 -1.3242887798696756e-03</internalNodes>
          <leafValues>
            6.1118930578231812e-01 -2.2803337872028351e-01</leafValues></_>
        <_>
          <internalNodes>
            0 -1 825 4.0708403103053570e-03</internalNodes>
          <leafValues>
            -1.7970778048038483e-01 6.8593990802764893e-01</leafValues></_>
        <_>
          <internalNodes>
            0 -1 365 -7.0972517132759094e-02</internalNodes>
          <leafValues>
            2.9798853397369385e-01 -3.7925830483436584e-01</leafValues></_>
        <_>
          <internalNodes>
            0 -1 9 2.6056236028671265e-01</internalNodes>
          <leafValues>
            1.4276933670043945e-01 -7.6048910617828369e-01</leafValues></_>
        <_>
          <internalNodes>
            0 -1 88 -2.2397033870220184e-01</internalNodes>
          <leafValues>
            -8.8703256845474243e-01 1.0520158708095551e-01</leafValues></_>
        <_>
          <internalNodes>
            0 -1 828 -1.1208293726667762e-03</internalNodes>
          <leafValues>
            6.2966436147689819e-01 -2.3567934334278107e-01</leafValues></_>
        <_>
          <internalNodes>
            0 -1 16 3.6679232120513916e-01</internalNodes>
          <leafValues>
            1.7965210974216461e-01 -8.8451951742172241e-01</leafValues></_>
        <_>
          <internalNodes>
            0 -1 169 3.6756101995706558e-02</internalNodes>
          <leafValues>
            1.3865557312965393e-01 -6.9140887260437012e-01</leafValues></_>
        <_>
          <internalNodes>
            0 -1 748 1.8890001811087132e-03</internalNodes>
          <leafValues>
            -1.9557733833789825e-01 6.1497056484222412e-01</leafValues></_>
        <_>
          <internalNodes>
            0 -1 748 -1.1818037601187825e-03</internalNodes>
          <leafValues>
            5.6848984956741333e-01 -2.2495837509632111e-01</leafValues></_>
        <_>
          <internalNodes>
            0 -1 224 3.1110302079468966e-03</internalNodes>
          <leafValues>
            -1.7322573065757751e-01 5.7058906555175781e-01</leafValues></_>
        <_>
          <internalNodes>
            0 -1 952 1.6804572194814682e-02</internalNodes>
          <leafValues>
            1.6147573292255402e-01 -7.6991724967956543e-01</leafValues></_></weakClassifiers></_>
    <!-- stage 2 -->
    <_>
      <maxWeakCount>18</maxWeakCount>
      <stageThreshold>-9.7539710998535156e-01</stageThreshold>
      <weakClassifiers>
        <_>
          <internalNodes>
            0 -1 761 -3.3663487434387207e-01</internalNodes>
          <leafValues>
            -8.2733815908432007e-01 3.4923338890075684e-01</leafValues></_>
        <_>
          <internalNodes>
            0 -1 576 8.1624336540699005e-02</internalNodes>
          <leafValues>
            2.2067560255527496e-01 -6.5133947134017944e-01</leafValues></_>
        <_>
          <internalNodes>
            0 -1 767 -1.3902003876864910e-02</internalNodes>
          <leafValues>
            1.9546300172805786e-01 -4.8482552170753479e-01</leafValues></_>
        <_>
          <internalNodes>
            0 -1 618 -3.6110146902501583e-03</internalNodes>
          <leafValues>
            4.6011090278625488e-01 -2.4613772332668304e-01</leafValues></_>
        <_>
          <internalNodes>
            0 -1 40 -1.2166638625785708e-03</internalNodes>
          <leafValues>
            5.8247137069702148e-01 -1.7421212792396545e-01</leafValues></_>
        <_>
          <internalNodes>
            0 -1 34 2.1969340741634369e-03</internalNodes>
          <leafValues>
            -1.7601214349269867e-01 5.7936674356460571e-01</leafValues></_>
        <_>
          <internalNodes>
            0 -1 52 -5.6784339249134064e-03</internalNodes>
          <leafValues>
            6.4154815673828125e-01 -1.5430468320846558e-01</leafValues></_>
        <_>
          <internalNodes>
            0 -1 536 -2.2244144231081009e-02</internalNodes>
          <leafValues>
            -6.1295866966247559e-01 1.7960366606712341e-01</leafValues></_>
        <_>
          <internalNodes>
            0 -1 680 -1.2967974180355668e-03</internalNodes>
          <leafValues>
            4.2649587988853455e-01 -2.2981807589530945e-01</leafValues></_>
        <_>
          <internalNodes>
            0 -1 126 1.3654336333274841e-01</internalNodes>
          <leafValues>
            1.3293494284152985e-01 -7.6422947645187378e-01</leafValues></_>
        <_>
          <internalNodes>
            0 -1 95 -1.3723212480545044e-01</internalNodes>
          <leafValues>
            -6.5836554765701294e-01 1.3395950198173523e-01</leafValues></_>
        <_>
          <internalNodes>
            0 -1 15 -1.2733215093612671e-01</internalNodes>
          <leafValues>
            -6.3873821496963501e-01 1.5428788959980011e-01</leafValues></_>
        <_>
          <internalNodes>
            0 -1 765 -7.4420152232050896e-03</internalNodes>
          <leafValues>
            5.4959398508071899e-01 -1.8222184479236603e-01</leafValues></_>
        <_>
          <internalNodes>
            0 -1 821 -1.0634535923600197e-02</internalNodes>
          <leafValues>
            -5.8031642436981201e-01 1.6915062069892883e-01</leafValues></_>
        <_>
          <internalNodes>
            0 -1 850 -1.6450439943582751e-05</internalNodes>
          <leafValues>
            2.9348602890968323e-01 -3.0855312943458557e-01</leafValues></_>
        <_>
          <internalNodes>
            0 -1 624 -1.2266398407518864e-03</internalNodes>
          <leafValues>
            5.0430446863174438e-01 -1.8715803325176239e-01</leafValues></_>
        <_>
          <internalNodes>
            0 -1 556 2.8810000512748957e-03</internalNodes>
          <leafValues>
            -1.2279248982667923e-01 6.5844023227691650e-01</leafValues></_>
        <_>
          <internalNodes>
            0 -1 981 1.2390751391649246e-02</internalNodes>
          <leafValues>
            1.7768165469169617e-01 -5.4975366592407227e-01</leafValues></_></weakClassifiers></_>
    <!-- stage 3 -->
    <_>
      <maxWeakCount>22</maxWeakCount>
      <stageThreshold>-1.0684195756912231e+00</stageThreshold>
      <weakClassifiers>
        <_>
          <internalNodes>
            0 -1 370 -4.9216315150260925e-02</internalNodes>
          <leafValues>
            4.4043567776679993e-01 -3.4106728434562683e-01</leafValues></_>
        <_>
          <internalNodes>
            0 -1 390 1.7450224608182907e-02</internalNodes>
          <leafValues>
            1.4240214228630066e-01 -6.7265015840530396e-01</leafValues></_>
        <_>
          <internalNodes>
            0 -1 359 -3.7433303892612457e-02</internalNodes>
          <leafValues>
            -6.5516191720962524e-01 1.6556178033351898e-01</leafValues></_>
        <_>
          <internalNodes>
            0 -1 657 1.7844352871179581e-02</internalNodes>
          <leafValues>
            1.1028546839952469e-01 -7.8253924846649170e-01</leafValues></_>
        <_>
          <internalNodes>
            0 -1 708 3.9736386388540268e-03</internalNodes>
          <leafValues>
            -1.6306787729263306e-01 7.3902237415313721e-01</leafValues></_>
        <_>
          <internalNodes>
            0 -1 49 -2.7194477152079344e-03</internalNodes>
          <leafValues>
            8.3194160461425781e-01 -1.0325220227241516e-01</leafValues></_>
        <_>
          <internalNodes>
            0 -1 1051 1.3979303184896708e-03</internalNodes>
          <leafValues>
            -9.9320009350776672e-02 7.1358478069305420e-01</leafValues></_>
        <_>
          <internalNodes>
            0 -1 824 -2.6222015731036663e-03</internalNodes>
          <leafValues>
            5.9146833419799805e-01 -1.3135582208633423e-01</leafValues></_>
        <_>
          <internalNodes>
            0 -1 771 -2.6726336218416691e-03</internalNodes>
          <leafValues>
            6.5942823886871338e-01 -1.0748327523469925e-01</leafValues></_>
        <_>
          <internalNodes>
            0 -1 911 -1.4344038208946586e-03</internalNodes>
          <leafValues>
            6.4596605300903320e-01 -1.2709771096706390e-01</leafValues></_>
        <_>
          <internalNodes>
            0 -1 797 1.4528487809002399e-03</internalNodes>
          <leafValues>
            -1.3347013294696808e-01 6.6126394271850586e-01</leafValues></_>
        <_>
          <internalNodes>
            0 -1 512 3.8834411650896072e-02</internalNodes>
          <leafValues>
            1.7657236754894257e-01 -6.1539608240127563e-01</leafValues></_>
        <_>
          <internalNodes>
            0 -1 854 3.7993327714502811e-03</internalNodes>
          <leafValues>
            -1.3003022968769073e-01 8.1586086750030518e-01</leafValues></_>
        <_>
          <internalNodes>
            0 -1 860 2.8354090172797441e-03</internalNodes>
          <leafValues>
            -9.9994942545890808e-02 6.6593223810195923e-01</leafValues></_>
        <_>
          <internalNodes>
            0 -1 1013 2.6224656030535698e-03</internalNodes>
          <leafValues>
            -4.8291712999343872e-02 8.3546155691146851e-01</leafValues></_>
        <_>
          <internalNodes>
            0 -1 642 5.5334456264972687e-03</internalNodes>
          <leafValues>
            -9.5916800200939178e-02 6.4364880323410034e-01</leafValues></_>
        <_>
          <internalNodes>
            0 -1 989 3.7908279336988926e-03</internalNodes>
          <leafValues>
            -3.6237034201622009e-01 2.0490229129791260e-01</leafValues></_>
        <_>
          <internalNodes>
            0 -1 797 -1.4351940480992198e-03</internalNodes>
          <leafValues>
            6.4707100391387939e-01 -1.1121684312820435e-01</leafValues></_>
        <_>
          <internalNodes>
            0 -1 909 -3.3133211545646191e-03</internalNodes>
          <leafValues>
            8.4078979492187500e-01 -8.0915160477161407e-02</leafValues></_>
        <_>
          <internalNodes>
            0 -1 995 -1.3931503053754568e-03</internalNodes>
          <leafValues>
            6.2778198719024658e-01 -1.0004572570323944e-01</leafValues></_>
        <_>
          <internalNodes>
            0 -1 524 -2.3694938048720360e-02</internalNodes>
          <leafValues>
            -6.1094117164611816e-01 1.3870720565319061e-01</leafValues></_>
        <_>
          <internalNodes>
            0 -1 130 3.2214108854532242e-02</internalNodes>
          <leafValues>
            1.3572356104850769e-01 -5.7193458080291748e-01</leafValues></_></weakClassifiers></_>
    <!-- stage 4 -->
    <_>
      <maxWeakCount>20</maxWeakCount>
      <stageThreshold>-1.0375252962112427e+00</stageThreshold>
      <weakClassifiers>
        <_>
          <internalNodes>
            0 -1 127 3.5072124004364014e-01</internalNodes>
          <leafValues>
            3.8596490025520325e-01 -8.4210526943206787e-01</leafValues></_>
        <_>
          <internalNodes>
            0 -1 741 -1.6173040494322777e-03</internalNodes>
          <leafValues>
            6.9794052839279175e-01 -1.3996829092502594e-01</leafValues></_>
        <_>
          <internalNodes>
            0 -1 672 -1.6328899655491114e-03</internalNodes>
          <leafValues>
            7.3894470930099487e-01 -1.7836502194404602e-01</leafValues></_>
        <_>
          <internalNodes>
            0 -1 763 5.0971666350960732e-03</internalNodes>
          <leafValues>
            -5.2573001384735107e-01 2.1831239759922028e-01</leafValues></_>
        <_>
          <internalNodes>
            0 -1 136 -1.5991446562111378e-03</internalNodes>
          <leafValues>
            7.9051864147186279e-01 -1.7691177129745483e-01</leafValues></_>
        <_>
          <internalNodes>
            0 -1 114 8.8682398200035095e-03</internalNodes>
          <leafValues>
            -1.3484284281730652e-01 7.5207853317260742e-01</leafValues></_>
        <_>
          <internalNodes>
            0 -1 1086 -1.9676107913255692e-03</internalNodes>
          <leafValues>
            5.6494563817977905e-01 -1.7630212008953094e-01</leafValues></_>
        <_>
          <internalNodes>
            0 -1 1077 5.0837290473282337e-03</internalNodes>
          <leafValues>
            -1.5960699319839478e-01 6.5644317865371704e-01</leafValues></_>
        <_>
          <internalNodes>
            0 -1 129 -1.8568964442238212e-03</internalNodes>
          <leafValues>
            6.2224036455154419e-01 -9.6903488039970398e-02</leafValues></_>
        <_>
          <internalNodes>
            0 -1 1133 2.3795873858034611e-03</internalNodes>
          <leafValues>
            -1.4535889029502869e-01 6.9509220123291016e-01</leafValues></_>
        <_>
          <internalNodes>
            0 -1 62 -1.4350583078339696e-03</internalNodes>
          <leafValues>
            7.9912805557250977e-01 -9.1282844543457031e-02</leafValues></_>
        <_>
          <internalNodes>
            0 -1 267 -9.4355858862400055e-02</internalNodes>
          <leafValues>
            3.1356173753738403e-01 -3.1693539023399353e-01</leafValues></_>
        <_>
          <internalNodes>
            0 -1 648 4.2872088961303234e-03</internalNodes>
          <leafValues>
            -1.9306224584579468e-01 5.7454329729080200e-01</leafValues></_>
        <_>
          <internalNodes>
            0 -1 753 2.3830495774745941e-03</internalNodes>
          <leafValues>
            -1.1955109983682632e-01 6.5552681684494019e-01</leafValues></_>
        <_>
          <internalNodes>
            0 -1 421 -2.0356681197881699e-03</internalNodes>
          <leafValues>
            7.8130787611007690e-01 -9.4361476600170135e-02</leafValues></_>
        <_>
          <internalNodes>
            0 -1 492 -2.0256992429494858e-03</internalNodes>
          <leafValues>
            5.0753611326217651e-01 -1.6844713687896729e-01</leafValues></_>
        <_>
          <internalNodes>
            0 -1 912 2.4039496202021837e-03</internalNodes>
          <leafValues>
            -1.2059599161148071e-01 6.9858115911483765e-01</leafValues></_>
        <_>
          <internalNodes>
            0 -1 55 -2.4951752275228500e-03</internalNodes>
          <leafValues>
            8.0647665262222290e-01 -8.0081000924110413e-02</leafValues></_>
        <_>
          <internalNodes>
            0 -1 1056 -2.8233581688255072e-03</internalNodes>
          <leafValues>
            6.2691277265548706e-01 -1.1521983891725540e-01</leafValues></_>
        <_>
          <internalNodes>
            0 -1 963 5.9140757657587528e-03</internalNodes>
          <leafValues>
            -1.2972617149353027e-01 6.3754433393478394e-01</leafValues></_></weakClassifiers></_>
    <!-- stage 5 -->
    <_>
      <maxWeakCount>23</maxWeakCount>
      <stageThreshold>-8.8683146238327026e-01</stageThreshold>
      <weakClassifiers>
        <_>
          <internalNodes>
            0 -1 764 2.5347556918859482e-02</internalNodes>
          <leafValues>
            -1.2460064142942429e-01 4.5368915796279907e-01</leafValues></_>
        <_>
          <internalNodes>
            0 -1 632 -1.3920282013714314e-02</internalNodes>
          <leafValues>
            3.7079411745071411e-01 -2.1140816807746887e-01</leafValues></_>
        <_>
          <internalNodes>
            0 -1 710 5.7252012193202972e-03</internalNodes>
          <leafValues>
            -1.0680381953716278e-01 6.3829910755157471e-01</leafValues></_>
        <_>
          <internalNodes>
            0 -1 533 -5.7914671488106251e-03</internalNodes>
          <leafValues>
            1.8510855734348297e-01 -3.4906178712844849e-01</leafValues></_>
        <_>
          <internalNodes>
            0 -1 771 -2.2963315714150667e-03</internalNodes>
          <leafValues>
            4.6296057105064392e-01 -1.6589988768100739e-01</leafValues></_>
        <_>
          <internalNodes>
            0 -1 441 4.6594005078077316e-02</internalNodes>
          <leafValues>
            1.3722233474254608e-01 -6.9063282012939453e-01</leafValues></_>
        <_>
          <internalNodes>
            0 -1 854 -2.1704975515604019e-03</internalNodes>
          <leafValues>
            4.8672360181808472e-01 -1.5728916227817535e-01</leafValues></_>
        <_>
          <internalNodes>
            0 -1 811 -1.7909664165927097e-05</internalNodes>
          <leafValues>
            3.0834278464317322e-01 -2.2034937143325806e-01</leafValues></_>
        <_>
          <internalNodes>
            0 -1 806 -2.2358170826919377e-04</internalNodes>
          <leafValues>
            3.1930646300315857e-01 -1.9661724567413330e-01</leafValues></_>
        <_>
          <internalNodes>
            0 -1 800 -1.7742218915373087e-03</internalNodes>
          <leafValues>
            2.9426276683807373e-01 -2.5876811146736145e-01</leafValues></_>
        <_>
          <internalNodes>
            0 -1 896 1.3264875859022141e-02</internalNodes>
          <leafValues>
            8.7721265852451324e-02 -7.4663299322128296e-01</leafValues></_>
        <_>
          <internalNodes>
            0 -1 269 1.7134502530097961e-02</internalNodes>
          <leafValues>
            1.0010658204555511e-01 -6.4958745241165161e-01</leafValues></_>
        <_>
          <internalNodes>
            0 -1 752 -3.1862687319517136e-03</internalNodes>
          <leafValues>
            4.6579879522323608e-01 -1.3406524062156677e-01</leafValues></_>
        <_>
          <internalNodes>
            0 -1 743 -2.6017013005912304e-03</internalNodes>
          <leafValues>
            5.3770005702972412e-01 -9.6908718347549438e-02</leafValues></_>
        <_>
          <internalNodes>
            0 -1 715 -6.0542035847902298e-02</internalNodes>
          <leafValues>
            -6.2786793708801270e-01 9.4112396240234375e-02</leafValues></_>
        <_>
          <internalNodes>
            0 -1 489 -1.5011378309282009e-05</internalNodes>
          <leafValues>
            2.8187286853790283e-01 -2.0945066213607788e-01</leafValues></_>
        <_>
          <internalNodes>
            0 -1 644 4.2499780654907227e-02</internalNodes>
          <leafValues>
            7.8911207616329193e-02 -7.0415985584259033e-01</leafValues></_>
        <_>
          <internalNodes>
            0 -1 956 -2.1995403803884983e-03</internalNodes>
          <leafValues>
            4.5958948135375977e-01 -1.3584767282009125e-01</leafValues></_>
        <_>
          <internalNodes>
            0 -1 953 -2.5166361592710018e-03</internalNodes>
          <leafValues>
            5.3952097892761230e-01 -1.1261849105358124e-01</leafValues></_>
        <_>
          <internalNodes>
            0 -1 798 -1.9808481447398663e-03</internalNodes>
          <leafValues>
            2.8061869740486145e-01 -1.7941281199455261e-01</leafValues></_>
        <_>
          <internalNodes>
            0 -1 511 6.2704263255000114e-03</internalNodes>
          <leafValues>
            -1.0869728773832321e-01 5.0259733200073242e-01</leafValues></_>
        <_>
          <internalNodes>
            0 -1 225 -9.4207525253295898e-03</internalNodes>
          <leafValues>
            4.9192139506340027e-01 -1.0571134835481644e-01</leafValues></_>
        <_>
          <internalNodes>
            0 -1 701 -2.4239458143711090e-03</internalNodes>
          <leafValues>
            4.9378794431686401e-01 -1.1407922208309174e-01</leafValues></_></weakClassifiers></_>
    <!-- stage 6 -->
    <_>
      <maxWeakCount>24</maxWeakCount>
      <stageThreshold>-7.8368502855300903e-01</stageThreshold>
      <weakClassifiers>
        <_>
          <internalNodes>
            0 -1 622 2.8486013412475586e-02</internalNodes>
          <leafValues>
            6.6787004470825195e-02 5.3787881135940552e-01</leafValues></_>
        <_>
          <internalNodes>
            0 -1 588 6.1831958591938019e-03</internalNodes>
          <leafValues>
            -7.8429289162158966e-02 5.9233665466308594e-01</leafValues></_>
        <_>
          <internalNodes>
            0 -1 740 -3.9142351597547531e-03</internalNodes>
          <leafValues>
            3.1577083468437195e-01 -1.9023118913173676e-01</leafValues></_>
        <_>
          <internalNodes>
            0 -1 772 1.5648910775780678e-03</internalNodes>
          <leafValues>
            -1.1802913248538971e-01 5.6803339719772339e-01</leafValues></_>
        <_>
          <internalNodes>
            0 -1 85 1.4176022261381149e-02</internalNodes>
          <leafValues>
            9.9664144217967987e-02 -6.3264870643615723e-01</leafValues></_>
        <_>
          <internalNodes>
            0 -1 1041 1.4910288155078888e-03</internalNodes>
          <leafValues>
            -1.2401881814002991e-01 5.3980714082717896e-01</leafValues></_>
        <_>
          <internalNodes>
            0 -1 405 2.5229160673916340e-03</internalNodes>
          <leafValues>
            -6.4891420304775238e-02 5.7013213634490967e-01</leafValues></_>
        <_>
          <internalNodes>
            0 -1 944 2.3022950626909733e-03</internalNodes>
          <leafValues>
            -4.9195405840873718e-01 9.0724952518939972e-02</leafValues></_>
        <_>
          <internalNodes>
            0 -1 746 3.2860720530152321e-03</internalNodes>
          <leafValues>
            -1.0175775736570358e-01 5.6342393159866333e-01</leafValues></_>
        <_>
          <internalNodes>
            0 -1 53 -5.9604607522487640e-03</internalNodes>
          <leafValues>
            3.3033582568168640e-01 -1.5460239350795746e-01</leafValues></_>
        <_>
          <internalNodes>
            0 -1 562 2.4764072149991989e-03</internalNodes>
          <leafValues>
            -9.9982485175132751e-02 4.8727947473526001e-01</leafValues></_>
        <_>
          <internalNodes>
            0 -1 556 -1.4691780088469386e-03</internalNodes>
          <leafValues>
            4.0449622273445129e-01 -1.2236916273832321e-01</leafValues></_>
        <_>
          <internalNodes>
            0 -1 368 4.5883554965257645e-02</internalNodes>
          <leafValues>
            6.2813825905323029e-02 -7.6238560676574707e-01</leafValues></_>
        <_>
          <internalNodes>
            0 -1 966 -1.2348151765763760e-02</internalNodes>
          <leafValues>
            3.7650832533836365e-01 -1.3975922763347626e-01</leafValues></_>
        <_>
          <internalNodes>
            0 -1 991 -1.8582718912512064e-03</internalNodes>
          <leafValues>
            6.3047307729721069e-01 -7.3047719895839691e-02</leafValues></_>
        <_>
          <internalNodes>
            0 -1 988 -1.3381106546148658e-03</internalNodes>
          <leafValues>
            4.9530041217803955e-01 -9.8168455064296722e-02</leafValues></_>
        <_>
          <internalNodes>
            0 -1 72 -5.5637462064623833e-03</internalNodes>
          <leafValues>
            3.8190212845802307e-01 -1.1792858690023422e-01</leafValues></_>
        <_>
          <internalNodes>
            0 -1 1027 8.0544985830783844e-03</internalNodes>
          <leafValues>
            -9.8312214016914368e-02 4.8726305365562439e-01</leafValues></_>
        <_>
          <internalNodes>
            0 -1 462 -9.3820206820964813e-03</internalNodes>
          <leafValues>
            -5.2530813217163086e-01 1.0289621353149414e-01</leafValues></_>
        <_>
          <internalNodes>
            0 -1 262 -1.2640407076105475e-03</internalNodes>
          <leafValues>
            4.5682749152183533e-01 -1.1896348744630814e-01</leafValues></_>
        <_>
          <internalNodes>
            0 -1 688 -4.1195154190063477e-02</internalNodes>
          <leafValues>
            6.2600272893905640e-01 -6.8615026772022247e-02</leafValues></_>
        <_>
          <internalNodes>
            0 -1 861 -1.8847079481929541e-03</internalNodes>
          <leafValues>
            4.3442639708518982e-01 -1.1559886485338211e-01</leafValues></_>
        <_>
          <internalNodes>
            0 -1 393 1.6581162810325623e-02</internalNodes>
          <leafValues>
            8.0279581248760223e-02 -6.9993066787719727e-01</leafValues></_>
        <_>
          <internalNodes>
            0 -1 120 -3.3599354792386293e-03</internalNodes>
          <leafValues>
            4.3741536140441895e-01 -1.2914308905601501e-01</leafValues></_></weakClassifiers></_>
    <!-- stage 7 -->
    <_>
      <maxWeakCount>31</maxWeakCount>
      <stageThreshold>-9.1616672277450562e-01</stageThreshold>
      <weakClassifiers>
        <_>
          <internalNodes>
            0 -1 665 -6.2750047072768211e-03</internalNodes>
          <leafValues>
            -5.6250000000000000e-01 3.3908045291900635e-01</leafValues></_>
        <_>
          <internalNodes>
            0 -1 834 1.5475377440452576e-02</internalNodes>
          <leafValues>
            1.8048976361751556e-01 -5.1847517490386963e-01</leafValues></_>
        <_>
          <internalNodes>
            0 -1 227 -3.9893704652786255e-01</internalNodes>
          <leafValues>
            -7.9168206453323364e-01 1.6599910333752632e-02</leafValues></_>
        <_>
          <internalNodes>
            0 -1 187 2.1754987537860870e-03</internalNodes>
          <leafValues>
            9.9195353686809540e-02 -4.9520766735076904e-01</leafValues></_>
        <_>
          <internalNodes>
            0 -1 672 -2.3490451276302338e-03</internalNodes>
          <leafValues>
            6.7349141836166382e-01 -6.4578212797641754e-02</leafValues></_>
        <_>
          <internalNodes>
            0 -1 516 -2.5678114034235477e-03</internalNodes>
          <leafValues>
            3.9422708749771118e-01 -1.4977349340915680e-01</leafValues></_>
        <_>
          <internalNodes>
            0 -1 542 3.3639840781688690e-02</internalNodes>
          <leafValues>
            7.9432129859924316e-02 -5.6578332185745239e-01</leafValues></_>
        <_>
          <internalNodes>
            0 -1 19 -1.5826562047004700e-01</internalNodes>
          <leafValues>
            -7.2190976142883301e-01 6.4688481390476227e-02</leafValues></_>
        <_>
          <internalNodes>
            0 -1 282 -8.6253955960273743e-02</internalNodes>
          <leafValues>
            -6.8480497598648071e-01 7.0342265069484711e-02</leafValues></_>
        <_>
          <internalNodes>
            0 -1 469 2.0160326734185219e-02</internalNodes>
          <leafValues>
            -1.5406019985675812e-01 3.3976072072982788e-01</leafValues></_>
        <_>
          <internalNodes>
            0 -1 870 -4.7134933993220329e-03</internalNodes>
          <leafValues>
            6.3269376754760742e-01 -7.8169420361518860e-02</leafValues></_>
        <_>
          <internalNodes>
            0 -1 591 1.7625670880079269e-02</internalNodes>
          <leafValues>
            8.1055074930191040e-02 -7.1117126941680908e-01</leafValues></_>
        <_>
          <internalNodes>
            0 -1 1049 -2.7105268090963364e-03</internalNodes>
          <leafValues>
            6.8187516927719116e-01 -8.8603883981704712e-02</leafValues></_>
        <_>
          <internalNodes>
            0 -1 86 1.5077441930770874e-02</internalNodes>
          <leafValues>
            1.0512726008892059e-01 -5.3577733039855957e-01</leafValues></_>
        <_>
          <internalNodes>
            0 -1 582 -1.6569249331951141e-02</internalNodes>
          <leafValues>
            -7.0040428638458252e-01 6.7044593393802643e-02</leafValues></_>
        <_>
          <internalNodes>
            0 -1 961 -2.8921480407007039e-04</internalNodes>
          <leafValues>
            2.0249569416046143e-01 -2.2805964946746826e-01</leafValues></_>
        <_>
          <internalNodes>
            0 -1 672 3.5487371496856213e-03</internalNodes>
          <leafValues>
            -8.2845978438854218e-02 7.1450668573379517e-01</leafValues></_>
        <_>
          <internalNodes>
            0 -1 374 4.0153637528419495e-03</internalNodes>
          <leafValues>
            -6.8718671798706055e-02 5.7428967952728271e-01</leafValues></_>
        <_>
          <internalNodes>
            0 -1 100 6.6383583471179008e-03</internalNodes>
          <leafValues>
            -6.5086320042610168e-02 6.0390013456344604e-01</leafValues></_>
        <_>
          <internalNodes>
            0 -1 562 -1.6390501987189054e-03</internalNodes>
          <leafValues>
            3.7798613309860229e-01 -1.1206904053688049e-01</leafValues></_>
        <_>
          <internalNodes>
            0 -1 686 1.8803165294229984e-03</internalNodes>
          <leafValues>
            -7.4384339153766632e-02 6.0566490888595581e-01</leafValues></_>
        <_>
          <internalNodes>
            0 -1 353 2.3312976118177176e-03</internalNodes>
          <leafValues>
            -6.5332762897014618e-02 6.3245159387588501e-01</leafValues></_>
        <_>
          <internalNodes>
            0 -1 1086 -4.9022855237126350e-03</internalNodes>
          <leafValues>
            5.0383037328720093e-01 -9.0383403003215790e-02</leafValues></_>
        <_>
          <internalNodes>
            0 -1 976 -1.2000296264886856e-02</internalNodes>
          <leafValues>
            1.6625247895717621e-01 -3.1021094322204590e-01</leafValues></_>
        <_>
          <internalNodes>
            0 -1 313 -3.2276347279548645e-02</internalNodes>
          <leafValues>
            -5.2964282035827637e-01 9.2463538050651550e-02</leafValues></_>
        <_>
          <internalNodes>
            0 -1 1001 -2.0454205572605133e-02</internalNodes>
          <leafValues>
            5.4697149991989136e-01 -9.9744327366352081e-02</leafValues></_>
        <_>
          <internalNodes>
            0 -1 505 -2.0109154284000397e-03</internalNodes>
          <leafValues>
            5.7979846000671387e-01 -7.6256625354290009e-02</leafValues></_>
        <_>
          <internalNodes>
            0 -1 75 -4.5420862734317780e-02</internalNodes>
          <leafValues>
            -7.3535013198852539e-01 7.1282655000686646e-02</leafValues></_>
        <_>
          <internalNodes>
            0 -1 650 -1.2085712514817715e-03</internalNodes>
          <leafValues>
            4.3683999776840210e-01 -1.1400974541902542e-01</leafValues></_>
        <_>
          <internalNodes>
            0 -1 1048 -2.0895681809633970e-03</internalNodes>
          <leafValues>
            2.6538980007171631e-01 -1.6888871788978577e-01</leafValues></_>
        <_>
          <internalNodes>
            0 -1 1052 3.1672152690589428e-03</internalNodes>
          <leafValues>
            1.0722409933805466e-01 -4.6827051043510437e-01</leafValues></_></weakClassifiers></_>
    <!-- stage 8 -->
    <_>
      <maxWeakCount>45</maxWeakCount>
      <stageThreshold>-9.6301633119583130e-01</stageThreshold>
      <weakClassifiers>
        <_>
          <internalNodes>
            0 -1 503 -6.7006282508373260e-02</internalNodes>
          <leafValues>
            5.1730591058731079e-01 -6.3778579235076904e-02</leafValues></_>
        <_>
          <internalNodes>
            0 -1 566 -2.5291766971349716e-02</internalNodes>
          <leafValues>
            3.9513021707534790e-01 -1.3763613998889923e-01</leafValues></_>
        <_>
          <internalNodes>
            0 -1 412 3.7253700196743011e-02</internalNodes>
          <leafValues>
            -5.3800914436578751e-02 6.4461123943328857e-01</leafValues></_>
        <_>
          <internalNodes>
            0 -1 243 -1.3583129271864891e-02</internalNodes>
          <leafValues>
            2.5906682014465332e-01 -1.9043363630771637e-01</leafValues></_>
        <_>
          <internalNodes>
            0 -1 754 -1.0491920635104179e-02</internalNodes>
          <leafValues>
            3.9017361402511597e-01 -1.2653502821922302e-01</leafValues></_>
        <_>
          <internalNodes>
            0 -1 537 -3.4856889396905899e-02</internalNodes>
          <leafValues>
            -6.2288582324981689e-01 1.0928292572498322e-01</leafValues></_>
        <_>
          <internalNodes>
            0 -1 357 1.8367435783147812e-02</internalNodes>
          <leafValues>
            -1.8735128641128540e-01 2.1746626496315002e-01</leafValues></_>
        <_>
          <internalNodes>
            0 -1 6 1.9863374531269073e-01</internalNodes>
          <leafValues>
            -1.1289903521537781e-01 5.2842986583709717e-01</leafValues></_>
        <_>
          <internalNodes>
            0 -1 64 -1.1375252157449722e-02</internalNodes>
          <leafValues>
            2.8851547837257385e-01 -1.5344105660915375e-01</leafValues></_>
        <_>
          <internalNodes>
            0 -1 776 -3.4948438405990601e-02</internalNodes>
          <leafValues>
            -7.9456210136413574e-01 6.4118042588233948e-02</leafValues></_>
        <_>
          <internalNodes>
            0 -1 277 3.9285663515329361e-02</internalNodes>
          <leafValues>
            -5.9783093631267548e-02 6.8838566541671753e-01</leafValues></_>
        <_>
          <internalNodes>
            0 -1 611 4.0384167805314064e-03</internalNodes>
          <leafValues>
            7.3994114995002747e-02 -5.1936662197113037e-01</leafValues></_>
        <_>
          <internalNodes>
            0 -1 197 2.2192087024450302e-02</internalNodes>
          <leafValues>
            8.7828427553176880e-02 -4.0022045373916626e-01</leafValues></_>
        <_>
          <internalNodes>
            0 -1 628 1.6663677990436554e-02</internalNodes>
          <leafValues>
            -1.4855588972568512e-01 2.6415222883224487e-01</leafValues></_>
        <_>
          <internalNodes>
            0 -1 631 -4.5631982386112213e-02</internalNodes>
          <leafValues>
            4.6668156981468201e-01 -8.6947813630104065e-02</leafValues></_>
        <_>
          <internalNodes>
            0 -1 89 1.2142851948738098e-01</internalNodes>
          <leafValues>
            4.5927967876195908e-02 -9.4764846563339233e-01</leafValues></_>
        <_>
          <internalNodes>
            0 -1 84 -3.2332468777894974e-02</internalNodes>
          <leafValues>
            -5.6059056520462036e-01 5.0481531769037247e-02</leafValues></_>
        <_>
          <internalNodes>
            0 -1 1033 2.2424867376685143e-02</internalNodes>
          <leafValues>
            -9.0393617749214172e-02 4.1082718968391418e-01</leafValues></_>
        <_>
          <internalNodes>
            0 -1 1137 -5.3168595768511295e-03</internalNodes>
          <leafValues>
            -4.5055800676345825e-01 8.0026641488075256e-02</leafValues></_>
        <_>
          <internalNodes>
            0 -1 311 -1.6186580061912537e-02</internalNodes>
          <leafValues>
            -7.9924923181533813e-01 4.2307961732149124e-02</leafValues></_>
        <_>
          <internalNodes>
            0 -1 123 1.8887249752879143e-03</internalNodes>
          <leafValues>
            -7.5842916965484619e-02 5.2851891517639160e-01</leafValues></_>
        <_>
          <internalNodes>
            0 -1 1140 -5.7452148757874966e-04</internalNodes>
          <leafValues>
            -2.9694283008575439e-01 1.2224509567022324e-01</leafValues></_>
        <_>
          <internalNodes>
            0 -1 958 7.9889208078384399e-02</internalNodes>
          <leafValues>
            -7.1409285068511963e-02 5.3231298923492432e-01</leafValues></_>
        <_>
          <internalNodes>
            0 -1 824 -2.4505876936018467e-03</internalNodes>
          <leafValues>
            3.3289477229118347e-01 -9.9453553557395935e-02</leafValues></_>
        <_>
          <internalNodes>
            0 -1 824 2.6660580188035965e-03</internalNodes>
          <leafValues>
            -1.1282759904861450e-01 4.3669673800468445e-01</leafValues></_>
        <_>
          <internalNodes>
            0 -1 10 -4.6360343694686890e-01</internalNodes>
          <leafValues>
            -5.9074258804321289e-01 6.5409667789936066e-02</leafValues></_>
        <_>
          <internalNodes>
            0 -1 1124 4.2404589476063848e-04</internalNodes>
          <leafValues>
            1.1656031757593155e-01 -2.9652735590934753e-01</leafValues></_>
        <_>
          <internalNodes>
            0 -1 32 -2.2286128997802734e-01</internalNodes>
          <leafValues>
            -5.6441026926040649e-01 6.2031619250774384e-02</leafValues></_>
        <_>
          <internalNodes>
            0 -1 699 2.2748034447431564e-02</internalNodes>
          <leafValues>
            5.8575805276632309e-02 -5.6211900711059570e-01</leafValues></_>
        <_>
          <internalNodes>
            0 -1 329 6.7586842924356461e-03</internalNodes>
          <leafValues>
            7.0549003779888153e-02 -4.9073243141174316e-01</leafValues></_>
        <_>
          <internalNodes>
            0 -1 663 -1.8380668479949236e-03</internalNodes>
          <leafValues>
            2.9634389281272888e-01 -1.4967675507068634e-01</leafValues></_>
        <_>
          <internalNodes>
            0 -1 725 -2.3668394424021244e-03</internalNodes>
          <leafValues>
            3.4211835265159607e-01 -1.3320884108543396e-01</leafValues></_>
        <_>
          <internalNodes>
            0 -1 595 -2.0362501963973045e-03</internalNodes>
          <leafValues>
            1.3875618577003479e-01 -3.0064091086387634e-01</leafValues></_>
        <_>
          <internalNodes>
            0 -1 48 -5.1320930942893028e-03</internalNodes>
          <leafValues>
            1.3787934184074402e-01 -3.1274393200874329e-01</leafValues></_>
        <_>
          <internalNodes>
            0 -1 786 -6.5561407245695591e-04</internalNodes>
          <leafValues>
            1.8669369816780090e-01 -2.0547246932983398e-01</leafValues></_>
        <_>
          <internalNodes>
            0 -1 691 9.1885589063167572e-03</internalNodes>
          <leafValues>
            -5.4417904466390610e-02 6.7141270637512207e-01</leafValues></_>
        <_>
          <internalNodes>
            0 -1 697 -2.0104028284549713e-02</internalNodes>
          <leafValues>
            -5.6896400451660156e-01 7.1479737758636475e-02</leafValues></_>
        <_>
          <internalNodes>
            0 -1 924 1.8493369221687317e-01</internalNodes>
          <leafValues>
            3.4607358276844025e-02 -8.6147034168243408e-01</leafValues></_>
        <_>
          <internalNodes>
            0 -1 358 -1.0581408441066742e-01</internalNodes>
          <leafValues>
            1.8616010248661041e-01 -2.1565918624401093e-01</leafValues></_>
        <_>
          <internalNodes>
            0 -1 1004 -5.2287774160504341e-03</internalNodes>
          <leafValues>
            3.2201799750328064e-01 -1.2771601974964142e-01</leafValues></_>
        <_>
          <internalNodes>
            0 -1 189 -8.2332855090498924e-03</internalNodes>
          <leafValues>
            3.5487407445907593e-01 -1.0696168988943100e-01</leafValues></_>
        <_>
          <internalNodes>
            0 -1 101 3.6610746756196022e-03</internalNodes>
          <leafValues>
            9.3545243144035339e-02 -4.2555245757102966e-01</leafValues></_>
        <_>
          <internalNodes>
            0 -1 869 2.4012974463403225e-03</internalNodes>
          <leafValues>
            -7.4371211230754852e-02 5.5498880147933960e-01</leafValues></_>
        <_>
          <internalNodes>
            0 -1 132 -8.5493195801973343e-03</internalNodes>
          <leafValues>
            -5.5106031894683838e-01 7.4032552540302277e-02</leafValues></_>
        <_>
          <internalNodes>
            0 -1 429 1.3052743673324585e-01</internalNodes>
          <leafValues>
            -5.6988198310136795e-02 7.4596625566482544e-01</leafValues></_></weakClassifiers></_>
    <!-- stage 9 -->
    <_>
      <maxWeakCount>46</maxWeakCount>
      <stageThreshold>-8.8748264312744141e-01</stageThreshold>
      <weakClassifiers>
        <_>
          <internalNodes>
            0 -1 580 -5.5881589651107788e-02</internalNodes>
          <leafValues>
            4.3206107616424561e-01 -1.1186441034078598e-01</leafValues></_>
        <_>
          <internalNodes>
            0 -1 399 6.0725208371877670e-02</internalNodes>
          <leafValues>
            -1.5156145393848419e-01 3.3471548557281494e-01</leafValues></_>
        <_>
          <internalNodes>
            0 -1 951 -1.6311718150973320e-02</internalNodes>
          <leafValues>
            2.8994962573051453e-01 -1.3959880173206329e-01</leafValues></_>
        <_>
          <internalNodes>
            0 -1 718 2.0467747002840042e-02</internalNodes>
          <leafValues>
            3.2393060624599457e-02 -6.5550124645233154e-01</leafValues></_>
        <_>
          <internalNodes>
            0 -1 723 -1.2081821914762259e-03</internalNodes>
          <leafValues>
            2.1803005039691925e-01 -1.9685959815979004e-01</leafValues></_>
        <_>
          <internalNodes>
            0 -1 135 3.4939359873533249e-02</internalNodes>
          <leafValues>
            1.1333138495683670e-01 -3.7086820602416992e-01</leafValues></_>
        <_>
          <internalNodes>
            0 -1 154 -1.5803359448909760e-02</internalNodes>
          <leafValues>
            3.1250199675559998e-01 -1.2854903936386108e-01</leafValues></_>
        <_>
          <internalNodes>
            0 -1 1115 -1.0374144650995731e-02</internalNodes>
          <leafValues>
            3.2417345046997070e-01 -1.1912204325199127e-01</leafValues></_>
        <_>
          <internalNodes>
            0 -1 194 9.6588823944330215e-03</internalNodes>
          <leafValues>
            6.9632112979888916e-02 -4.9757739901542664e-01</leafValues></_>
        <_>
          <internalNodes>
            0 -1 81 2.6383141055703163e-02</internalNodes>
          <leafValues>
            6.0652296990156174e-02 -7.1718090772628784e-01</leafValues></_>
        <_>
          <internalNodes>
            0 -1 940 -2.1086530759930611e-03</internalNodes>
          <leafValues>
            3.6891463398933411e-01 -1.0968419164419174e-01</leafValues></_>
        <_>
          <internalNodes>
            0 -1 905 2.8065664228051901e-03</internalNodes>
          <leafValues>
            -1.4002519845962524e-01 3.0468124151229858e-01</leafValues></_>
        <_>
          <internalNodes>
            0 -1 283 1.9106633961200714e-02</internalNodes>
          <leafValues>
            -8.4173694252967834e-02 3.5881382226943970e-01</leafValues></_>
        <_>
          <internalNodes>
            0 -1 163 1.2836505193263292e-03</internalNodes>
          <leafValues>
            -8.6663827300071716e-02 3.9454865455627441e-01</leafValues></_>
        <_>
          <internalNodes>
            0 -1 345 2.5706408545374870e-02</internalNodes>
          <leafValues>
            -1.1091234534978867e-01 3.0367279052734375e-01</leafValues></_>
        <_>
          <internalNodes>
            0 -1 98 -1.6380190849304199e-01</internalNodes>
          <leafValues>
            3.1302812695503235e-01 -1.0148813575506210e-01</leafValues></_>
        <_>
          <internalNodes>
            0 -1 603 -9.9412543931975961e-05</internalNodes>
          <leafValues>
            1.6591821610927582e-01 -1.9263000786304474e-01</leafValues></_>
        <_>
          <internalNodes>
            0 -1 666 -5.7482742704451084e-04</internalNodes>
          <leafValues>
            2.7051749825477600e-01 -1.5725331008434296e-01</leafValues></_>
        <_>
          <internalNodes>
            0 -1 196 -4.7711938619613647e-02</internalNodes>
          <leafValues>
            -4.8357945680618286e-01 8.0814719200134277e-02</leafValues></_>
        <_>
          <internalNodes>
            0 -1 709 -2.4636555463075638e-03</internalNodes>
          <leafValues>
            2.9105654358863831e-01 -1.3367721438407898e-01</leafValues></_>
        <_>
          <internalNodes>
            0 -1 468 -6.4597330056130886e-03</internalNodes>
          <leafValues>
            -4.2824080586433411e-01 9.1198727488517761e-02</leafValues></_>
        <_>
          <internalNodes>
            0 -1 705 -3.2737225294113159e-02</internalNodes>
          <leafValues>
            1.4005398750305176e-01 -2.6114240288734436e-01</leafValues></_>
        <_>
          <internalNodes>
            0 -1 467 1.6256166622042656e-02</internalNodes>
          <leafValues>
            5.6600131094455719e-02 -6.6888624429702759e-01</leafValues></_>
        <_>
          <internalNodes>
            0 -1 840 -1.1907634325325489e-03</internalNodes>
          <leafValues>
            2.1527823805809021e-01 -1.8326106667518616e-01</leafValues></_>
        <_>
          <internalNodes>
            0 -1 251 -1.3813090510666370e-02</internalNodes>
          <leafValues>
            3.0458015203475952e-01 -1.2150274962186813e-01</leafValues></_>
        <_>
          <internalNodes>
            0 -1 177 -2.1819113753736019e-03</internalNodes>
          <leafValues>
            2.8724032640457153e-01 -1.2319186329841614e-01</leafValues></_>
        <_>
          <internalNodes>
            0 -1 1142 -6.3617050182074308e-04</internalNodes>
          <leafValues>
            -3.3973458409309387e-01 9.8914198577404022e-02</leafValues></_>
        <_>
          <internalNodes>
            0 -1 3 2.5905710645020008e-03</internalNodes>
          <leafValues>
            -1.1527624726295471e-01 3.1343784928321838e-01</leafValues></_>
        <_>
          <internalNodes>
            0 -1 1104 5.6768530048429966e-03</internalNodes>
          <leafValues>
            -6.3221320509910583e-02 5.6986254453659058e-01</leafValues></_>
        <_>
          <internalNodes>
            0 -1 364 -5.8125061914324760e-03</internalNodes>
          <leafValues>
            2.8559991717338562e-01 -1.2196197360754013e-01</leafValues></_>
        <_>
          <internalNodes>
            0 -1 659 -7.7084166696295142e-04</internalNodes>
          <leafValues>
            1.7746210098266602e-01 -2.0657797157764435e-01</leafValues></_>
        <_>
          <internalNodes>
            0 -1 28 2.0250912755727768e-02</internalNodes>
          <leafValues>
            5.1933206617832184e-02 -6.8714207410812378e-01</leafValues></_>
        <_>
          <internalNodes>
            0 -1 517 -2.6612926274538040e-02</internalNodes>
          <leafValues>
            -6.3519191741943359e-01 4.6231746673583984e-02</leafValues></_>
        <_>
          <internalNodes>
            0 -1 1020 -2.6019127108156681e-03</internalNodes>
          <leafValues>
            5.4517805576324463e-01 -7.5134761631488800e-02</leafValues></_>
        <_>
          <internalNodes>
            0 -1 29 -1.4351941645145416e-02</internalNodes>
          <leafValues>
            -5.9391885995864868e-01 7.4544303119182587e-02</leafValues></_>
        <_>
          <internalNodes>
            0 -1 624 -1.6766476910561323e-03</internalNodes>
          <leafValues>
            3.1066909432411194e-01 -1.1165355145931244e-01</leafValues></_>
        <_>
          <internalNodes>
            0 -1 618 -1.6007985686883330e-03</internalNodes>
          <leafValues>
            2.0591960847377777e-01 -1.7253500223159790e-01</leafValues></_>
        <_>
          <internalNodes>
            0 -1 561 -3.3426901791244745e-03</internalNodes>
          <leafValues>
            3.4010478854179382e-01 -1.0478708148002625e-01</leafValues></_>
        <_>
          <internalNodes>
            0 -1 215 3.9701852947473526e-02</internalNodes>
          <leafValues>
            -1.5330907702445984e-01 2.1990682184696198e-01</leafValues></_>
        <_>
          <internalNodes>
            0 -1 508 -1.3264912366867065e-01</internalNodes>
          <leafValues>
            -7.9864066839218140e-01 4.4193513691425323e-02</leafValues></_>
        <_>
          <internalNodes>
            0 -1 1073 1.5362119302153587e-03</internalNodes>
          <leafValues>
            8.9501455426216125e-02 -3.7973213195800781e-01</leafValues></_>
        <_>
          <internalNodes>
            0 -1 355 -4.0306262671947479e-02</internalNodes>
          <leafValues>
            -5.9360408782958984e-01 5.8850310742855072e-02</leafValues></_>
        <_>
          <internalNodes>
            0 -1 886 2.2301740944385529e-02</internalNodes>
          <leafValues>
            4.5818522572517395e-02 -6.6662263870239258e-01</leafValues></_>
        <_>
          <internalNodes>
            0 -1 44 -6.0996781103312969e-03</internalNodes>
          <leafValues>
            3.0156999826431274e-01 -1.2536330521106720e-01</leafValues></_>
        <_>
          <internalNodes>
            0 -1 102 -1.9202811643481255e-02</internalNodes>
          <leafValues>
            -4.4271087646484375e-01 8.9711494743824005e-02</leafValues></_>
        <_>
          <internalNodes>
            0 -1 785 1.2212893925607204e-03</internalNodes>
          <leafValues>
            -9.5307864248752594e-02 4.0562754869461060e-01</leafValues></_></weakClassifiers></_>
    <!-- stage 10 -->
    <_>
      <maxWeakCount>46</maxWeakCount>
      <stageThreshold>-7.8854340314865112e-01</stageThreshold>
      <weakClassifiers>
        <_>
          <internalNodes>
            0 -1 369 -5.6613579392433167e-02</internalNodes>
          <leafValues>
            4.3421053886413574e-01 -4.0935672819614410e-02</leafValues></_>
        <_>
          <internalNodes>
            0 -1 348 -1.6419034451246262e-02</internalNodes>
          <leafValues>
            3.0587708950042725e-01 -1.1501432210206985e-01</leafValues></_>
        <_>
          <internalNodes>
            0 -1 711 6.3423747196793556e-03</internalNodes>
          <leafValues>
            -7.4308522045612335e-02 4.9360159039497375e-01</leafValues></_>
        <_>
          <internalNodes>
            0 -1 170 -1.6430449485778809e-01</internalNodes>
          <leafValues>
            1.6821369528770447e-01 -2.2129923105239868e-01</leafValues></_>
        <_>
          <internalNodes>
            0 -1 926 -4.4293537735939026e-02</internalNodes>
          <leafValues>
            -5.4136943817138672e-01 8.6154110729694366e-02</leafValues></_>
        <_>
          <internalNodes>
            0 -1 554 1.3176329433917999e-02</internalNodes>
          <leafValues>
            5.1937546581029892e-02 -7.1617650985717773e-01</leafValues></_>
        <_>
          <internalNodes>
            0 -1 117 -3.8425335288047791e-01</internalNodes>
          <leafValues>
            -5.7274967432022095e-01 5.3382456302642822e-02</leafValues></_>
        <_>
          <internalNodes>
            0 -1 587 2.9536925721913576e-03</internalNodes>
          <leafValues>
            -8.3797290921211243e-02 3.8732516765594482e-01</leafValues></_>
        <_>
          <internalNodes>
            0 -1 172 -4.3133277446031570e-02</internalNodes>
          <leafValues>
            -7.6231825351715088e-01 1.9362369552254677e-02</leafValues></_>
        <_>
          <internalNodes>
            0 -1 428 -4.4430613517761230e-02</internalNodes>
          <leafValues>
            -6.2286496162414551e-01 4.3371234089136124e-02</leafValues></_>
        <_>
          <internalNodes>
            0 -1 263 -2.5842055678367615e-02</internalNodes>
          <leafValues>
            3.9304655790328979e-01 -9.0747907757759094e-02</leafValues></_>
        <_>
          <internalNodes>
            0 -1 898 5.7011954486370087e-03</internalNodes>
          <leafValues>
            9.7785815596580505e-02 -3.9244729280471802e-01</leafValues></_>
        <_>
          <internalNodes>
            0 -1 569 -2.6926938444375992e-02</internalNodes>
          <leafValues>
            3.7388733029365540e-01 -9.0543895959854126e-02</leafValues></_>
        <_>
          <internalNodes>
            0 -1 338 -1.8808972090482712e-02</internalNodes>
          <leafValues>
            2.8684657812118530e-01 -1.2277857214212418e-01</leafValues></_>
        <_>
          <internalNodes>
            0 -1 703 -6.5425052307546139e-03</internalNodes>
          <leafValues>
            4.0417453646659851e-01 -8.9009508490562439e-02</leafValues></_>
        <_>
          <internalNodes>
            0 -1 766 2.3158593103289604e-03</internalNodes>
          <leafValues>
            -1.0237073153257370e-01 3.3785614371299744e-01</leafValues></_>
        <_>
          <internalNodes>
            0 -1 242 -2.6002813130617142e-02</internalNodes>
          <leafValues>
            3.6690166592597961e-01 -8.3488456904888153e-02</leafValues></_>
        <_>
          <internalNodes>
            0 -1 984 -8.7293861433863640e-03</internalNodes>
          <leafValues>
            -6.0379987955093384e-01 6.3759692013263702e-02</leafValues></_>
        <_>
          <internalNodes>
            0 -1 667 -1.7723671626299620e-03</internalNodes>
          <leafValues>
            2.1523648500442505e-01 -1.6856434941291809e-01</leafValues></_>
        <_>
          <internalNodes>
            0 -1 660 -5.8810664340853691e-03</internalNodes>
          <leafValues>
            -4.6864810585975647e-01 6.8823173642158508e-02</leafValues></_>
        <_>
          <internalNodes>
            0 -1 889 -2.0906468853354454e-03</internalNodes>
          <leafValues>
            2.5429314374923706e-01 -1.3605897128582001e-01</leafValues></_>
        <_>
          <internalNodes>
            0 -1 921 -2.8487641829997301e-03</internalNodes>
          <leafValues>
            4.9644240736961365e-01 -6.6877700388431549e-02</leafValues></_>
        <_>
          <internalNodes>
            0 -1 1107 6.0283229686319828e-04</internalNodes>
          <leafValues>
            1.2272262573242188e-01 -2.7308028936386108e-01</leafValues></_>
        <_>
          <internalNodes>
            0 -1 472 3.0244784429669380e-03</internalNodes>
          <leafValues>
            -8.1616692245006561e-02 4.0742242336273193e-01</leafValues></_>
        <_>
          <internalNodes>
            0 -1 820 3.1888183206319809e-02</internalNodes>
          <leafValues>
            8.6611278355121613e-02 -3.8862061500549316e-01</leafValues></_>
        <_>
          <internalNodes>
            0 -1 694 1.5450859209522605e-03</internalNodes>
          <leafValues>
            -1.8836466968059540e-01 1.7772649228572845e-01</leafValues></_>
        <_>
          <internalNodes>
            0 -1 1068 -1.8662940710783005e-02</internalNodes>
          <leafValues>
            4.4017785787582397e-01 -8.2227125763893127e-02</leafValues></_>
        <_>
          <internalNodes>
            0 -1 333 -1.5554266981780529e-02</internalNodes>
          <leafValues>
            2.3597683012485504e-01 -1.3893906772136688e-01</leafValues></_>
        <_>
          <internalNodes>
            0 -1 379 2.9330417513847351e-02</internalNodes>
          <leafValues>
            1.7844028770923615e-01 -2.0581272244453430e-01</leafValues></_>
        <_>
          <internalNodes>
            0 -1 700 3.9078462868928909e-02</internalNodes>
          <leafValues>
            5.1004972308874130e-02 -7.1912223100662231e-01</leafValues></_>
        <_>
          <internalNodes>
            0 -1 1036 -7.0661851204931736e-03</internalNodes>
          <leafValues>
            -4.8972225189208984e-01 6.7643299698829651e-02</leafValues></_>
        <_>
          <internalNodes>
            0 -1 690 -5.4564923048019409e-03</internalNodes>
          <leafValues>
            -5.4942005872726440e-01 5.7503219693899155e-02</leafValues></_>
        <_>
          <internalNodes>
            0 -1 716 -7.9283973900601268e-04</internalNodes>
          <leafValues>
            1.8464788794517517e-01 -1.9152534008026123e-01</leafValues></_>
        <_>
          <internalNodes>
            0 -1 1128 4.9315472133457661e-03</internalNodes>
          <leafValues>
            -9.7204439342021942e-02 3.5267421603202820e-01</leafValues></_>
        <_>
          <internalNodes>
            0 -1 971 2.3729647509753704e-03</internalNodes>
          <leafValues>
            -5.8259081095457077e-02 5.2939146757125854e-01</leafValues></_>
        <_>
          <internalNodes>
            0 -1 759 -1.7759741240297444e-05</internalNodes>
          <leafValues>
            1.8139863014221191e-01 -1.7627047002315521e-01</leafValues></_>
        <_>
          <internalNodes>
            0 -1 525 1.1994764208793640e-02</internalNodes>
          <leafValues>
            -5.9886280447244644e-02 5.4610967636108398e-01</leafValues></_>
        <_>
          <internalNodes>
            0 -1 385 -2.0660981535911560e-02</internalNodes>
          <leafValues>
            -6.1632806062698364e-01 5.9794634580612183e-02</leafValues></_>
        <_>
          <internalNodes>
            0 -1 388 1.8119160085916519e-02</internalNodes>
          <leafValues>
            4.0922414511442184e-02 -7.3667901754379272e-01</leafValues></_>
        <_>
          <internalNodes>
            0 -1 723 -2.5576727930456400e-03</internalNodes>
          <leafValues>
            1.9426411390304565e-01 -1.6745877265930176e-01</leafValues></_>
        <_>
          <internalNodes>
            0 -1 782 -2.2689085453748703e-03</internalNodes>
          <leafValues>
            2.0829816162586212e-01 -1.6358126699924469e-01</leafValues></_>
        <_>
          <internalNodes>
            0 -1 23 -4.5796646736562252e-03</internalNodes>
          <leafValues>
            3.6879166960716248e-01 -9.1176025569438934e-02</leafValues></_>
        <_>
          <internalNodes>
            0 -1 592 -4.5803454704582691e-03</internalNodes>
          <leafValues>
            8.9700818061828613e-02 -3.8544413447380066e-01</leafValues></_>
        <_>
          <internalNodes>
            0 -1 498 -2.1762343123555183e-02</internalNodes>
          <leafValues>
            3.5681244730949402e-01 -9.9460810422897339e-02</leafValues></_>
        <_>
          <internalNodes>
            0 -1 875 3.7199333310127258e-03</internalNodes>
          <leafValues>
            -6.8158224225044250e-02 4.8194846510887146e-01</leafValues></_>
        <_>
          <internalNodes>
            0 -1 328 1.5017748810350895e-02</internalNodes>
          <leafValues>
            -7.4965454638004303e-02 4.2415878176689148e-01</leafValues></_></weakClassifiers></_>
    <!-- stage 11 -->
    <_>
      <maxWeakCount>50</maxWeakCount>
      <stageThreshold>-8.6050665378570557e-01</stageThreshold>
      <weakClassifiers>
        <_>
          <internalNodes>
            0 -1 397 3.7905249744653702e-02</internalNodes>
          <leafValues>
            1.1166252940893173e-01 5.2821999788284302e-01</leafValues></_>
        <_>
          <internalNodes>
            0 -1 10 1.4243450760841370e-01</internalNodes>
          <leafValues>
            1.0269691050052643e-01 -4.7255459427833557e-01</leafValues></_>
        <_>
          <internalNodes>
            0 -1 139 -7.2841094806790352e-03</internalNodes>
          <leafValues>
            -4.1939011216163635e-01 8.7558940052986145e-02</leafValues></_>
        <_>
          <internalNodes>
            0 -1 546 -2.2946896031498909e-02</internalNodes>
          <leafValues>
            -6.1452090740203857e-01 6.7464336752891541e-02</leafValues></_>
        <_>
          <internalNodes>
            0 -1 50 4.5062885619699955e-03</internalNodes>
          <leafValues>
            -7.9956643283367157e-02 5.1589655876159668e-01</leafValues></_>
        <_>
          <internalNodes>
            0 -1 51 -1.9144387915730476e-03</internalNodes>
          <leafValues>
            2.2633485496044159e-01 -1.8179062008857727e-01</leafValues></_>
        <_>
          <internalNodes>
            0 -1 831 3.5877362824976444e-03</internalNodes>
          <leafValues>
            -4.6647567301988602e-02 4.7123834490776062e-01</leafValues></_>
        <_>
          <internalNodes>
            0 -1 859 -2.1559970453381538e-02</internalNodes>
          <leafValues>
            5.4953432083129883e-01 -9.0390078723430634e-02</leafValues></_>
        <_>
          <internalNodes>
            0 -1 862 -6.7316479980945587e-03</internalNodes>
          <leafValues>
            2.2278283536434174e-01 -1.6789190471172333e-01</leafValues></_>
        <_>
          <internalNodes>
            0 -1 1063 1.2359896674752235e-02</internalNodes>
          <leafValues>
            -8.4662087261676788e-02 3.6132344603538513e-01</leafValues></_>
        <_>
          <internalNodes>
            0 -1 159 -5.6110665900632739e-04</internalNodes>
          <leafValues>
            -2.9424831271171570e-01 1.0470264405012131e-01</leafValues></_>
        <_>
          <internalNodes>
            0 -1 603 -7.7387515921145678e-04</internalNodes>
          <leafValues>
            1.8045754730701447e-01 -1.8170282244682312e-01</leafValues></_>
        <_>
          <internalNodes>
            0 -1 1090 -3.1548992265015841e-03</internalNodes>
          <leafValues>
            5.3049033880233765e-01 -6.6039770841598511e-02</leafValues></_>
        <_>
          <internalNodes>
            0 -1 265 -4.6859067678451538e-01</internalNodes>
          <leafValues>
            -9.1064518690109253e-01 4.5780051499605179e-02</leafValues></_>
        <_>
          <internalNodes>
            0 -1 603 -1.3551317155361176e-02</internalNodes>
          <leafValues>
            -7.7622115612030029e-01 3.9056558161973953e-02</leafValues></_>
        <_>
          <internalNodes>
            0 -1 422 -1.0558374226093292e-02</internalNodes>
          <leafValues>
            2.9825904965400696e-01 -1.1711395531892776e-01</leafValues></_>
        <_>
          <internalNodes>
            0 -1 871 -6.8353898823261261e-02</internalNodes>
          <leafValues>
            1.7705875635147095e-01 -2.1833947300910950e-01</leafValues></_>
        <_>
          <internalNodes>
            0 -1 176 -4.5372728258371353e-02</internalNodes>
          <leafValues>
            -2.4081908166408539e-01 1.3689588010311127e-01</leafValues></_>
        <_>
          <internalNodes>
            0 -1 20 2.5029060244560242e-01</internalNodes>
          <leafValues>
            6.3554011285305023e-02 -6.4662981033325195e-01</leafValues></_>
        <_>
          <internalNodes>
            0 -1 1053 -2.0594273228198290e-03</internalNodes>
          <leafValues>
            2.2720624506473541e-01 -1.5687867999076843e-01</leafValues></_>
        <_>
          <internalNodes>
            0 -1 794 -5.4003624245524406e-03</internalNodes>
          <leafValues>
            2.2642861306667328e-01 -1.3873217999935150e-01</leafValues></_>
        <_>
          <internalNodes>
            0 -1 670 -9.3205040320754051e-03</internalNodes>
          <leafValues>
            -5.3317695856094360e-01 6.0828015208244324e-02</leafValues></_>
        <_>
          <internalNodes>
            0 -1 143 -5.6644529104232788e-03</internalNodes>
          <leafValues>
            4.5717364549636841e-01 -7.4325524270534515e-02</leafValues></_>
        <_>
          <internalNodes>
            0 -1 373 -1.9303884357213974e-02</internalNodes>
          <leafValues>
            -7.4541836977005005e-01 5.1093313843011856e-02</leafValues></_>
        <_>
          <internalNodes>
            0 -1 344 3.0144810676574707e-02</internalNodes>
          <leafValues>
            -8.6820647120475769e-02 4.2701727151870728e-01</leafValues></_>
        <_>
          <internalNodes>
            0 -1 149 -3.9073251187801361e-02</internalNodes>
          <leafValues>
            3.2256710529327393e-01 -1.0452353954315186e-01</leafValues></_>
        <_>
          <internalNodes>
            0 -1 719 1.1505467817187309e-02</internalNodes>
          <leafValues>
            6.5094240009784698e-02 -5.3636807203292847e-01</leafValues></_>
        <_>
          <internalNodes>
            0 -1 666 -2.5299871340394020e-03</internalNodes>
          <leafValues>
            4.8336777091026306e-01 -7.5930461287498474e-02</leafValues></_>
        <_>
          <internalNodes>
            0 -1 1096 -4.0243375115096569e-03</internalNodes>
          <leafValues>
            -4.7475159168243408e-01 7.7386513352394104e-02</leafValues></_>
        <_>
          <internalNodes>
            0 -1 507 9.0569019317626953e-02</internalNodes>
          <leafValues>
            4.0068872272968292e-02 -8.1728065013885498e-01</leafValues></_>
        <_>
          <internalNodes>
            0 -1 1061 -2.7803525328636169e-02</internalNodes>
          <leafValues>
            -9.2497241497039795e-01 2.7599170804023743e-02</leafValues></_>
        <_>
          <internalNodes>
            0 -1 934 4.0999525226652622e-03</internalNodes>
          <leafValues>
            -7.1005195379257202e-02 4.9182957410812378e-01</leafValues></_>
        <_>
          <internalNodes>
            0 -1 975 -2.4381717666983604e-03</internalNodes>
          <leafValues>
            5.6442141532897949e-01 -5.3852159529924393e-02</leafValues></_>
        <_>
          <internalNodes>
            0 -1 430 -2.8933249413967133e-02</internalNodes>
          <leafValues>
            -6.4236170053482056e-01 5.4365847259759903e-02</leafValues></_>
        <_>
          <internalNodes>
            0 -1 354 -3.5836601164191961e-03</internalNodes>
          <leafValues>
            3.9159825444221497e-01 -9.7989015281200409e-02</leafValues></_>
        <_>
          <internalNodes>
            0 -1 857 -4.8173279501497746e-03</internalNodes>
          <leafValues>
            4.5821431279182434e-01 -6.7488521337509155e-02</leafValues></_>
        <_>
          <internalNodes>
            0 -1 284 2.1912347525358200e-02</internalNodes>
          <leafValues>
            8.0224245786666870e-02 -4.8470842838287354e-01</leafValues></_>
        <_>
          <internalNodes>
            0 -1 155 -3.1933829188346863e-02</internalNodes>
          <leafValues>
            3.1492206454277039e-01 -1.0929442197084427e-01</leafValues></_>
        <_>
          <internalNodes>
            0 -1 621 -3.3163353800773621e-03</internalNodes>
          <leafValues>
            2.8238612413406372e-01 -1.0950890183448792e-01</leafValues></_>
        <_>
          <internalNodes>
            0 -1 534 -5.6410904973745346e-02</internalNodes>
          <leafValues>
            3.8930717110633850e-01 -8.3823896944522858e-02</leafValues></_>
        <_>
          <internalNodes>
            0 -1 1047 3.5687563940882683e-03</internalNodes>
          <leafValues>
            -4.8702664673328400e-02 6.4656054973602295e-01</leafValues></_>
        <_>
          <internalNodes>
            0 -1 1045 -3.2566729933023453e-03</internalNodes>
          <leafValues>
            3.8234865665435791e-01 -7.9867221415042877e-02</leafValues></_>
        <_>
          <internalNodes>
            0 -1 57 -3.6885933950543404e-03</internalNodes>
          <leafValues>
            3.1098067760467529e-01 -1.0648792237043381e-01</leafValues></_>
        <_>
          <internalNodes>
            0 -1 900 -2.7583863586187363e-02</internalNodes>
          <leafValues>
            4.2310619354248047e-01 -8.0996409058570862e-02</leafValues></_>
        <_>
          <internalNodes>
            0 -1 290 5.8433846570551395e-03</internalNodes>
          <leafValues>
            -1.0201922804117203e-01 3.0498921871185303e-01</leafValues></_>
        <_>
          <internalNodes>
            0 -1 501 1.0653103888034821e-01</internalNodes>
          <leafValues>
            -7.8208543360233307e-02 4.0726208686828613e-01</leafValues></_>
        <_>
          <internalNodes>
            0 -1 375 -2.2094395011663437e-02</internalNodes>
          <leafValues>
            -6.1222308874130249e-01 5.6662302464246750e-02</leafValues></_>
        <_>
          <internalNodes>
            0 -1 57 8.9130904525518417e-03</internalNodes>
          <leafValues>
            -6.5915569663047791e-02 5.7319444417953491e-01</leafValues></_>
        <_>
          <internalNodes>
            0 -1 423 -3.6090545356273651e-02</internalNodes>
          <leafValues>
            5.2116596698760986e-01 -5.8259483426809311e-02</leafValues></_>
        <_>
          <internalNodes>
            0 -1 720 -2.6262174360454082e-03</internalNodes>
          <leafValues>
            2.1522046625614166e-01 -1.5477694571018219e-01</leafValues></_></weakClassifiers></_>
    <!-- stage 12 -->
    <_>
      <maxWeakCount>50</maxWeakCount>
      <stageThreshold>-7.5666064023971558e-01</stageThreshold>
      <weakClassifiers>
        <_>
          <internalNodes>
            0 -1 314 -2.1728713065385818e-02</internalNodes>
          <leafValues>
            3.5354837775230408e-01 -1.3714285194873810e-01</leafValues></_>
        <_>
          <internalNodes>
            0 -1 800 -4.3239146471023560e-03</internalNodes>
          <leafValues>
            2.7157616615295410e-01 -1.2946720421314240e-01</leafValues></_>
        <_>
          <internalNodes>
            0 -1 827 3.4215650521218777e-03</internalNodes>
          <leafValues>
            -8.4913074970245361e-02 4.0318897366523743e-01</leafValues></_>
        <_>
          <internalNodes>
            0 -1 12 -7.9622402787208557e-02</internalNodes>
          <leafValues>
            4.6676266193389893e-01 -9.7867459058761597e-02</leafValues></_>
        <_>
          <internalNodes>
            0 -1 845 -1.5399744734168053e-03</internalNodes>
          <leafValues>
            2.0319035649299622e-01 -1.9313384592533112e-01</leafValues></_>
        <_>
          <internalNodes>
            0 -1 38 4.1506610810756683e-02</internalNodes>
          <leafValues>
            -1.1873647570610046e-01 2.8551763296127319e-01</leafValues></_>
        <_>
          <internalNodes>
            0 -1 218 -2.0492294430732727e-01</internalNodes>
          <leafValues>
            2.4434213340282440e-01 -1.7477326095104218e-01</leafValues></_>
        <_>
          <internalNodes>
            0 -1 324 -7.9731503501534462e-03</internalNodes>
          <leafValues>
            2.2103883326053619e-01 -1.6397528350353241e-01</leafValues></_>
        <_>
          <internalNodes>
            0 -1 240 -3.9249651134014130e-02</internalNodes>
          <leafValues>
            4.4071596860885620e-01 -8.3315119147300720e-02</leafValues></_>
        <_>
          <internalNodes>
            0 -1 789 1.4667076058685780e-02</internalNodes>
          <leafValues>
            8.7020091712474823e-02 -4.4440048933029175e-01</leafValues></_>
        <_>
          <internalNodes>
            0 -1 830 -6.2718195840716362e-03</internalNodes>
          <leafValues>
            4.5164567232131958e-01 -7.9113535583019257e-02</leafValues></_>
        <_>
          <internalNodes>
            0 -1 740 -3.6261682398617268e-03</internalNodes>
          <leafValues>
            2.2077187895774841e-01 -1.4276188611984253e-01</leafValues></_>
        <_>
          <internalNodes>
            0 -1 68 -4.4545102864503860e-02</internalNodes>
          <leafValues>
            -6.9225078821182251e-01 4.3727640062570572e-02</leafValues></_>
        <_>
          <internalNodes>
            0 -1 162 1.4930858924344648e-05</internalNodes>
          <leafValues>
            -1.6152216494083405e-01 1.8951813876628876e-01</leafValues></_>
        <_>
          <internalNodes>
            0 -1 392 8.6914300918579102e-03</internalNodes>
          <leafValues>
            5.1758121699094772e-02 -5.8233243227005005e-01</leafValues></_>
        <_>
          <internalNodes>
            0 -1 260 -3.8023298978805542e-01</internalNodes>
          <leafValues>
            -5.8287435770034790e-01 4.9196776002645493e-02</leafValues></_>
        <_>
          <internalNodes>
            0 -1 876 1.3620458543300629e-02</internalNodes>
          <leafValues>
            4.6575479209423065e-02 -6.3263833522796631e-01</leafValues></_>
        <_>
          <internalNodes>
            0 -1 885 -1.4260783791542053e-01</internalNodes>
          <leafValues>
            3.6276835203170776e-01 -9.0650901198387146e-02</leafValues></_>
        <_>
          <internalNodes>
            0 -1 1064 2.2244159132242203e-02</internalNodes>
          <leafValues>
            -9.6740022301673889e-02 3.7617346644401550e-01</leafValues></_>
        <_>
          <internalNodes>
            0 -1 677 3.9686616510152817e-03</internalNodes>
          <leafValues>
            -5.4246742278337479e-02 5.3487932682037354e-01</leafValues></_>
        <_>
          <internalNodes>
            0 -1 676 1.2375261634588242e-01</internalNodes>
          <leafValues>
            3.7709947675466537e-02 -9.0122562646865845e-01</leafValues></_>
        <_>
          <internalNodes>
            0 -1 90 -6.1805063160136342e-04</internalNodes>
          <leafValues>
            -2.9963871836662292e-01 9.6455134451389313e-02</leafValues></_>
        <_>
          <internalNodes>
            0 -1 727 6.6997176036238670e-03</internalNodes>
          <leafValues>
            7.1376837790012360e-02 -4.2959380149841309e-01</leafValues></_>
        <_>
          <internalNodes>
            0 -1 480 -6.7288838326931000e-03</internalNodes>
          <leafValues>
            2.8798303008079529e-01 -1.0796683281660080e-01</leafValues></_>
        <_>
          <internalNodes>
            0 -1 394 -3.4393109381198883e-02</internalNodes>
          <leafValues>
            -3.7331962585449219e-01 8.3226285874843597e-02</leafValues></_>
        <_>
          <internalNodes>
            0 -1 160 -1.7724151257425547e-03</internalNodes>
          <leafValues>
            -3.4814402461051941e-01 8.6701646447181702e-02</leafValues></_>
        <_>
          <internalNodes>
            0 -1 807 6.3412701711058617e-03</internalNodes>
          <leafValues>
            -1.1126979440450668e-01 2.9013895988464355e-01</leafValues></_>
        <_>
          <internalNodes>
            0 -1 332 -4.5949757099151611e-02</internalNodes>
          <leafValues>
            4.6172669529914856e-01 -6.7428804934024811e-02</leafValues></_>
        <_>
          <internalNodes>
            0 -1 1110 1.4291631057858467e-02</internalNodes>
          <leafValues>
            7.4898287653923035e-02 -4.5573407411575317e-01</leafValues></_>
        <_>
          <internalNodes>
            0 -1 183 6.1209080740809441e-03</internalNodes>
          <leafValues>
            -9.0972818434238434e-02 3.4549900889396667e-01</leafValues></_>
        <_>
          <internalNodes>
            0 -1 256 -1.2033047154545784e-02</internalNodes>
          <leafValues>
            3.0188864469528198e-01 -9.6178457140922546e-02</leafValues></_>
        <_>
          <internalNodes>
            0 -1 58 -3.3649159595370293e-03</internalNodes>
          <leafValues>
            1.8722033500671387e-01 -1.8997932970523834e-01</leafValues></_>
        <_>
          <internalNodes>
            0 -1 505 -1.7612047959119081e-03</internalNodes>
          <leafValues>
            3.7560677528381348e-01 -8.6476102471351624e-02</leafValues></_>
        <_>
          <internalNodes>
            0 -1 145 -2.1970923990011215e-02</internalNodes>
          <leafValues>
            3.4774589538574219e-01 -9.0693801641464233e-02</leafValues></_>
        <_>
          <internalNodes>
            0 -1 410 -1.3944592326879501e-02</internalNodes>
          <leafValues>
            3.7257084250450134e-01 -8.2874126732349396e-02</leafValues></_>
        <_>
          <internalNodes>
            0 -1 1031 -4.9687367863953114e-03</internalNodes>
          <leafValues>
            -5.1111418008804321e-01 6.2250930815935135e-02</leafValues></_>
        <_>
          <internalNodes>
            0 -1 947 5.3636403754353523e-03</internalNodes>
          <leafValues>
            -1.2364685535430908e-01 2.5267824530601501e-01</leafValues></_>
        <_>
          <internalNodes>
            0 -1 1132 -1.1426493525505066e-02</internalNodes>
          <leafValues>
            -5.8257764577865601e-01 5.5861432105302811e-02</leafValues></_>
        <_>
          <internalNodes>
            0 -1 239 1.5949521213769913e-02</internalNodes>
          <leafValues>
            3.8649354130029678e-02 -7.2830623388290405e-01</leafValues></_>
        <_>
          <internalNodes>
            0 -1 897 -3.5364070208743215e-04</internalNodes>
          <leafValues>
            1.5175433456897736e-01 -1.8794797360897064e-01</leafValues></_>
        <_>
          <internalNodes>
            0 -1 513 1.1541152372956276e-02</internalNodes>
          <leafValues>
            -4.8929423093795776e-02 5.4451102018356323e-01</leafValues></_>
        <_>
          <internalNodes>
            0 -1 837 8.5277957841753960e-03</internalNodes>
          <leafValues>
            6.9032609462738037e-02 -4.5168083906173706e-01</leafValues></_>
        <_>
          <internalNodes>
            0 -1 378 -1.2515041232109070e-01</internalNodes>
          <leafValues>
            -7.6171606779098511e-01 3.6703400313854218e-02</leafValues></_>
        <_>
          <internalNodes>
            0 -1 93 -5.0506335683166981e-03</internalNodes>
          <leafValues>
            6.3546431064605713e-01 -5.4908558726310730e-02</leafValues></_>
        <_>
          <internalNodes>
            0 -1 221 6.3326749950647354e-03</internalNodes>
          <leafValues>
            -2.7222750708460808e-02 7.7634096145629883e-01</leafValues></_>
        <_>
          <internalNodes>
            0 -1 746 4.5226872898638248e-03</internalNodes>
          <leafValues>
            -5.5522512644529343e-02 4.6423175930976868e-01</leafValues></_>
        <_>
          <internalNodes>
            0 -1 605 -1.1195673607289791e-02</internalNodes>
          <leafValues>
            -5.0909644365310669e-01 6.9799184799194336e-02</leafValues></_>
        <_>
          <internalNodes>
            0 -1 573 -1.8481547012925148e-02</internalNodes>
          <leafValues>
            -3.7663853168487549e-01 7.1300953626632690e-02</leafValues></_>
        <_>
          <internalNodes>
            0 -1 1050 2.2489855065941811e-02</internalNodes>
          <leafValues>
            -6.6417299211025238e-02 4.5517414808273315e-01</leafValues></_>
        <_>
          <internalNodes>
            0 -1 202 4.8821623204275966e-04</internalNodes>
          <leafValues>
            1.3851347565650940e-01 -2.1364837884902954e-01</leafValues></_></weakClassifiers></_>
    <!-- stage 13 -->
    <_>
      <maxWeakCount>54</maxWeakCount>
      <stageThreshold>-7.9971176385879517e-01</stageThreshold>
      <weakClassifiers>
        <_>
          <internalNodes>
            0 -1 288 -2.3276910185813904e-02</internalNodes>
          <leafValues>
            4.9431818723678589e-01 1.2709030508995056e-01</leafValues></_>
        <_>
          <internalNodes>
            0 -1 504 -1.6196170449256897e-01</internalNodes>
          <leafValues>
            1.6544963419437408e-01 -1.8906596302986145e-01</leafValues></_>
        <_>
          <internalNodes>
            0 -1 376 7.7482583001255989e-03</internalNodes>
          <leafValues>
            -7.6544515788555145e-02 4.0049725770950317e-01</leafValues></_>
        <_>
          <internalNodes>
            0 -1 515 -6.0083633288741112e-03</internalNodes>
          <leafValues>
            3.9524221420288086e-01 -1.0363190621137619e-01</leafValues></_>
        <_>
          <internalNodes>
            0 -1 1084 3.4446041099727154e-03</internalNodes>
          <leafValues>
            -9.4097785651683807e-02 3.7917163968086243e-01</leafValues></_>
        <_>
          <internalNodes>
            0 -1 1086 -1.7457145731896162e-03</internalNodes>
          <leafValues>
            2.6276353001594543e-01 -1.1909532546997070e-01</leafValues></_>
        <_>
          <internalNodes>
            0 -1 549 3.9145583286881447e-03</internalNodes>
          <leafValues>
            -7.5231879949569702e-02 4.3179509043693542e-01</leafValues></_>
        <_>
          <internalNodes>
            0 -1 678 -3.2722055912017822e-03</internalNodes>
          <leafValues>
            2.1628673374652863e-01 -1.3394233584403992e-01</leafValues></_>
        <_>
          <internalNodes>
            0 -1 614 -1.8953881226480007e-03</internalNodes>
          <leafValues>
            1.9885103404521942e-01 -1.6783179342746735e-01</leafValues></_>
        <_>
          <internalNodes>
            0 -1 138 -2.6281870901584625e-02</internalNodes>
          <leafValues>
            3.6344820261001587e-01 -8.8539846241474152e-02</leafValues></_>
        <_>
          <internalNodes>
            0 -1 583 -2.1208602935075760e-02</internalNodes>
          <leafValues>
            -7.3726481199264526e-01 4.9062974750995636e-02</leafValues></_>
        <_>
          <internalNodes>
            0 -1 235 -1.2095800042152405e-01</internalNodes>
          <leafValues>
            -5.9453201293945312e-01 5.2683245390653610e-02</leafValues></_>
        <_>
          <internalNodes>
            0 -1 1080 -3.3441437408328056e-03</internalNodes>
          <leafValues>
            6.9575697183609009e-01 -4.5365940779447556e-02</leafValues></_>
        <_>
          <internalNodes>
            0 -1 938 4.1292025707662106e-03</internalNodes>
          <leafValues>
            -9.4225198030471802e-02 3.2155963778495789e-01</leafValues></_>
        <_>
          <internalNodes>
            0 -1 667 -1.5673078596591949e-03</internalNodes>
          <leafValues>
            1.9339403510093689e-01 -1.6785056889057159e-01</leafValues></_>
        <_>
          <internalNodes>
            0 -1 738 -6.1870948411524296e-04</internalNodes>
          <leafValues>
            2.6325184106826782e-01 -1.2753240764141083e-01</leafValues></_>
        <_>
          <internalNodes>
            0 -1 792 -1.0645213769748807e-03</internalNodes>
          <leafValues>
            2.5594127178192139e-01 -1.1518891155719757e-01</leafValues></_>
        <_>
          <internalNodes>
            0 -1 702 -4.3729491531848907e-02</internalNodes>
          <leafValues>
            -7.1299171447753906e-01 4.9303855746984482e-02</leafValues></_>
        <_>
          <internalNodes>
            0 -1 278 -1.5351846814155579e-02</internalNodes>
          <leafValues>
            -6.5629029273986816e-01 4.2396593838930130e-02</leafValues></_>
        <_>
          <internalNodes>
            0 -1 848 -1.0869351681321859e-03</internalNodes>
          <leafValues>
            2.2017447650432587e-01 -1.3976426422595978e-01</leafValues></_>
        <_>
          <internalNodes>
            0 -1 639 1.7777483910322189e-02</internalNodes>
          <leafValues>
            7.8290872275829315e-02 -4.4471922516822815e-01</leafValues></_>
        <_>
          <internalNodes>
            0 -1 509 -1.5302670188248158e-02</internalNodes>
          <leafValues>
            -6.1506402492523193e-01 4.3657682836055756e-02</leafValues></_>
        <_>
          <internalNodes>
            0 -1 974 -3.4134157467633486e-03</internalNodes>
          <leafValues>
            3.2635200023651123e-01 -8.9710623025894165e-02</leafValues></_>
        <_>
          <internalNodes>
            0 -1 935 3.0931967776268721e-03</internalNodes>
          <leafValues>
            -9.9390283226966858e-02 3.0227464437484741e-01</leafValues></_>
        <_>
          <internalNodes>
            0 -1 1146 -8.4049254655838013e-04</internalNodes>
          <leafValues>
            -3.3463653922080994e-01 1.0291766375303268e-01</leafValues></_>
        <_>
          <internalNodes>
            0 -1 681 1.1378461495041847e-02</internalNodes>
          <leafValues>
            7.1464776992797852e-02 -4.1256010532379150e-01</leafValues></_>
        <_>
          <internalNodes>
            0 -1 325 -1.4793454902246594e-03</internalNodes>
          <leafValues>
            1.8795491755008698e-01 -1.6764485836029053e-01</leafValues></_>
        <_>
          <internalNodes>
            0 -1 1126 1.0987836867570877e-03</internalNodes>
          <leafValues>
            7.8684367239475250e-02 -3.8054236769676208e-01</leafValues></_>
        <_>
          <internalNodes>
            0 -1 928 -3.3784452825784683e-02</internalNodes>
          <leafValues>
            7.6138824224472046e-01 -3.8083352148532867e-02</leafValues></_>
        <_>
          <internalNodes>
            0 -1 910 5.0519271753728390e-03</internalNodes>
          <leafValues>
            -1.0070662945508957e-01 2.8148418664932251e-01</leafValues></_>
        <_>
          <internalNodes>
            0 -1 911 -2.3707631044089794e-03</internalNodes>
          <leafValues>
            4.9590346217155457e-01 -6.1265673488378525e-02</leafValues></_>
        <_>
          <internalNodes>
            0 -1 707 -1.4390297234058380e-02</internalNodes>
          <leafValues>
            -1.6490170359611511e-01 1.7662714421749115e-01</leafValues></_>
        <_>
          <internalNodes>
            0 -1 887 6.9583891890943050e-03</internalNodes>
          <leafValues>
            -8.4146685898303986e-02 3.4974217414855957e-01</leafValues></_>
        <_>
          <internalNodes>
            0 -1 729 5.0771597307175398e-04</internalNodes>
          <leafValues>
            -2.7149090170860291e-01 1.1805020272731781e-01</leafValues></_>
        <_>
          <internalNodes>
            0 -1 341 -6.7645553499460220e-03</internalNodes>
          <leafValues>
            1.7299847304821014e-01 -1.6420172154903412e-01</leafValues></_>
        <_>
          <internalNodes>
            0 -1 424 -4.6250488609075546e-02</internalNodes>
          <leafValues>
            -7.8238093852996826e-01 3.2518167048692703e-02</leafValues></_>
        <_>
          <internalNodes>
            0 -1 447 2.1162028424441814e-03</internalNodes>
          <leafValues>
            -1.5645833313465118e-01 1.9866417348384857e-01</leafValues></_>
        <_>
          <internalNodes>
            0 -1 779 -3.5081990063190460e-04</internalNodes>
          <leafValues>
            1.6656714677810669e-01 -1.6344697773456573e-01</leafValues></_>
        <_>
          <internalNodes>
            0 -1 584 1.6796456184238195e-03</internalNodes>
          <leafValues>
            -1.1341978609561920e-01 2.6323941349983215e-01</leafValues></_>
        <_>
          <internalNodes>
            0 -1 1097 1.4552655629813671e-02</internalNodes>
          <leafValues>
            7.4131555855274200e-02 -4.1858276724815369e-01</leafValues></_>
        <_>
          <internalNodes>
            0 -1 179 1.7385701835155487e-01</internalNodes>
          <leafValues>
            -5.3821310400962830e-02 6.3610404729843140e-01</leafValues></_>
        <_>
          <internalNodes>
            0 -1 891 -2.2889232262969017e-02</internalNodes>
          <leafValues>
            -7.6938855648040771e-01 4.6526268124580383e-02</leafValues></_>
        <_>
          <internalNodes>
            0 -1 899 -2.0273793488740921e-03</internalNodes>
          <leafValues>
            -2.6045700907707214e-01 1.1499064415693283e-01</leafValues></_>
        <_>
          <internalNodes>
            0 -1 782 -6.9637957494705915e-04</internalNodes>
          <leafValues>
            1.5125949680805206e-01 -1.9546183943748474e-01</leafValues></_>
        <_>
          <internalNodes>
            0 -1 717 -1.2634352315217257e-03</internalNodes>
          <leafValues>
            2.2578690946102142e-01 -1.2913984060287476e-01</leafValues></_>
        <_>
          <internalNodes>
            0 -1 929 -1.2545983772724867e-03</internalNodes>
          <leafValues>
            -4.3550208210945129e-01 7.8076303005218506e-02</leafValues></_>
        <_>
          <internalNodes>
            0 -1 832 1.8692372366786003e-02</internalNodes>
          <leafValues>
            7.9466089606285095e-02 -4.3175518512725830e-01</leafValues></_>
        <_>
          <internalNodes>
            0 -1 932 -1.5950655797496438e-03</internalNodes>
          <leafValues>
            2.8472676873207092e-01 -1.1601934581995010e-01</leafValues></_>
        <_>
          <internalNodes>
            0 -1 470 -8.6053218692541122e-03</internalNodes>
          <leafValues>
            4.6149662137031555e-01 -5.9188090264797211e-02</leafValues></_>
        <_>
          <internalNodes>
            0 -1 391 -6.2510684132575989e-02</internalNodes>
          <leafValues>
            -8.6135482788085938e-01 3.7469476461410522e-02</leafValues></_>
        <_>
          <internalNodes>
            0 -1 150 4.9982547760009766e-02</internalNodes>
          <leafValues>
            -7.1424990892410278e-02 4.7938349843025208e-01</leafValues></_>
        <_>
          <internalNodes>
            0 -1 14 7.9433709383010864e-02</internalNodes>
          <leafValues>
            -1.1298114806413651e-01 2.6930820941925049e-01</leafValues></_>
        <_>
          <internalNodes>
            0 -1 7 -3.5588037967681885e-01</internalNodes>
          <leafValues>
            8.9967215061187744e-01 -3.4712746739387512e-02</leafValues></_>
        <_>
          <internalNodes>
            0 -1 758 1.1545361950993538e-02</internalNodes>
          <leafValues>
            -8.8604986667633057e-02 3.3626335859298706e-01</leafValues></_></weakClassifiers></_>
    <!-- stage 14 -->
    <_>
      <maxWeakCount>59</maxWeakCount>
      <stageThreshold>-7.9424744844436646e-01</stageThreshold>
      <weakClassifiers>
        <_>
          <internalNodes>
            0 -1 175 -5.6118402630090714e-02</internalNodes>
          <leafValues>
            4.9317148327827454e-01 1.4101530611515045e-01</leafValues></_>
        <_>
          <internalNodes>
            0 -1 594 1.6461685299873352e-02</internalNodes>
          <leafValues>
            -9.4883628189563751e-02 2.8154239058494568e-01</leafValues></_>
        <_>
          <internalNodes>
            0 -1 309 1.7291892319917679e-02</internalNodes>
          <leafValues>
            5.0453327596187592e-02 -5.4677158594131470e-01</leafValues></_>
        <_>
          <internalNodes>
            0 -1 500 -8.2107037305831909e-02</internalNodes>
          <leafValues>
            5.9468835592269897e-01 -9.5523416996002197e-02</leafValues></_>
        <_>
          <internalNodes>
            0 -1 411 -4.3559852987527847e-02</internalNodes>
          <leafValues>
            3.9562696218490601e-01 -3.2493762671947479e-02</leafValues></_>
        <_>
          <internalNodes>
            0 -1 331 -3.3131942152976990e-02</internalNodes>
          <leafValues>
            4.4720831513404846e-01 -9.1761171817779541e-02</leafValues></_>
        <_>
          <internalNodes>
            0 -1 418 3.6680226912721992e-04</internalNodes>
          <leafValues>
            1.2243209034204483e-01 -2.4559938907623291e-01</leafValues></_>
        <_>
          <internalNodes>
            0 -1 1095 -4.2600529268383980e-03</internalNodes>
          <leafValues>
            2.8263735771179199e-01 -9.6098430454730988e-02</leafValues></_>
        <_>
          <internalNodes>
            0 -1 914 -9.7593264654278755e-03</internalNodes>
          <leafValues>
            2.5329819321632385e-01 -1.1322322487831116e-01</leafValues></_>
        <_>
          <internalNodes>
            0 -1 297 -1.2668337672948837e-02</internalNodes>
          <leafValues>
            2.0846042037010193e-01 -1.2337677925825119e-01</leafValues></_>
        <_>
          <internalNodes>
            0 -1 545 -5.9921260923147202e-02</internalNodes>
          <leafValues>
            5.9401130676269531e-01 -3.3227093517780304e-02</leafValues></_>
        <_>
          <internalNodes>
            0 -1 698 2.6909062638878822e-02</internalNodes>
          <leafValues>
            4.1003633290529251e-02 -7.7720052003860474e-01</leafValues></_>
        <_>
          <internalNodes>
            0 -1 528 -5.4401885718107224e-03</internalNodes>
          <leafValues>
            4.0439811348915100e-01 -6.9788664579391479e-02</leafValues></_>
        <_>
          <internalNodes>
            0 -1 593 7.9760383814573288e-03</internalNodes>
          <leafValues>
            -6.8974897265434265e-02 4.0088364481925964e-01</leafValues></_>
        <_>
          <internalNodes>
            0 -1 384 -5.2840034477412701e-03</internalNodes>
          <leafValues>
            2.1168093383312225e-01 -1.6410887241363525e-01</leafValues></_>
        <_>
          <internalNodes>
            0 -1 275 -1.4212420210242271e-02</internalNodes>
          <leafValues>
            -4.3252530694007874e-01 7.4292942881584167e-02</leafValues></_>
        <_>
          <internalNodes>
            0 -1 638 3.0707526020705700e-03</internalNodes>
          <leafValues>
            -1.1361700296401978e-01 2.2787638008594513e-01</leafValues></_>
        <_>
          <internalNodes>
            0 -1 656 -1.0335139231756330e-03</internalNodes>
          <leafValues>
            1.9804915785789490e-01 -1.5642409026622772e-01</leafValues></_>
        <_>
          <internalNodes>
            0 -1 684 -1.6770467162132263e-02</internalNodes>
          <leafValues>
            -5.3671967983245850e-01 5.8025188744068146e-02</leafValues></_>
        <_>
          <internalNodes>
            0 -1 673 -2.9518136288970709e-03</internalNodes>
          <leafValues>
            2.0244409143924713e-01 -1.4756931364536285e-01</leafValues></_>
        <_>
          <internalNodes>
            0 -1 674 2.6941900141537189e-03</internalNodes>
          <leafValues>
            -8.3461344242095947e-02 3.8047444820404053e-01</leafValues></_>
        <_>
          <internalNodes>
            0 -1 220 1.5541976690292358e-01</internalNodes>
          <leafValues>
            4.8011638224124908e-02 -6.9616782665252686e-01</leafValues></_>
        <_>
          <internalNodes>
            0 -1 70 -2.7414723299443722e-03</internalNodes>
          <leafValues>
            3.2755327224731445e-01 -9.5202334225177765e-02</leafValues></_>
        <_>
          <internalNodes>
            0 -1 1040 4.2379810474812984e-04</internalNodes>
          <leafValues>
            1.1842788755893707e-01 -2.4347260594367981e-01</leafValues></_>
        <_>
          <internalNodes>
            0 -1 442 5.1397416973486543e-04</internalNodes>
          <leafValues>
            1.2985278666019440e-01 -2.4474567174911499e-01</leafValues></_>
        <_>
          <internalNodes>
            0 -1 962 2.9500633478164673e-02</internalNodes>
          <leafValues>
            -9.2483408749103546e-02 3.2629463076591492e-01</leafValues></_>
        <_>
          <internalNodes>
            0 -1 585 -3.5592685453593731e-03</internalNodes>
          <leafValues>
            2.8311014175415039e-01 -9.9725611507892609e-02</leafValues></_>
        <_>
          <internalNodes>
            0 -1 937 -4.1085365228354931e-03</internalNodes>
          <leafValues>
            3.3197379112243652e-01 -7.9953975975513458e-02</leafValues></_>
        <_>
          <internalNodes>
            0 -1 195 -6.9184559397399426e-03</internalNodes>
          <leafValues>
            2.1724146604537964e-01 -1.3977625966072083e-01</leafValues></_>
        <_>
          <internalNodes>
            0 -1 223 -1.4567813277244568e-01</internalNodes>
          <leafValues>
            7.6551252603530884e-01 -4.3298173695802689e-02</leafValues></_>
        <_>
          <internalNodes>
            0 -1 339 -4.8340181820094585e-04</internalNodes>
          <leafValues>
            -2.4319902062416077e-01 1.1705645173788071e-01</leafValues></_>
        <_>
          <internalNodes>
            0 -1 266 -2.3885585367679596e-02</internalNodes>
          <leafValues>
            -7.5699400901794434e-01 3.9025776088237762e-02</leafValues></_>
        <_>
          <internalNodes>
            0 -1 257 2.5045687798410654e-03</internalNodes>
          <leafValues>
            -1.5355347096920013e-01 1.7703922092914581e-01</leafValues></_>
        <_>
          <internalNodes>
            0 -1 598 -1.1994350701570511e-02</internalNodes>
          <leafValues>
            -4.5706537365913391e-01 5.5978480726480484e-02</leafValues></_>
        <_>
          <internalNodes>
            0 -1 287 -1.0428790934383869e-02</internalNodes>
          <leafValues>
            3.2357916235923767e-01 -8.8742606341838837e-02</leafValues></_>
        <_>
          <internalNodes>
            0 -1 125 -1.1315507814288139e-02</internalNodes>
          <leafValues>
